{"learner":{"attributes":{"scikit_learn":"{\"_estimator_type\": \"classifier\"}"},"feature_names":[],"feature_types":[],"gradient_booster":{"model":{"cats":{"enc":[],"feature_segments":[],"sorted_idx":[]},"gbtree_model_param":{"num_parallel_tree":"1","num_trees":"150"},"iteration_indptr":[0,1,2,3,4,5,6,7,8,9,10,11,12,13,14,15,16,17,18,19,20,21,22,23,24,25,26,27,28,29,30,31,32,33,34,35,36,37,38,39,40,41,42,43,44,45,46,47,48,49,50,51,52,53,54,55,56,57,58,59,60,61,62,63,64,65,66,67,68,69,70,71,72,73,74,75,76,77,78,79,80,81,82,83,84,85,86,87,88,89,90,91,92,93,94,95,96,97,98,99,100,101,102,103,104,105,106,107,108,109,110,111,112,113,114,115,116,117,118,119,120,121,122,123,124,125,126,127,128,129,130,131,132,133,134,135,136,137,138,139,140,141,142,143,144,145,146,147,148,149,150],"tree_info":[0,0,0,0,0,0,0,0,0,0,0,0,0,0,0,0,0,0,0,0,0,0,0,0,0,0,0,0,0,0,0,0,0,0,0,0,0,0,0,0,0,0,0,0,0,0,0,0,0,0,0,0,0,0,0,0,0,0,0,0,0,0,0,0,0,0,0,0,0,0,0,0,0,0,0,0,0,0,0,0,0,0,0,0,0,0,0,0,0,0,0,0,0,0,0,0,0,0,0,0,0,0,0,0,0,0,0,0,0,0,0,0,0,0,0,0,0,0,0,0,0,0,0,0,0,0,0,0,0,0,0,0,0,0,0,0,0,0,0,0,0,0,0,0,0,0,0,0,0,0],"trees":[{"base_weights":[-1.8671504E-1,-6.402452E-1,2.1910651E-1,-9.223955E-1,2.1863008E-1,-1.0900441E0,2.1883619E-1,2.1553098E-1,-5.8888573E-2],"categories":[],"categories_nodes":[],"categories_segments":[],"categories_sizes":[],"default_left":[0,0,0,0,0,0,0,0,0],"id":0,"left_children":[1,3,-1,5,-1,7,-1,-1,-1],"loss_changes":[4.499202E4,2.7940875E4,0E0,1.6617988E4,0E0,8.593719E3,0E0,0E0,0E0],"parents":[2147483647,0,0,1,1,3,3,5,5],"right_children":[2,4,-1,6,-1,8,-1,-1,-1],"split_conditions":[2.5223112E0,2.4954996E0,2.1910651E-1,2.5224571E0,2.1863008E-1,-2.4764488E0,2.1883619E-1,2.1553098E-1,-5.8888573E-2],"split_indices":[17,19,0,16,0,16,0,0,0],"split_type":[0,0,0,0,0,0,0,0,0],"sum_hessian":[2.1710797E4,1.9751053E4,1.9597444E3,1.8699367E4,1.0516863E3,1.8126686E4,5.7268085E2,2.8897055E2,1.7837715E4],"tree_param":{"num_deleted":"0","num_feature":"20","num_nodes":"9","size_leaf_vector":"1"}},{"base_weights":[-1.8142478E-1,-6.213121E-1,1.8583734E-1,-9.005065E-1,1.8548839E-1,-1.0684577E0,1.8566865E-1,2.2863947E-1,-5.7853043E-2],"categories":[],"categories_nodes":[],"categories_segments":[],"categories_sizes":[],"default_left":[0,0,0,0,0,0,0,0,0],"id":1,"left_children":[1,3,-1,5,-1,7,-1,-1,-1],"loss_changes":[3.7024316E4,2.3464268E4,0E0,1.4128694E4,0E0,8.796461E3,0E0,0E0,0E0],"parents":[2147483647,0,0,1,1,3,3,5,5],"right_children":[2,4,-1,6,-1,8,-1,-1,-1],"split_conditions":[2.5223112E0,2.4954996E0,1.8583734E-1,2.5224571E0,1.8548839E-1,-2.535546E0,1.8566865E-1,2.2863947E-1,-5.7853043E-2],"split_indices":[17,19,0,16,0,18,0,0,0],"split_type":[0,0,0,0,0,0,0,0,0],"sum_hessian":[2.1589244E4,1.9400809E4,2.1884343E3,1.8226656E4,1.174153E3,1.7587227E4,6.394293E2,2.711765E2,1.731605E4],"tree_param":{"num_deleted":"0","num_feature":"20","num_nodes":"9","size_leaf_vector":"1"}},{"base_weights":[-1.7633569E-1,-6.038304E-1,1.6280226E-1,-8.7986225E-1,1.6252145E-1,-1.0593944E0,3.002618E0,1.9121157E-1,-5.7576817E-2,5.489124E-2,1.6268545E-1],"categories":[],"categories_nodes":[],"categories_segments":[],"categories_sizes":[],"default_left":[0,0,0,0,0,0,0,0,0,0,0],"id":2,"left_children":[1,3,-1,5,-1,7,9,-1,-1,-1,-1],"loss_changes":[3.1387105E4,2.0239547E4,0E0,1.2376045E4,0E0,7.639342E3,3.717832E2,0E0,0E0,0E0,0E0],"parents":[2147483647,0,0,1,1,3,3,5,5,6,6],"right_children":[2,4,-1,6,-1,8,10,-1,-1,-1,-1],"split_conditions":[2.5223112E0,2.4954996E0,1.6280226E-1,2.3577921E0,1.6252145E-1,-2.4764488E0,2.5224571E0,1.9121157E-1,-5.7576817E-2,5.489124E-2,1.6268545E-1],"split_indices":[17,19,0,16,0,16,16,0,0,0,0],"split_type":[0,0,0,0,0,0,0,0,0,0,0],"sum_hessian":[2.1388361E4,1.9020258E4,2.3681028E3,1.7749834E4,1.2704246E3,1.6966025E4,7.8380914E2,3.1342926E2,1.6652596E4,9.1914215E1,6.9189496E2],"tree_param":{"num_deleted":"0","num_feature":"20","num_nodes":"11","size_leaf_vector":"1"}},{"base_weights":[-1.7154062E-1,-5.8781093E-1,1.4585502E-1,-8.606504E-1,1.456137E-1,-1.0399622E0,2.698555E0,2.0057657E-1,-5.6586422E-2,5.054636E-2,1.4576754E-1],"categories":[],"categories_nodes":[],"categories_segments":[],"categories_sizes":[],"default_left":[0,0,0,0,0,0,0,0,0,0,0],"id":3,"left_children":[1,3,-1,5,-1,7,9,-1,-1,-1,-1],"loss_changes":[2.7152576E4,1.7774508E4,0E0,1.1021553E4,0E0,7.624385E3,3.0012988E2,0E0,0E0,0E0,0E0],"parents":[2147483647,0,0,1,1,3,3,5,5,6,6],"right_children":[2,4,-1,6,-1,8,10,-1,-1,-1,-1],"split_conditions":[2.5223112E0,2.4954996E0,1.4585502E-1,2.3577921E0,1.456137E-1,-2.535546E0,2.5224571E0,2.0057657E-1,-5.6586422E-2,5.054636E-2,1.4576754E-1],"split_indices":[17,19,0,16,0,18,16,0,0,0,0],"split_type":[0,0,0,0,0,0,0,0,0,0,0],"sum_hessian":[2.1116414E4,1.860918E4,2.5072346E3,1.7264154E4,1.3450254E3,1.6436781E4,8.2737244E2,2.9250372E2,1.6144277E4,9.4831E1,7.3254144E2],"tree_param":{"num_deleted":"0","num_feature":"20","num_nodes":"11","size_leaf_vector":"1"}},{"base_weights":[-1.6703673E-1,-5.7287866E-1,1.3284527E-1,-8.4238005E-1,1.3262786E-1,-1.0211701E0,2.4618096E0,1.7325981E-1,-5.5868067E-2,4.6704553E-2,1.3277553E-1],"categories":[],"categories_nodes":[],"categories_segments":[],"categories_sizes":[],"default_left":[0,0,0,0,0,0,0,0,0,0,0],"id":4,"left_children":[1,3,-1,5,-1,7,9,-1,-1,-1,-1],"loss_changes":[2.3834666E4,1.5808164E4,0E0,9.916486E3,0E0,6.8745938E3,2.5252783E2,0E0,0E0,0E0,0E0],"parents":[2147483647,0,0,1,1,3,3,5,5,6,6],"right_children":[2,4,-1,6,-1,8,10,-1,-1,-1,-1],"split_conditions":[2.5223112E0,2.4954996E0,1.3284527E-1,2.3577921E0,1.3262786E-1,-2.4764488E0,2.5224571E0,1.7325981E-1,-5.5868067E-2,4.6704553E-2,1.3277553E-1],"split_indices":[17,19,0,16,0,16,16,0,0,0,0],"split_type":[0,0,0,0,0,0,0,0,0,0,0],"sum_hessian":[2.0794465E4,1.818221E4,2.6122534E3,1.6780826E4,1.4013837E3,1.592008E4,8.607467E2,3.3343872E2,1.5586642E4,9.7509735E1,7.6323694E2],"tree_param":{"num_deleted":"0","num_feature":"20","num_nodes":"11","size_leaf_vector":"1"}},{"base_weights":[-1.628342E-1,-5.5907923E-1,1.2253832E-1,-8.252546E-1,1.2233543E-1,-1.0033613E0,2.2719362E0,1.8030798E-1,-5.4963525E-2,4.328191E-2,1.2247974E-1],"categories":[],"categories_nodes":[],"categories_segments":[],"categories_sizes":[],"default_left":[0,0,0,0,0,0,0,0,0,0,0],"id":5,"left_children":[1,3,-1,5,-1,7,9,-1,-1,-1,-1],"loss_changes":[2.115545E4,1.4193646E4,0E0,8.991542E3,0E0,6.8168135E3,2.1935156E2,0E0,0E0,0E0,0E0],"parents":[2147483647,0,0,1,1,3,3,5,5,6,6],"right_children":[2,4,-1,6,-1,8,10,-1,-1,-1,-1],"split_conditions":[2.5223112E0,2.4954996E0,1.2253832E-1,2.3577921E0,1.2233543E-1,-2.535546E0,2.5224571E0,1.8030798E-1,-5.4963525E-2,4.328191E-2,1.2247974E-1],"split_indices":[17,19,0,16,0,18,16,0,0,0,0],"split_type":[0,0,0,0,0,0,0,0,0,0,0],"sum_hessian":[2.0425365E4,1.7737057E4,2.688309E3,1.6294807E4,1.4422496E3,1.54093545E4,8.854524E2,3.133377E2,1.5096017E4,9.997216E1,7.854802E2],"tree_param":{"num_deleted":"0","num_feature":"20","num_nodes":"11","size_leaf_vector":"1"}},{"base_weights":[-1.5889072E-1,-5.460958E-1,1.1417126E-1,-8.088382E-1,1.13976896E-1,-9.8602843E-1,2.1160722E0,1.5935019E-1,-5.4325905E-2,4.021265E-2,1.1411995E-1],"categories":[],"categories_nodes":[],"categories_segments":[],"categories_sizes":[],"default_left":[0,0,0,0,0,0,0,0,0,0,0],"id":6,"left_children":[1,3,-1,5,-1,7,9,-1,-1,-1,-1],"loss_changes":[1.8939518E4,1.2835566E4,0E0,8.199276E3,0E0,6.2575254E3,1.9535425E2,0E0,0E0,0E0,0E0],"parents":[2147483647,0,0,1,1,3,3,5,5,6,6],"right_children":[2,4,-1,6,-1,8,10,-1,-1,-1,-1],"split_conditions":[2.5223112E0,2.4954996E0,1.1417126E-1,2.3577921E0,1.13976896E-1,-2.4764488E0,2.5224571E0,1.5935019E-1,-5.4325905E-2,4.021265E-2,1.1411995E-1],"split_indices":[17,19,0,16,0,16,16,0,0,0,0],"split_type":[0,0,0,0,0,0,0,0,0,0,0],"sum_hessian":[2.002515E4,1.7285484E4,2.7396663E3,1.5815581E4,1.4699027E3,1.4912829E4,9.027522E2,3.4994504E2,1.4562884E4,1.0223776E2,8.0051447E2],"tree_param":{"num_deleted":"0","num_feature":"20","num_nodes":"11","size_leaf_vector":"1"}},{"base_weights":[-1.5520917E-1,-5.3400326E-1,1.0724598E-1,-7.933471E-1,1.0705606E-1,-9.6951145E-1,1.9856946E0,1.4858949E-1,-5.394693E-2,3.744445E-2,1.0719943E-1],"categories":[],"categories_nodes":[],"categories_segments":[],"categories_sizes":[],"default_left":[0,0,0,0,0,0,0,0,0,0,0],"id":7,"left_children":[1,3,-1,5,-1,7,9,-1,-1,-1,-1],"loss_changes":[1.7074021E4,1.1674736E4,0E0,7.5114473E3,0E0,6.2246504E3,1.7747583E2,0E0,0E0,0E0,0E0],"parents":[2147483647,0,0,1,1,3,3,5,5,6,6],"right_children":[2,4,-1,6,-1,8,10,-1,-1,-1,-1],"split_conditions":[2.5223112E0,2.4954996E0,1.0724598E-1,2.3577921E0,1.0705606E-1,-2.3319056E0,2.5224571E0,1.4858949E-1,-5.394693E-2,3.744445E-2,1.0719943E-1],"split_indices":[17,19,0,16,0,18,16,0,0,0,0],"split_type":[0,0,0,0,0,0,0,0,0,0,0],"sum_hessian":[1.9594273E4,1.6824344E4,2.76993E3,1.5338074E4,1.4862686E3,1.442436E4,9.1371375E2,3.8895557E2,1.4035405E4,1.0432406E2,8.0938965E2],"tree_param":{"num_deleted":"0","num_feature":"20","num_nodes":"11","size_leaf_vector":"1"}},{"base_weights":[-1.5173924E-1,-5.2248484E-1,1.0142267E-1,-7.783087E-1,1.0123426E-1,-9.532302E-1,1.8749182E0,1.4826055E-1,-5.2912828E-2,3.49351E-2,1.0137918E-1],"categories":[],"categories_nodes":[],"categories_segments":[],"categories_sizes":[],"default_left":[0,0,0,0,0,0,0,0,0,0,0],"id":8,"left_children":[1,3,-1,5,-1,7,9,-1,-1,-1,-1],"loss_changes":[1.5478702E4,1.0666283E4,0E0,6.904574E3,0E0,5.7457725E3,1.6383105E2,0E0,0E0,0E0,0E0],"parents":[2147483647,0,0,1,1,3,3,5,5,6,6],"right_children":[2,4,-1,6,-1,8,10,-1,-1,-1,-1],"split_conditions":[2.5223112E0,2.4954996E0,1.0142267E-1,2.3577921E0,1.0123426E-1,-2.4764488E0,2.5224571E0,1.4826055E-1,-5.2912828E-2,3.49351E-2,1.0137918E-1],"split_indices":[17,19,0,16,0,16,16,0,0,0,0],"split_type":[0,0,0,0,0,0,0,0,0,0,0],"sum_hessian":[1.9147465E4,1.636528E4,2.7821843E3,1.4872283E4,1.4929963E3,1.3953031E4,9.192526E2,3.6351108E2,1.358952E4,1.0624684E2,8.1300574E2],"tree_param":{"num_deleted":"0","num_feature":"20","num_nodes":"11","size_leaf_vector":"1"}},{"base_weights":[-1.4848725E-1,-5.1172227E-1,9.646123E-2,-7.6411045E-1,9.627217E-2,-9.3774486E-1,1.779543E0,1.3810563E-1,-5.2620757E-2,3.2650232E-2,9.641968E-2],"categories":[],"categories_nodes":[],"categories_segments":[],"categories_sizes":[],"default_left":[0,0,0,0,0,0,0,0,0,0,0],"id":9,"left_children":[1,3,-1,5,-1,7,9,-1,-1,-1,-1],"loss_changes":[1.4099387E4,9.782836E3,0E0,6.3661865E3,0E0,5.7262656E3,1.5320581E2,0E0,0E0,0E0,0E0],"parents":[2147483647,0,0,1,1,3,3,5,5,6,6],"right_children":[2,4,-1,6,-1,8,10,-1,-1,-1,-1],"split_conditions":[2.5223112E0,2.4954996E0,9.646123E-2,2.3577921E0,9.627217E-2,-2.3319056E0,2.5224571E0,1.3810563E-1,-5.2620757E-2,3.2650232E-2,9.641968E-2],"split_indices":[17,19,0,16,0,18,16,0,0,0,0],"split_type":[0,0,0,0,0,0,0,0,0,0,0],"sum_hessian":[1.8679857E4,1.5900767E4,2.7790903E3,1.4409259E4,1.4915087E3,1.34891E4,9.2015906E2,4.0480798E2,1.3084291E4,1.0802033E2,8.1213873E2],"tree_param":{"num_deleted":"0","num_feature":"20","num_nodes":"11","size_leaf_vector":"1"}},{"base_weights":[-1.4540398E-1,-5.0138015E-1,9.218704E-2,-7.5021845E-1,9.19956E-2,-9.223752E-1,1.6964873E0,1.39154E-1,-5.160892E-2,3.0561501E-2,9.214662E-2],"categories":[],"categories_nodes":[],"categories_segments":[],"categories_sizes":[],"default_left":[0,0,0,0,0,0,0,0,0,0,0],"id":10,"left_children":[1,3,-1,5,-1,7,9,-1,-1,-1,-1],"loss_changes":[1.289319E4,8.999217E3,0E0,5.882239E3,0E0,5.3101113E3,1.4479102E2,0E0,0E0,0E0,0E0],"parents":[2147483647,0,0,1,1,3,3,5,5,6,6],"right_children":[2,4,-1,6,-1,8,10,-1,-1,-1,-1],"split_conditions":[2.5223112E0,2.4954996E0,9.218704E-2,2.3577921E0,9.19956E-2,-2.4764488E0,2.5224571E0,1.39154E-1,-5.160892E-2,3.0561501E-2,9.214662E-2],"split_indices":[17,19,0,16,0,16,16,0,0,0,0],"split_type":[0,0,0,0,0,0,0,0,0,0,0],"sum_hessian":[1.820615E4,1.5443193E4,2.7629568E3,1.3960153E4,1.4830399E3,1.3043033E4,9.1711957E2,3.7467825E2,1.2668355E4,1.0965741E2,8.0746216E2],"tree_param":{"num_deleted":"0","num_feature":"20","num_nodes":"11","size_leaf_vector":"1"}},{"base_weights":[-1.4249854E-1,-4.916615E-1,8.8469915E-2,-7.370452E-1,8.82747E-2,-9.0770996E-1,1.6234342E0,1.4575987E-1,-5.089726E-2,2.8645275E-2,8.842999E-2],"categories":[],"categories_nodes":[],"categories_segments":[],"categories_sizes":[],"default_left":[0,0,0,0,0,0,0,0,0,0,0],"id":11,"left_children":[1,3,-1,5,-1,7,9,-1,-1,-1,-1],"loss_changes":[1.1830848E4,8.301217E3,0E0,5.44667E3,0E0,5.3153525E3,1.3802637E2,0E0,0E0,0E0,0E0],"parents":[2147483647,0,0,1,1,3,3,5,5,6,6],"right_children":[2,4,-1,6,-1,8,10,-1,-1,-1,-1],"split_conditions":[2.5223112E0,2.4954996E0,8.8469915E-2,2.3577921E0,8.82747E-2,-2.535546E0,2.5224571E0,1.4575987E-1,-5.089726E-2,2.8645275E-2,8.842999E-2],"split_indices":[17,19,0,16,0,18,16,0,0,0,0],"split_type":[0,0,0,0,0,0,0,0,0,0,0],"sum_hessian":[1.7720127E4,1.4984333E4,2.735793E3,1.3515668E4,1.4686649E3,1.2604936E4,9.1073236E2,3.525689E2,1.2252367E4,1.11169754E2,7.995626E2],"tree_param":{"num_deleted":"0","num_feature":"20","num_nodes":"11","size_leaf_vector":"1"}},{"base_weights":[-1.3972221E-1,-4.8227802E-1,8.5210726E-2,-7.2412753E-1,8.501057E-2,-8.93154E-1,1.5586085E0,1.3148294E-1,-5.0398577E-2,2.6881764E-2,8.517082E-2],"categories":[],"categories_nodes":[],"categories_segments":[],"categories_sizes":[],"default_left":[0,0,0,0,0,0,0,0,0,0,0],"id":12,"left_children":[1,3,-1,5,-1,7,9,-1,-1,-1,-1],"loss_changes":[1.088709E4,7.6734385E3,0E0,5.0505107E3,0E0,4.9310137E3,1.3251709E2,0E0,0E0,0E0,0E0],"parents":[2147483647,0,0,1,1,3,3,5,5,6,6],"right_children":[2,4,-1,6,-1,8,10,-1,-1,-1,-1],"split_conditions":[2.5223112E0,2.4954996E0,8.5210726E-2,2.3577921E0,8.501057E-2,-2.4764488E0,2.5224571E0,1.3148294E-1,-5.0398577E-2,2.6881764E-2,8.517082E-2],"split_indices":[17,19,0,16,0,16,16,0,0,0,0],"split_type":[0,0,0,0,0,0,0,0,0,0,0],"sum_hessian":[1.723362E4,1.4534267E4,2.6993528E3,1.3084944E4,1.4493218E3,1.2183425E4,9.015199E2,3.83864E2,1.1799561E4,1.12567894E2,7.8895197E2],"tree_param":{"num_deleted":"0","num_feature":"20","num_nodes":"11","size_leaf_vector":"1"}},{"base_weights":[-1.3709559E-1,-4.7338513E-1,8.233264E-2,-7.1177006E-1,8.212653E-2,2.3923202E0,-8.3721787E-1,1.3359526E-1,6.227193E-2,-5.0260443E-2,7.385144E-2],"categories":[],"categories_nodes":[],"categories_segments":[],"categories_sizes":[],"default_left":[0,0,0,0,0,0,0,0,0,0,0],"id":13,"left_children":[1,3,-1,5,-1,7,9,-1,-1,-1,-1],"loss_changes":[1.004454E4,7.107418E3,0E0,4.9328457E3,0E0,1.5447241E2,4.7334277E3,0E0,0E0,0E0,0E0],"parents":[2147483647,0,0,1,1,3,3,5,5,6,6],"right_children":[2,4,-1,6,-1,8,10,-1,-1,-1,-1],"split_conditions":[2.5223112E0,2.4954996E0,8.233264E-2,-2.3319056E0,8.212653E-2,-2.535546E0,2.3577921E0,1.3359526E-1,6.227193E-2,-5.0260443E-2,7.385144E-2],"split_indices":[17,19,0,18,0,18,16,0,0,0,0],"split_type":[0,0,0,0,0,0,0,0,0,0,0],"sum_hessian":[1.6742621E4,1.4087452E4,2.6551685E3,1.2661622E4,1.4258298E3,4.9112482E2,1.2170497E4,3.937961E2,9.73287E1,1.1347359E4,8.2313824E2],"tree_param":{"num_deleted":"0","num_feature":"20","num_nodes":"11","size_leaf_vector":"1"}},{"base_weights":[-1.3456334E-1,-4.6465185E-1,7.9775184E-2,-6.9942147E-1,7.95622E-2,2.211308E0,-8.245555E-1,1.2331893E-1,5.7909377E-2,1.2499177E-1,-4.6962954E-2],"categories":[],"categories_nodes":[],"categories_segments":[],"categories_sizes":[],"default_left":[0,0,0,0,0,0,0,0,0,0,0],"id":14,"left_children":[1,3,-1,5,-1,7,9,-1,-1,-1,-1],"loss_changes":[9.286762E3,6.5923486E3,0E0,4.4662476E3,0E0,1.3292896E2,4.4838457E3,0E0,0E0,0E0,0E0],"parents":[2147483647,0,0,1,1,3,3,5,5,6,6],"right_children":[2,4,-1,6,-1,8,10,-1,-1,-1,-1],"split_conditions":[2.5223112E0,2.4954996E0,7.9775184E-2,-2.3319056E0,7.95622E-2,-2.535546E0,-2.4764488E0,1.2331893E-1,5.7909377E-2,1.2499177E-1,-4.6962954E-2],"split_indices":[17,19,0,18,0,18,16,0,0,0,0],"split_type":[0,0,0,0,0,0,0,0,0,0,0],"sum_hessian":[1.6259592E4,1.3655012E4,2.6045796E3,1.2256106E4,1.3989058E3,5.0449255E2,1.1751613E4,4.0504645E2,9.94461E1,3.9125592E2,1.1360357E4],"tree_param":{"num_deleted":"0","num_feature":"20","num_nodes":"11","size_leaf_vector":"1"}},{"base_weights":[-1.3169916E-1,-4.5453078E-1,7.749002E-2,-6.845507E-1,7.726932E-2,-8.5763085E-1,1.4708327E0,1.1596743E-1,-4.8878662E-2,2.285791E-2,8.111745E-2],"categories":[],"categories_nodes":[],"categories_segments":[],"categories_sizes":[],"default_left":[0,0,0,0,0,0,0,0,0,0,0],"id":15,"left_children":[1,3,-1,5,-1,7,9,-1,-1,-1,-1],"loss_changes":[8.593342E3,6.1102505E3,0E0,4.444736E3,0E0,4.2038994E3,1.3529883E2,0E0,0E0,0E0,0E0],"parents":[2147483647,0,0,1,1,3,3,5,5,6,6],"right_children":[2,4,-1,6,-1,8,10,-1,-1,-1,-1],"split_conditions":[2.5223112E0,2.4954996E0,7.749002E-2,2.3577921E0,7.726932E-2,-2.4764488E0,2.5224571E0,1.1596743E-1,-4.8878662E-2,2.285791E-2,8.111745E-2],"split_indices":[17,19,0,16,0,16,16,0,0,0,0],"split_type":[0,0,0,0,0,0,0,0,0,0,0],"sum_hessian":[1.5828009E4,1.3279251E4,2.5487578E3,1.1910074E4,1.3691763E3,1.1025328E4,8.8474634E2,4.0043552E2,1.0624893E4,1.1557094E2,7.6917535E2],"tree_param":{"num_deleted":"0","num_feature":"20","num_nodes":"11","size_leaf_vector":"1"}},{"base_weights":[-1.2939034E-1,-4.465771E-1,7.5438075E-2,-6.7312443E-1,7.5208865E-2,2.1204414E0,-8.021062E-1,1.1799528E-1,5.572266E-2,-4.8838835E-2,7.025792E-2],"categories":[],"categories_nodes":[],"categories_segments":[],"categories_sizes":[],"default_left":[0,0,0,0,0,0,0,0,0,0,0],"id":16,"left_children":[1,3,-1,5,-1,7,9,-1,-1,-1,-1],"loss_changes":[7.9748857E3,5.683497E3,0E0,4.152906E3,0E0,1.1992236E2,4.2474375E3,0E0,0E0,0E0,0E0],"parents":[2147483647,0,0,1,1,3,3,5,5,6,6],"right_children":[2,4,-1,6,-1,8,10,-1,-1,-1,-1],"split_conditions":[2.5223112E0,2.4954996E0,7.5438075E-2,-2.3319056E0,7.5208865E-2,-2.535546E0,2.3577921E0,1.1799528E-1,5.572266E-2,-4.8838835E-2,7.025792E-2],"split_indices":[17,19,0,18,0,18,16,0,0,0,0],"split_type":[0,0,0,0,0,0,0,0,0,0,0],"sum_hessian":[1.5345826E4,1.2857101E4,2.4887258E3,1.1519912E4,1.337189E3,5.077308E2,1.1012181E4,4.0902194E2,9.870886E1,1.020516E4,8.0702124E2],"tree_param":{"num_deleted":"0","num_feature":"20","num_nodes":"11","size_leaf_vector":"1"}},{"base_weights":[-1.2714489E-1,-4.3869463E-1,7.358744E-2,-6.616272E-1,7.3348954E-2,-8.311618E-1,1.3695571E0,1.11561134E-1,-4.782952E-2,1.7426033E-2,7.672354E-2],"categories":[],"categories_nodes":[],"categories_segments":[],"categories_sizes":[],"default_left":[0,0,0,0,0,0,0,0,0,0,0],"id":17,"left_children":[1,3,-1,5,-1,7,9,-1,-1,-1,-1],"loss_changes":[7.411549E3,5.291005E3,0E0,3.840191E3,0E0,3.9547441E3,1.4414185E2,0E0,0E0,0E0,0E0],"parents":[2147483647,0,0,1,1,3,3,5,5,6,6],"right_children":[2,4,-1,6,-1,8,10,-1,-1,-1,-1],"split_conditions":[2.5223112E0,2.4954996E0,7.358744E-2,2.3577921E0,7.3348954E-2,-2.4764488E0,2.5224571E0,1.11561134E-1,-4.782952E-2,1.7426033E-2,7.672354E-2],"split_indices":[17,19,0,16,0,16,16,0,0,0,0],"split_type":[0,0,0,0,0,0,0,0,0,0,0],"sum_hessian":[1.48763E4,1.2450922E4,2.4253777E3,1.11475E4,1.3034219E3,1.0289286E4,8.5821356E2,4.0418478E2,9.885102E3,1.1977269E2,7.3844086E2],"tree_param":{"num_deleted":"0","num_feature":"20","num_nodes":"11","size_leaf_vector":"1"}},{"base_weights":[-1.2499776E-1,-4.3122014E-1,7.191175E-2,-6.506862E-1,7.1663216E-2,2.0418696E0,-7.8439146E-1,1.1339634E-1,5.3848285E-2,-4.719336E-2,7.499444E-2],"categories":[],"categories_nodes":[],"categories_segments":[],"categories_sizes":[],"default_left":[0,0,0,0,0,0,0,0,0,0,0],"id":18,"left_children":[1,3,-1,5,-1,7,9,-1,-1,-1,-1],"loss_changes":[6.8982354E3,4.9315444E3,0E0,3.8829888E3,0E0,1.0887085E2,3.7433887E3,0E0,0E0,0E0,0E0],"parents":[2147483647,0,0,1,1,3,3,5,5,6,6],"right_children":[2,4,-1,6,-1,8,10,-1,-1,-1,-1],"split_conditions":[2.5223112E0,2.4954996E0,7.191175E-2,-2.3319056E0,7.1663216E-2,-2.535546E0,2.5224571E0,1.1339634E-1,5.3848285E-2,-4.719336E-2,7.499444E-2],"split_indices":[17,19,0,18,0,18,16,0,0,0,0],"split_type":[0,0,0,0,0,0,0,0,0,0,0],"sum_hessian":[1.440815E4,1.2048657E4,2.359493E3,1.0780365E4,1.268292E3,5.0932428E2,1.0271041E4,4.1155508E2,9.776921E1,9.601317E3,6.697234E2],"tree_param":{"num_deleted":"0","num_feature":"20","num_nodes":"11","size_leaf_vector":"1"}},{"base_weights":[-1.228852E-1,-4.238027E-1,7.038901E-2,-6.397039E-1,7.012971E-2,1.9189827E0,-7.727451E-1,1.0672219E-1,5.0322264E-2,1.076011E-1,-4.4907834E-2],"categories":[],"categories_nodes":[],"categories_segments":[],"categories_sizes":[],"default_left":[0,0,0,0,0,0,0,0,0,0,0],"id":19,"left_children":[1,3,-1,5,-1,7,9,-1,-1,-1,-1],"loss_changes":[6.42776E3,4.5994805E3,0E0,3.55192E3,0E0,9.9265015E1,3.6387778E3,0E0,0E0,0E0,0E0],"parents":[2147483647,0,0,1,1,3,3,5,5,6,6],"right_children":[2,4,-1,6,-1,8,10,-1,-1,-1,-1],"split_conditions":[2.5223112E0,2.4954996E0,7.038901E-2,-2.3319056E0,7.012971E-2,-2.535546E0,-2.4764488E0,1.0672219E-1,5.0322264E-2,1.076011E-1,-4.4907834E-2],"split_indices":[17,19,0,18,0,18,16,0,0,0,0],"split_type":[0,0,0,0,0,0,0,0,0,0,0],"sum_hessian":[1.3952771E4,1.1661023E4,2.291748E3,1.0428861E4,1.2321621E3,5.1479285E2,9.914068E3,4.1537808E2,9.941476E1,4.0696393E2,9.5071045E3],"tree_param":{"num_deleted":"0","num_feature":"20","num_nodes":"11","size_leaf_vector":"1"}},{"base_weights":[-1.2044089E-1,-4.1497883E-1,6.900077E-2,-6.262329E-1,6.872996E-2,-8.000601E-1,1.32747E0,1.0151588E-1,-4.6533383E-2,2.0509992E-2,7.3874794E-2],"categories":[],"categories_nodes":[],"categories_segments":[],"categories_sizes":[],"default_left":[0,0,0,0,0,0,0,0,0,0,0],"id":20,"left_children":[1,3,-1,5,-1,7,9,-1,-1,-1,-1],"loss_changes":[5.989153E3,4.2834346E3,0E0,3.4421418E3,0E0,3.4417656E3,1.1337195E2,0E0,0E0,0E0,0E0],"parents":[2147483647,0,0,1,1,3,3,5,5,6,6],"right_children":[2,4,-1,6,-1,8,10,-1,-1,-1,-1],"split_conditions":[2.5223112E0,2.4954996E0,6.900077E-2,2.3577921E0,6.872996E-2,-2.4764488E0,2.5224571E0,1.0151588E-1,-4.6533383E-2,2.0509992E-2,7.3874794E-2],"split_indices":[17,19,0,16,0,16,16,0,0,0,0],"split_type":[0,0,0,0,0,0,0,0,0,0,0],"sum_hessian":[1.3549624E4,1.1326891E4,2.222733E3,1.0131544E4,1.1953472E3,9.304301E3,8.272429E2,4.0976627E2,8.894535E3,1.16807396E2,7.104355E2],"tree_param":{"num_deleted":"0","num_feature":"20","num_nodes":"11","size_leaf_vector":"1"}},{"base_weights":[-1.1848439E-1,-4.0808025E-1,6.773143E-2,-6.158962E-1,6.744835E-2,1.8626575E0,-7.53133E-1,9.6069984E-2,-5.6441337E-2,-4.663557E-2,6.392225E-2],"categories":[],"categories_nodes":[],"categories_segments":[],"categories_sizes":[],"default_left":[0,0,0,0,0,0,0,0,0,0,0],"id":21,"left_children":[1,3,-1,5,-1,7,9,-1,-1,-1,-1],"loss_changes":[5.5930664E3,4.001447E3,0E0,3.3342466E3,0E0,9.2553345E1,3.3885615E3,0E0,0E0,0E0,0E0],"parents":[2147483647,0,0,1,1,3,3,5,5,6,6],"right_children":[2,4,-1,6,-1,8,10,-1,-1,-1,-1],"split_conditions":[2.5223112E0,2.4954996E0,6.773143E-2,-2.3319056E0,6.744835E-2,2.29E-1,2.3577921E0,9.6069984E-2,-5.6441337E-2,-4.663557E-2,6.392225E-2],"split_indices":[17,19,0,18,0,2,16,0,0,0,0],"split_type":[0,0,0,0,0,0,0,0,0,0,0],"sum_hessian":[1.3108274E4,1.0955316E4,2.1529575E3,9.797196E3,1.1581206E3,5.133478E2,9.283849E3,5.038124E2,9.535377E0,8.53036E3,7.53488E2],"tree_param":{"num_deleted":"0","num_feature":"20","num_nodes":"11","size_leaf_vector":"1"}},{"base_weights":[-1.1656789E-1,-4.0115127E-1,6.656766E-2,-6.0537875E-1,6.627155E-2,1.7623959E0,-7.416784E-1,9.862942E-2,4.3988552E-2,9.8650776E-2,-4.3604694E-2],"categories":[],"categories_nodes":[],"categories_segments":[],"categories_sizes":[],"default_left":[0,0,0,0,0,0,0,0,0,0,0],"id":22,"left_children":[1,3,-1,5,-1,7,9,-1,-1,-1,-1],"loss_changes":[5.227382E3,3.739229E3,0E0,3.06117E3,0E0,9.40625E1,3.1759888E3,0E0,0E0,0E0,0E0],"parents":[2147483647,0,0,1,1,3,3,5,5,6,6],"right_children":[2,4,-1,6,-1,8,10,-1,-1,-1,-1],"split_conditions":[2.5223112E0,2.4954996E0,6.656766E-2,-2.3319056E0,6.627155E-2,-2.535546E0,-2.4764488E0,9.862942E-2,4.3988552E-2,9.8650776E-2,-4.3604694E-2],"split_indices":[17,19,0,18,0,18,16,0,0,0,0],"split_type":[0,0,0,0,0,0,0,0,0,0,0],"sum_hessian":[1.2683853E4,1.0600991E4,2.0828616E3,9.480273E3,1.1207175E3,5.1537305E2,8.9649E3,4.1524878E2,1.001243E2,4.1028952E2,8.554611E3],"tree_param":{"num_deleted":"0","num_feature":"20","num_nodes":"11","size_leaf_vector":"1"}},{"base_weights":[-1.142913E-1,-3.928873E-1,6.549806E-2,-5.9256923E-1,6.5188125E-2,-7.704489E-1,1.2728858E0,9.387149E-2,-4.5313638E-2,1.7559825E-2,7.16154E-2],"categories":[],"categories_nodes":[],"categories_segments":[],"categories_sizes":[],"default_left":[0,0,0,0,0,0,0,0,0,0,0],"id":23,"left_children":[1,3,-1,5,-1,7,9,-1,-1,-1,-1],"loss_changes":[4.8840527E3,3.4885364E3,0E0,3.0575745E3,0E0,3.0263696E3,1.1737988E2,0E0,0E0,0E0,0E0],"parents":[2147483647,0,0,1,1,3,3,5,5,6,6],"right_children":[2,4,-1,6,-1,8,10,-1,-1,-1,-1],"split_conditions":[2.5223112E0,2.4954996E0,6.549806E-2,2.3577921E0,6.5188125E-2,-2.4764488E0,2.5224571E0,9.387149E-2,-4.5313638E-2,1.7559825E-2,7.16154E-2],"split_indices":[17,19,0,16,0,16,16,0,0,0,0],"split_type":[0,0,0,0,0,0,0,0,0,0,0],"sum_hessian":[1.2306582E4,1.0293759E4,2.0128234E3,9.210418E3,1.0833407E3,8.409153E3,8.0126447E2,4.0967795E2,7.9994756E3,1.1862787E2,6.826366E2],"tree_param":{"num_deleted":"0","num_feature":"20","num_nodes":"11","size_leaf_vector":"1"}},{"base_weights":[-1.1247506E-1,-3.8642728E-1,6.451277E-2,-5.8271515E-1,6.418822E-2,1.7206516E0,-7.233562E-1,9.615238E-2,4.3096095E-2,-4.5507547E-2,6.1538994E-2],"categories":[],"categories_nodes":[],"categories_segments":[],"categories_sizes":[],"default_left":[0,0,0,0,0,0,0,0,0,0,0],"id":24,"left_children":[1,3,-1,5,-1,7,9,-1,-1,-1,-1],"loss_changes":[4.5725083E3,3.264182E3,0E0,2.8870479E3,0E0,8.749011E1,3.065961E3,0E0,0E0,0E0,0E0],"parents":[2147483647,0,0,1,1,3,3,5,5,6,6],"right_children":[2,4,-1,6,-1,8,10,-1,-1,-1,-1],"split_conditions":[2.5223112E0,2.4954996E0,6.451277E-2,-2.3319056E0,6.418822E-2,-2.535546E0,2.3577921E0,9.615238E-2,4.3096095E-2,-4.5507547E-2,6.1538994E-2],"split_indices":[17,19,0,18,0,18,16,0,0,0,0],"split_type":[0,0,0,0,0,0,0,0,0,0,0],"sum_hessian":[1.1896564E4,9.953397E3,1.9431667E3,8.907233E3,1.0461642E3,5.1192242E2,8.395311E3,4.1327682E2,9.8645584E1,7.6633135E3,7.3199744E2],"tree_param":{"num_deleted":"0","num_feature":"20","num_nodes":"11","size_leaf_vector":"1"}},{"base_weights":[-1.1067607E-1,-3.799007E-1,6.360327E-2,-5.7265794E-1,6.326326E-2,1.6399295E0,-7.120963E-1,9.197985E-2,4.0452864E-2,-4.4087764E-2,6.929379E-2],"categories":[],"categories_nodes":[],"categories_segments":[],"categories_sizes":[],"default_left":[0,0,0,0,0,0,0,0,0,0,0],"id":25,"left_children":[1,3,-1,5,-1,7,9,-1,-1,-1,-1],"loss_changes":[4.2832964E3,3.054721E3,0E0,2.6609602E3,0E0,8.335205E1,2.8881582E3,0E0,0E0,0E0,0E0],"parents":[2147483647,0,0,1,1,3,3,5,5,6,6],"right_children":[2,4,-1,6,-1,8,10,-1,-1,-1,-1],"split_conditions":[2.5223112E0,2.4954996E0,6.360327E-2,-2.3319056E0,6.326326E-2,-2.535546E0,2.5224571E0,9.197985E-2,4.0452864E-2,-4.4087764E-2,6.929379E-2],"split_indices":[17,19,0,18,0,18,16,0,0,0,0],"split_type":[0,0,0,0,0,0,0,0,0,0,0],"sum_hessian":[1.1503651E4,9.629482E3,1.8741688E3,8.620147E3,1.0093351E3,5.1040192E2,8.109745E3,4.1053256E2,9.9869354E1,7.5035293E3,6.062161E2],"tree_param":{"num_deleted":"0","num_feature":"20","num_nodes":"11","size_leaf_vector":"1"}},{"base_weights":[-1.0889017E-1,-3.735266E-1,6.276208E-2,-5.628287E-1,6.2405765E-2,1.8734905E0,-6.888768E-1,9.40265E-2,3.1355523E-2,-4.41609E-2,5.922952E-2],"categories":[],"categories_nodes":[],"categories_segments":[],"categories_sizes":[],"default_left":[0,0,0,0,0,0,0,0,0,0,0],"id":26,"left_children":[1,3,-1,5,-1,7,9,-1,-1,-1,-1],"loss_changes":[4.0149888E3,2.8600762E3,0E0,2.5629233E3,0E0,2.4233398E0,2.8889985E3,0E0,0E0,0E0,0E0],"parents":[2147483647,0,0,1,1,3,3,5,5,6,6],"right_children":[2,4,-1,6,-1,8,10,-1,-1,-1,-1],"split_conditions":[2.5223112E0,2.4954996E0,6.276208E-2,-2.4764488E0,6.2405765E-2,1.2071722E0,2.3577921E0,9.40265E-2,3.1355523E-2,-4.41609E-2,5.922952E-2],"split_indices":[17,19,0,16,0,18,16,0,0,0,0],"split_type":[0,0,0,0,0,0,0,0,0,0,0],"sum_hessian":[1.1119585E4,9.313522E3,1.8060623E3,8.340544E3,9.7297894E2,4.096064E2,7.9309375E3,4.0680005E2,2.8063679E0,7.186034E3,7.4490326E2],"tree_param":{"num_deleted":"0","num_feature":"20","num_nodes":"11","size_leaf_vector":"1"}},{"base_weights":[-1.0714694E-1,-3.671972E-1,6.198273E-2,-5.529983E-1,6.1609197E-2,1.6071492E0,-6.975932E-1,9.004342E-2,3.9786004E-2,8.9562975E-2,-4.1966755E-2],"categories":[],"categories_nodes":[],"categories_segments":[],"categories_sizes":[],"default_left":[0,0,0,0,0,0,0,0,0,0,0],"id":27,"left_children":[1,3,-1,5,-1,7,9,-1,-1,-1,-1],"loss_changes":[3.7656072E3,2.6785356E3,0E0,2.5230312E3,0E0,7.8239136E1,2.671383E3,0E0,0E0,0E0,0E0],"parents":[2147483647,0,0,1,1,3,3,5,5,6,6],"right_children":[2,4,-1,6,-1,8,10,-1,-1,-1,-1],"split_conditions":[2.5223112E0,2.4954996E0,6.198273E-2,-2.3319056E0,6.1609197E-2,-2.535546E0,-2.4764488E0,9.004342E-2,3.9786004E-2,8.9562975E-2,-4.1966755E-2],"split_indices":[17,19,0,18,0,18,16,0,0,0,0],"split_type":[0,0,0,0,0,0,0,0,0,0,0],"sum_hessian":[1.0749327E4,9.010284E3,1.7390438E3,8.073083E3,9.3720087E2,5.0585443E2,7.5672285E3,4.0737833E2,9.8476105E1,4.0711093E2,7.1601177E3],"tree_param":{"num_deleted":"0","num_feature":"20","num_nodes":"11","size_leaf_vector":"1"}},{"base_weights":[-1.0508281E-1,-3.5966206E-1,6.1259437E-2,-5.411286E-1,6.0867768E-2,-7.1915436E-1,1.1720027E0,7.8174435E-2,-4.382394E-2,1.3750197E-2,6.7316644E-2],"categories":[],"categories_nodes":[],"categories_segments":[],"categories_sizes":[],"default_left":[0,0,0,0,0,0,0,0,0,0,0],"id":28,"left_children":[1,3,-1,5,-1,7,9,-1,-1,-1,-1],"loss_changes":[3.5298064E3,2.5042117E3,0E0,2.393793E3,0E0,2.554042E3,1.1518872E2,0E0,0E0,0E0,0E0],"parents":[2147483647,0,0,1,1,3,3,5,5,6,6],"right_children":[2,4,-1,6,-1,8,10,-1,-1,-1,-1],"split_conditions":[2.5223112E0,2.4954996E0,6.1259437E-2,2.3577921E0,6.0867768E-2,-2.3319056E0,2.5224571E0,7.8174435E-2,-4.382394E-2,1.3750197E-2,6.7316644E-2],"split_indices":[17,19,0,16,0,18,16,0,0,0,0],"split_type":[0,0,0,0,0,0,0,0,0,0,0],"sum_hessian":[1.0420576E4,8.747301E3,1.6732754E3,7.8452134E3,9.020876E2,7.1072227E3,7.3799066E2,4.576836E2,6.649539E3,1.2050767E2,6.17483E2],"tree_param":{"num_deleted":"0","num_feature":"20","num_nodes":"11","size_leaf_vector":"1"}},{"base_weights":[-1.0341407E-1,-3.5361266E-1,6.0587175E-2,-5.316898E-1,6.0176384E-2,1.7537016E0,-6.6076636E-1,8.792039E-2,1.4942201E-2,-4.3069135E-2,5.7252914E-2],"categories":[],"categories_nodes":[],"categories_segments":[],"categories_sizes":[],"default_left":[0,0,0,0,0,0,0,0,0,0,0],"id":29,"left_children":[1,3,-1,5,-1,7,9,-1,-1,-1,-1],"loss_changes":[3.3142302E3,2.3470518E3,0E0,2.2413733E3,0E0,2.2561035E0,2.6053801E3,0E0,0E0,0E0,0E0],"parents":[2147483647,0,0,1,1,3,3,5,5,6,6],"right_children":[2,4,-1,6,-1,8,10,-1,-1,-1,-1],"split_conditions":[2.5223112E0,2.4954996E0,6.0587175E-2,-2.4764488E0,6.0176384E-2,6.66E1,2.3577921E0,8.792039E-2,1.4942201E-2,-4.3069135E-2,5.7252914E-2],"split_indices":[17,19,0,16,0,15,16,0,0,0,0],"split_type":[0,0,0,0,0,0,0,0,0,0,0],"sum_hessian":[1.0069798E4,8.460907E3,1.608891E3,7.593195E3,8.6771185E2,4.0525644E2,7.1879385E3,4.037418E2,1.5146501E0,6.469715E3,7.1822375E2],"tree_param":{"num_deleted":"0","num_feature":"20","num_nodes":"11","size_leaf_vector":"1"}},{"base_weights":[-1.0174866E-1,-3.4755048E-1,5.9961427E-2,-5.221933E-1,5.9530526E-2,1.5077019E0,-6.700704E-1,8.540806E-2,3.4685496E-2,8.4310606E-2,-4.082848E-2],"categories":[],"categories_nodes":[],"categories_segments":[],"categories_sizes":[],"default_left":[0,0,0,0,0,0,0,0,0,0,0],"id":30,"left_children":[1,3,-1,5,-1,7,9,-1,-1,-1,-1],"loss_changes":[3.11303E3,2.2000283E3,0E0,2.2083179E3,0E0,8.0339966E1,2.3676016E3,0E0,0E0,0E0,0E0],"parents":[2147483647,0,0,1,1,3,3,5,5,6,6],"right_children":[2,4,-1,6,-1,8,10,-1,-1,-1,-1],"split_conditions":[2.5223112E0,2.4954996E0,5.9961427E-2,-2.3319056E0,5.9530526E-2,-2.535546E0,-2.4764488E0,8.540806E-2,3.4685496E-2,8.4310606E-2,-4.082848E-2],"split_indices":[17,19,0,18,0,18,16,0,0,0,0],"split_type":[0,0,0,0,0,0,0,0,0,0,0],"sum_hessian":[9.732531E3,8.1865317E3,1.5460001E3,7.3524004E3,8.341311E2,4.9862518E2,6.8537754E3,3.992136E2,9.941161E1,4.0056747E2,6.4532075E3],"tree_param":{"num_deleted":"0","num_feature":"20","num_nodes":"11","size_leaf_vector":"1"}},{"base_weights":[-9.976769E-2,-3.4034288E-1,5.9378218E-2,-5.107893E-1,5.892613E-2,-6.755445E-1,6.58967E-2,7.3332064E-2,-4.190853E-2],"categories":[],"categories_nodes":[],"categories_segments":[],"categories_sizes":[],"default_left":[0,0,0,0,0,0,0,0,0],"id":31,"left_children":[1,3,-1,5,-1,7,-1,-1,-1],"loss_changes":[2.922201E3,2.0586318E3,0E0,2.1545825E3,0E0,2.2859016E3,0E0,0E0,0E0],"parents":[2147483647,0,0,1,1,3,3,5,5],"right_children":[2,4,-1,6,-1,8,-1,-1,-1],"split_conditions":[2.5223112E0,2.4954996E0,5.9378218E-2,2.5224571E0,5.892613E-2,-2.3319056E0,6.58967E-2,7.3332064E-2,-4.190853E-2],"split_indices":[17,19,0,16,0,18,0,0,0],"split_type":[0,0,0,0,0,0,0,0,0],"sum_hessian":[9.433275E3,7.9485874E3,1.4846875E3,7.1471963E3,8.013913E2,6.5570796E3,5.901167E2,4.620975E2,6.094982E3],"tree_param":{"num_deleted":"0","num_feature":"20","num_nodes":"9","size_leaf_vector":"1"}},{"base_weights":[-9.81246E-2,-3.344137E-1,5.8833957E-2,-5.0148E-1,5.8359604E-2,-6.8104726E-1,1.1201937E0,8.277693E-2,-4.2029392E-2,1.3580716E-2,6.487776E-2],"categories":[],"categories_nodes":[],"categories_segments":[],"categories_sizes":[],"default_left":[0,0,0,0,0,0,0,0,0,0,0],"id":32,"left_children":[1,3,-1,5,-1,7,9,-1,-1,-1,-1],"loss_changes":[2.7469756E3,1.9305371E3,0E0,2.0169049E3,0E0,2.325296E3,1.03585754E2,0E0,0E0,0E0,0E0],"parents":[2147483647,0,0,1,1,3,3,5,5,6,6],"right_children":[2,4,-1,6,-1,8,10,-1,-1,-1,-1],"split_conditions":[2.5223112E0,2.4954996E0,5.8833957E-2,2.3577921E0,5.8359604E-2,-2.4764488E0,2.5224571E0,8.277693E-2,-4.2029392E-2,1.3580716E-2,6.487776E-2],"split_indices":[17,19,0,16,0,16,16,0,0,0,0],"split_type":[0,0,0,0,0,0,0,0,0,0,0],"sum_hessian":[9.117125E3,7.692105E3,1.4250195E3,6.922576E3,7.6952893E2,6.232981E3,6.8959534E2,3.9778323E2,5.8351978E3,1.1965274E2,5.6994257E2],"tree_param":{"num_deleted":"0","num_feature":"20","num_nodes":"11","size_leaf_vector":"1"}},{"base_weights":[-9.6540414E-2,-3.2873854E-1,5.8325488E-2,-4.9257872E-1,5.782769E-2,1.4227287E0,-6.4354914E-1,8.156221E-2,3.015902E-2,-4.1026257E-2,6.423934E-2],"categories":[],"categories_nodes":[],"categories_segments":[],"categories_sizes":[],"default_left":[0,0,0,0,0,0,0,0,0,0,0],"id":33,"left_children":[1,3,-1,5,-1,7,9,-1,-1,-1,-1],"loss_changes":[2.5836257E3,1.8113721E3,0E0,1.938992E3,0E0,8.27561E1,2.12154E3,0E0,0E0,0E0,0E0],"parents":[2147483647,0,0,1,1,3,3,5,5,6,6],"right_children":[2,4,-1,6,-1,8,10,-1,-1,-1,-1],"split_conditions":[2.5223112E0,2.4954996E0,5.8325488E-2,-2.3319056E0,5.782769E-2,-2.535546E0,2.5224571E0,8.156221E-2,3.015902E-2,-4.1026257E-2,6.423934E-2],"split_indices":[17,19,0,18,0,18,16,0,0,0,0],"split_type":[0,0,0,0,0,0,0,0,0,0,0],"sum_hessian":[8.807174E3,7.4401265E3,1.3670471E3,6.7015566E3,7.385695E2,4.890268E2,6.2125303E3,3.890511E2,9.997571E1,5.690821E3,5.2170917E2],"tree_param":{"num_deleted":"0","num_feature":"20","num_nodes":"11","size_leaf_vector":"1"}},{"base_weights":[-9.492383E-2,-3.229731E-1,5.7849903E-2,-4.835213E-1,5.7327468E-2,1.6265259E0,-6.203779E-1,8.167314E-2,2.3136733E-2,-4.1184172E-2,5.4289002E-2],"categories":[],"categories_nodes":[],"categories_segments":[],"categories_sizes":[],"default_left":[0,0,0,0,0,0,0,0,0,0,0],"id":34,"left_children":[1,3,-1,5,-1,7,9,-1,-1,-1,-1],"loss_changes":[2.430486E3,1.6994758E3,0E0,1.8758586E3,0E0,2.4388428E0,2.1160205E3,0E0,0E0,0E0,0E0],"parents":[2147483647,0,0,1,1,3,3,5,5,6,6],"right_children":[2,4,-1,6,-1,8,10,-1,-1,-1,-1],"split_conditions":[2.5223112E0,2.4954996E0,5.7849903E-2,-2.4764488E0,5.7327468E-2,1.2071722E0,2.3577921E0,8.167314E-2,2.3136733E-2,-4.1184172E-2,5.4289002E-2],"split_indices":[17,19,0,16,0,18,16,0,0,0,0],"split_type":[0,0,0,0,0,0,0,0,0,0,0],"sum_hessian":[8.510782E3,7.1999805E3,1.3108019E3,6.491448E3,7.085325E2,3.9472443E2,6.0967236E3,3.919844E2,2.7400293E0,5.448052E3,6.486718E2],"tree_param":{"num_deleted":"0","num_feature":"20","num_nodes":"11","size_leaf_vector":"1"}},{"base_weights":[-9.33382E-2,-3.1722084E-1,5.7404634E-2,-4.7444785E-1,5.68563E-2,1.4035194E0,-6.308133E-1,8.033637E-2,3.0106572E-2,7.8664236E-2,-3.944072E-2],"categories":[],"categories_nodes":[],"categories_segments":[],"categories_sizes":[],"default_left":[0,0,0,0,0,0,0,0,0,0,0],"id":35,"left_children":[1,3,-1,5,-1,7,9,-1,-1,-1,-1],"loss_changes":[2.28712E3,1.5946292E3,0E0,1.8485067E3,0E0,7.78396E1,2.0242266E3,0E0,0E0,0E0,0E0],"parents":[2147483647,0,0,1,1,3,3,5,5,6,6],"right_children":[2,4,-1,6,-1,8,10,-1,-1,-1,-1],"split_conditions":[2.5223112E0,2.4954996E0,5.7404634E-2,-2.3319056E0,5.68563E-2,-2.535546E0,-2.4764488E0,8.033637E-2,3.0106572E-2,7.8664236E-2,-3.944072E-2],"split_indices":[17,19,0,18,0,18,16,0,0,0,0],"split_type":[0,0,0,0,0,0,0,0,0,0,0],"sum_hessian":[8.22667E3,6.9703623E3,1.2563075E3,6.2909336E3,6.794285E2,4.829287E2,5.808005E3,3.8444107E2,9.848764E1,3.8789902E2,5.420106E3],"tree_param":{"num_deleted":"0","num_feature":"20","num_nodes":"11","size_leaf_vector":"1"}},{"base_weights":[-9.148856E-2,-3.1054008E-1,5.6987334E-2,-4.6385962E-1,5.6411784E-2,1.3544896E0,-6.1737216E-1,7.8006715E-2,2.8372435E-2,-4.1086175E-2,5.352958E-2],"categories":[],"categories_nodes":[],"categories_segments":[],"categories_sizes":[],"default_left":[0,0,0,0,0,0,0,0,0,0,0],"id":36,"left_children":[1,3,-1,5,-1,7,9,-1,-1,-1,-1],"loss_changes":[2.1509087E3,1.4939756E3,0E0,1.708869E3,0E0,7.626599E1,1.947447E3,0E0,0E0,0E0,0E0],"parents":[2147483647,0,0,1,1,3,3,5,5,6,6],"right_children":[2,4,-1,6,-1,8,10,-1,-1,-1,-1],"split_conditions":[2.5223112E0,2.4954996E0,5.6987334E-2,-2.3319056E0,5.6411784E-2,-2.535546E0,2.3577921E0,7.8006715E-2,2.8372435E-2,-4.1086175E-2,5.352958E-2],"split_indices":[17,19,0,18,0,18,16,0,0,0,0],"split_type":[0,0,0,0,0,0,0,0,0,0,0],"sum_hessian":[7.972761E3,6.769189E3,1.2035723E3,6.1179253E3,6.5126373E2,4.7568103E2,5.642244E3,3.7636014E2,9.9320885E1,5.0333955E3,6.088488E2],"tree_param":{"num_deleted":"0","num_feature":"20","num_nodes":"11","size_leaf_vector":"1"}},{"base_weights":[-8.993446E-2,-3.0490568E-1,5.6595903E-2,1.5499992E0,-4.2067614E-1,1.5568916E0,2.1085719E-2,-5.9415525E-1,5.5991765E-2,7.796926E-2,2.0825008E-2,-4.0198915E-2,5.2347478E-2],"categories":[],"categories_nodes":[],"categories_segments":[],"categories_sizes":[],"default_left":[0,0,0,0,0,0,0,0,0,0,0,0,0],"id":37,"left_children":[1,3,-1,5,7,9,-1,11,-1,-1,-1,-1,-1],"loss_changes":[2.0252135E3,1.4085935E3,0E0,2.340271E0,1.6501155E3,4.387207E-1,0E0,1.9112407E3,0E0,0E0,0E0,0E0,0E0],"parents":[2147483647,0,0,1,1,3,3,4,4,5,5,7,7],"right_children":[2,4,-1,6,8,10,-1,12,-1,-1,-1,-1,-1],"split_conditions":[2.5223112E0,-2.4764488E0,5.6595903E-2,1.2071722E0,2.4954996E0,1.7E0,2.1085719E-2,2.3577921E0,5.5991765E-2,7.796926E-2,2.0825008E-2,-4.0198915E-2,5.2347478E-2],"split_indices":[17,16,0,18,19,7,0,16,0,0,0,0,0],"split_type":[0,0,0,0,0,0,0,0,0,0,0,0,0],"sum_hessian":[7.7079937E3,6.555396E3,1.1525978E3,3.843794E2,6.1710166E3,3.8166806E2,2.7113466E0,5.546978E3,6.240385E2,3.804687E2,1.1993716E0,4.9186196E3,6.283585E2],"tree_param":{"num_deleted":"0","num_feature":"20","num_nodes":"13","size_leaf_vector":"1"}},{"base_weights":[-8.838297E-2,-2.9931566E-1,5.6228418E-2,1.3384486E0,-4.3048766E-1,1.5397608E0,5.72952E-1,-6.049623E-1,5.5593174E-2,7.744263E-2,4.7317233E-2,5.834515E-2,-2.4689779E-2,-3.186708E-2,5.009559E-1],"categories":[],"categories_nodes":[],"categories_segments":[],"categories_sizes":[],"default_left":[0,0,0,0,0,0,0,0,0,0,0,0,0,0,0],"id":38,"left_children":[1,3,-1,5,7,9,11,13,-1,-1,-1,-1,-1,-1,-1],"loss_changes":[1.9073439E3,1.3647837E3,0E0,7.17207E1,1.5830077E3,5.4364014E-1,6.374127E1,1.8237919E3,0E0,0E0,0E0,0E0,0E0,0E0,0E0],"parents":[2147483647,0,0,1,1,3,3,4,4,5,5,6,6,7,7],"right_children":[2,4,-1,6,8,10,12,14,-1,-1,-1,-1,-1,-1,-1],"split_conditions":[2.5223112E0,-2.3319056E0,5.6228418E-2,-2.535546E0,2.4954996E0,2.5224571E0,3.56E1,2.22482E0,5.5593174E-2,7.744263E-2,4.7317233E-2,5.834515E-2,-2.4689779E-2,-3.186708E-2,5.009559E-1],"split_indices":[17,18,0,18,19,16,15,18,0,0,0,0,0,0,0],"split_type":[0,0,0,0,0,0,0,0,0,0,0,0,0,0,0],"sum_hessian":[7.452583E3,6.349207E3,1.1033762E3,4.7013052E2,5.879076E3,3.7143753E2,9.869299E1,5.282154E3,5.969226E2,3.6424686E2,7.1906996E0,6.3335003E1,3.5357986E1,5.267041E3,1.5112498E1],"tree_param":{"num_deleted":"0","num_feature":"20","num_nodes":"15","size_leaf_vector":"1"}},{"base_weights":[-8.618174E-2,-2.9092813E-1,5.5883106E-2,1.5229232E0,-4.0927708E-1,1.5276916E0,8.420834E-3,-5.68139E-1,6.1794806E-2,7.650464E-2,2.1094784E-2,-3.8248237E-2,5.5199858E-2],"categories":[],"categories_nodes":[],"categories_segments":[],"categories_sizes":[],"default_left":[0,0,0,0,0,0,0,0,0,0,0,0,0],"id":39,"left_children":[1,3,-1,5,7,9,-1,11,-1,-1,-1,-1,-1],"loss_changes":[1.7921671E3,1.3345146E3,0E0,2.2022705E0,1.5254358E3,3.618164E-1,0E0,1.7520549E3,0E0,0E0,0E0,0E0,0E0],"parents":[2147483647,0,0,1,1,3,3,4,4,5,5,7,7],"right_children":[2,4,-1,6,8,10,-1,12,-1,-1,-1,-1,-1],"split_conditions":[2.5223112E0,-2.4764488E0,5.5883106E-2,6.66E1,2.5224571E0,1.7E0,8.420834E-3,2.4954996E0,6.1794806E-2,7.650464E-2,2.1094784E-2,-3.8248237E-2,5.5199858E-2],"split_indices":[17,16,0,15,16,7,0,19,0,0,0,0,0],"split_type":[0,0,0,0,0,0,0,0,0,0,0,0,0],"sum_hessian":[7.2686465E3,6.212757E3,1.0558898E3,3.7980994E2,5.832947E3,3.7835013E2,1.4598107E0,5.319899E3,5.130477E2,3.7714743E2,1.2026782E0,4.760131E3,5.597683E2],"tree_param":{"num_deleted":"0","num_feature":"20","num_nodes":"13","size_leaf_vector":"1"}},{"base_weights":[-8.4622905E-2,-2.8548566E-1,5.5558413E-2,1.3222233E0,-4.2002833E-1,1.519479E0,5.725407E-1,1.480125E0,-5.5650204E-1,7.638147E-2,4.6404485E-2,7.207101E-2,-5.6123133E-3,7.435062E-2,1.9302903E-2,-3.759409E-2,5.48576E-2],"categories":[],"categories_nodes":[],"categories_segments":[],"categories_sizes":[],"default_left":[0,0,0,0,0,0,0,0,0,0,0,0,0,0,0,0,0],"id":40,"left_children":[1,3,-1,5,7,9,11,13,15,-1,-1,-1,-1,-1,-1,-1,-1],"loss_changes":[1.688656E3,1.3025112E3,0E0,6.7901855E1,1.4413535E3,3.5388184E-1,5.8756813E1,2.2329102E0,1.6755631E3,0E0,0E0,0E0,0E0,0E0,0E0,0E0,0E0],"parents":[2147483647,0,0,1,1,3,3,4,4,5,5,6,6,7,7,8,8],"right_children":[2,4,-1,6,8,10,12,14,16,-1,-1,-1,-1,-1,-1,-1,-1],"split_conditions":[2.5223112E0,-2.3319056E0,5.5558413E-2,-2.535546E0,-2.4764488E0,2.5224571E0,2.81E1,1.2071722E0,2.4954996E0,7.638147E-2,4.6404485E-2,7.207101E-2,-5.6123133E-3,7.435062E-2,1.9302903E-2,-3.759409E-2,5.48576E-2],"split_indices":[17,18,0,18,16,16,15,18,19,0,0,0,0,0,0,0,0],"split_type":[0,0,0,0,0,0,0,0,0,0,0,0,0,0,0,0,0],"sum_hessian":[7.028183E3,6.0180615E3,1.01012134E3,4.6405374E2,5.554008E3,3.6657428E2,9.747946E1,3.715125E2,5.182495E3,3.600294E2,6.544881E0,4.2477608E1,5.5001854E1,3.6883148E2,2.6810298E0,4.63537E3,5.471251E2],"tree_param":{"num_deleted":"0","num_feature":"20","num_nodes":"17","size_leaf_vector":"1"}},{"base_weights":[-8.283533E-2,-2.7916536E-1,5.525285E-2,-4.215299E-1,6.150621E-2,1.2863967E0,-5.7288784E-1,7.442843E-2,2.1340854E-2,7.2066255E-2,-3.668872E-2],"categories":[],"categories_nodes":[],"categories_segments":[],"categories_sizes":[],"default_left":[0,0,0,0,0,0,0,0,0,0,0],"id":41,"left_children":[1,3,-1,5,-1,7,9,-1,-1,-1,-1],"loss_changes":[1.5900896E3,1.2576432E3,0E0,1.3830059E3,0E0,7.50639E1,1.5930007E3,0E0,0E0,0E0,0E0],"parents":[2147483647,0,0,1,1,3,3,5,5,6,6],"right_children":[2,4,-1,6,-1,8,10,-1,-1,-1,-1],"split_conditions":[2.5223112E0,2.5224571E0,5.525285E-2,-2.3319056E0,6.150621E-2,-2.535546E0,-2.4764488E0,7.442843E-2,2.1340854E-2,7.2066255E-2,-3.668872E-2],"split_indices":[17,16,0,18,0,18,16,0,0,0,0],"split_type":[0,0,0,0,0,0,0,0,0,0,0],"sum_hessian":[6.81569E3,5.8496484E3,9.6604126E2,5.346096E3,5.0355258E2,4.345968E2,4.911499E3,3.5125125E2,8.334555E1,3.6270227E2,4.548797E3],"tree_param":{"num_deleted":"0","num_feature":"20","num_nodes":"11","size_leaf_vector":"1"}},{"base_weights":[-8.093796E-2,-2.724595E-1,5.4965097E-2,-4.3002996E-1,1.0403414E0,-6.0336775E-1,5.471131E-2,3.5735738E-1,6.081316E-2,6.2456276E-2,-3.95022E-2,-6.010215E-3,3.9567765E-2],"categories":[],"categories_nodes":[],"categories_segments":[],"categories_sizes":[],"default_left":[0,0,0,0,0,0,0,0,0,0,0,0,0],"id":42,"left_children":[1,3,-1,5,7,9,-1,11,-1,-1,-1,-1,-1],"loss_changes":[1.4969467E3,1.1790242E3,0E0,1.3448718E3,7.2961E1,1.5809525E3,0E0,2.6320322E1,0E0,0E0,0E0,0E0,0E0],"parents":[2147483647,0,0,1,1,3,3,4,4,5,5,7,7],"right_children":[2,4,-1,6,8,10,-1,12,-1,-1,-1,-1,-1],"split_conditions":[2.5223112E0,2.3577921E0,5.4965097E-2,2.4954996E0,2.5224571E0,-2.3319056E0,5.471131E-2,-2.3633082E-1,6.081316E-2,6.2456276E-2,-3.95022E-2,-6.010215E-3,3.9567765E-2],"split_indices":[17,16,0,19,16,18,0,17,0,0,0,0,0],"split_type":[0,0,0,0,0,0,0,0,0,0,0,0,0],"sum_hessian":[6.62012E3,5.696499E3,9.236212E2,5.0866416E3,6.098576E2,4.567798E3,5.188438E2,1.255324E2,4.843252E2,4.176391E2,4.1501587E3,6.0110813E1,6.5421585E1],"tree_param":{"num_deleted":"0","num_feature":"20","num_nodes":"13","size_leaf_vector":"1"}},{"base_weights":[-7.948573E-2,-2.673135E-1,5.4693926E-2,-4.029815E-1,6.0167637E-2,1.425028E0,-5.428638E-1,7.160062E-2,1.7573869E-2,-3.6995377E-2,5.4395564E-2],"categories":[],"categories_nodes":[],"categories_segments":[],"categories_sizes":[],"default_left":[0,0,0,0,0,0,0,0,0,0,0],"id":43,"left_children":[1,3,-1,5,-1,7,9,-1,-1,-1,-1],"loss_changes":[1.4116017E3,1.1020183E3,0E0,1.2934509E3,0E0,2.1931763E0,1.5100148E3,0E0,0E0,0E0,0E0],"parents":[2147483647,0,0,1,1,3,3,5,5,6,6],"right_children":[2,4,-1,6,-1,8,10,-1,-1,-1,-1],"split_conditions":[2.5223112E0,2.5224571E0,5.4693926E-2,-2.4764488E0,6.0167637E-2,1.2071722E0,2.4954996E0,7.160062E-2,1.7573869E-2,-3.6995377E-2,5.4395564E-2],"split_indices":[17,16,0,16,0,18,19,0,0,0,0],"split_type":[0,0,0,0,0,0,0,0,0,0,0],"sum_hessian":[6.402679E3,5.519854E3,8.8282544E2,5.0543223E3,4.6553186E2,3.5861993E2,4.695702E3,3.5597012E2,2.6498244E0,4.1899805E3,5.057217E2],"tree_param":{"num_deleted":"0","num_feature":"20","num_nodes":"11","size_leaf_vector":"1"}},{"base_weights":[-7.798543E-2,-2.6216504E-1,5.4438222E-2,1.223455E0,-3.9643082E-1,7.179403E-2,4.7344223E-1,-5.7225066E-1,1.0093272E0,5.0373025E-2,-2.7366986E-2,6.95548E-2,-3.7173424E-2,1.6048437E-2,5.975431E-2],"categories":[],"categories_nodes":[],"categories_segments":[],"categories_sizes":[],"default_left":[0,0,0,0,0,0,0,0,0,0,0,0,0,0,0],"id":44,"left_children":[1,3,-1,5,7,-1,9,11,13,-1,-1,-1,-1,-1,-1],"loss_changes":[1.3312661E3,1.067661E3,0E0,7.0010376E1,1.2134958E3,0E0,5.474816E1,1.467536E3,6.942084E1,0E0,0E0,0E0,0E0,0E0,0E0],"parents":[2147483647,0,0,1,1,3,3,4,4,6,6,7,7,8,8],"right_children":[2,4,-1,6,8,-1,10,12,14,-1,-1,-1,-1,-1,-1],"split_conditions":[2.5223112E0,-2.3319056E0,5.4438222E-2,-2.535546E0,2.3577921E0,7.179403E-2,3.56E1,-2.4764488E0,2.5224571E0,5.0373025E-2,-2.7366986E-2,6.95548E-2,-3.7173424E-2,1.6048437E-2,5.975431E-2],"split_indices":[17,18,0,18,16,0,15,16,16,0,0,0,0,0,0],"split_type":[0,0,0,0,0,0,0,0,0,0,0,0,0,0,0],"sum_hessian":[6.1927324E3,5.3491133E3,8.4361957E2,4.426939E2,4.906419E3,3.4427158E2,9.842234E1,4.3615127E3,5.449067E2,6.462635E1,3.3795986E1,3.492744E2,4.012238E3,1.1637798E2,4.2852872E2],"tree_param":{"num_deleted":"0","num_feature":"20","num_nodes":"15","size_leaf_vector":"1"}},{"base_weights":[-7.619807E-2,-2.5588083E-1,5.419693E-2,-2.8976706E-1,5.502774E0,-4.36101E-1,5.4266322E-2,1.321234E0,7.952567E0,5.93809E-2,-3.008948E-2,2.3504084E-2,2.6063538E-1,5.057847E-1,4.5294303E-2],"categories":[],"categories_nodes":[],"categories_segments":[],"categories_sizes":[],"default_left":[0,0,0,0,0,0,0,0,0,0,0,0,0,0,0],"id":45,"left_children":[1,3,-1,5,7,9,-1,11,13,-1,-1,-1,-1,-1,-1],"loss_changes":[1.2543019E3,1.01822864E3,0E0,1.0428618E3,3.0221057E2,1.2605186E3,0E0,3.8875755E1,2.8121887E2,0E0,0E0,0E0,0E0,0E0,0E0],"parents":[2147483647,0,0,1,1,3,3,4,4,5,5,7,7,8,8],"right_children":[2,4,-1,6,8,10,-1,12,14,-1,-1,-1,-1,-1,-1],"split_conditions":[2.5223112E0,2.22482E0,5.419693E-2,2.4954996E0,3.31E1,-2.3319056E0,5.4266322E-2,2.0037668E0,2.4954996E0,5.93809E-2,-3.008948E-2,2.3504084E-2,2.6063538E-1,5.057847E-1,4.5294303E-2],"split_indices":[17,18,0,19,15,18,0,17,19,0,0,0,0,0,0],"split_type":[0,0,0,0,0,0,0,0,0,0,0,0,0,0,0],"sum_hessian":[6.0147593E3,5.2087964E3,8.059626E2,5.1792695E3,2.9527193E1,4.681734E3,4.9753528E2,1.147681E1,1.8050383E1,4.329299E2,4.248804E3,1.0336734E1,1.1400772E0,1.3477617E1,4.572765E0],"tree_param":{"num_deleted":"0","num_feature":"20","num_nodes":"15","size_leaf_vector":"1"}},{"base_weights":[-7.415314E-2,-2.4827336E-1,5.3969122E-2,-4.0330365E-1,1.0095423E0,1.3731589E0,-5.489906E-1,3.787354E-1,5.9283078E-2,6.891426E-2,3.0217343E-3,-3.7679315E-2,5.3958315E-2,-4.4382927E-3,3.9809696E-2],"categories":[],"categories_nodes":[],"categories_segments":[],"categories_sizes":[],"default_left":[0,0,0,0,0,0,0,0,0,0,0,0,0,0,0],"id":46,"left_children":[1,3,-1,5,7,9,11,13,-1,-1,-1,-1,-1,-1,-1],"loss_changes":[1.1804816E3,9.961074E2,0E0,1.1774446E3,6.1829956E1,2.2375488E0,1.40079E3,2.4235947E1,0E0,0E0,0E0,0E0,0E0,0E0,0E0],"parents":[2147483647,0,0,1,1,3,3,4,4,5,5,6,6,7,7],"right_children":[2,4,-1,6,8,10,12,14,-1,-1,-1,-1,-1,-1,-1],"split_conditions":[2.5223112E0,2.3577921E0,5.3969122E-2,-2.4764488E0,2.5224571E0,6.66E1,2.4954996E0,-2.3633082E-1,5.9283078E-2,6.891426E-2,3.0217343E-3,-3.7679315E-2,5.3958315E-2,-4.4382927E-3,3.9809696E-2],"split_indices":[17,16,0,16,16,15,19,17,0,0,0,0,0,0,0],"split_type":[0,0,0,0,0,0,0,0,0,0,0,0,0,0,0],"sum_hessian":[5.874981E3,5.105167E3,7.698137E2,4.5455864E3,5.595805E2,3.4388858E2,4.2016978E3,1.2282136E2,4.3675916E2,3.4250116E2,1.3874094E0,3.733127E3,4.6857095E2,5.8309444E1,6.451191E1],"tree_param":{"num_deleted":"0","num_feature":"20","num_nodes":"15","size_leaf_vector":"1"}},{"base_weights":[-7.275283E-2,-2.4350256E-1,5.3753894E-2,6.985729E-2,-3.6134723E-1,-5.3817767E-1,9.8778605E-1,-3.6857616E-2,5.365608E-2,1.653508E-2,5.8809042E-2],"categories":[],"categories_nodes":[],"categories_segments":[],"categories_sizes":[],"default_left":[0,0,0,0,0,0,0,0,0,0,0],"id":47,"left_children":[1,3,-1,-1,5,7,9,-1,-1,-1,-1],"loss_changes":[1.1141221E3,9.5717255E2,0E0,0E0,1.1020637E3,1.3097885E3,6.588977E1,0E0,0E0,0E0,0E0],"parents":[2147483647,0,0,1,1,4,4,5,5,6,6],"right_children":[2,4,-1,-1,6,8,10,-1,-1,-1,-1],"split_conditions":[2.5223112E0,-2.535546E0,5.3753894E-2,6.985729E-2,2.3577921E0,2.4954996E0,2.5224571E0,-3.6857616E-2,5.365608E-2,1.653508E-2,5.8809042E-2],"split_indices":[17,18,0,0,16,19,16,0,0,0,0],"split_type":[0,0,0,0,0,0,0,0,0,0,0],"sum_hessian":[5.682199E3,4.947068E3,7.3513116E2,3.3079813E2,4.6162695E3,4.0818625E3,5.344073E2,3.633691E3,4.4817145E2,1.1969384E2,4.1471347E2],"tree_param":{"num_deleted":"0","num_feature":"20","num_nodes":"11","size_leaf_vector":"1"}},{"base_weights":[-7.133086E-2,-2.3868835E-1,5.355043E-2,1.3592038E0,-3.606657E-1,1.3664489E0,3.0057013E-1,1.1566137E0,-5.177368E-1,2.7592931E-2,6.8601035E-2,1.9767607E-2,4.5090937E-3,6.850948E-2,2.210247E-2,-3.6449417E-2,4.8304513E-2],"categories":[],"categories_nodes":[],"categories_segments":[],"categories_sizes":[],"default_left":[0,0,0,0,0,0,0,0,0,0,0,0,0,0,0,0,0],"id":48,"left_children":[1,3,-1,5,7,9,11,13,15,-1,-1,-1,-1,-1,-1,-1,-1],"loss_changes":[1.0515631E3,9.354966E2,0E0,2.2004395E0,1.0629755E3,7.762451E-1,3.605506E-2,6.3261963E1,1.2671704E3,0E0,0E0,0E0,0E0,0E0,0E0,0E0,0E0],"parents":[2147483647,0,0,1,1,3,3,4,4,5,5,6,6,7,7,8,8],"right_children":[2,4,-1,6,8,10,12,14,16,-1,-1,-1,-1,-1,-1,-1,-1],"split_conditions":[2.5223112E0,-2.4764488E0,5.355043E-2,1.2071722E0,-2.3319056E0,5.8E0,2.3E1,-2.535546E0,2.3577921E0,2.7592931E-2,6.8601035E-2,1.9767607E-2,4.5090937E-3,6.850948E-2,2.210247E-2,-3.6449417E-2,4.8304513E-2],"split_indices":[17,16,0,18,18,3,3,18,16,0,0,0,0,0,0,0,0],"split_type":[0,0,0,0,0,0,0,0,0,0,0,0,0,0,0,0,0],"sum_hessian":[5.4980723E3,4.7961997E3,7.018722E2,3.394389E2,4.4567607E3,3.3684286E2,2.5960371E0,4.174924E2,4.0392686E3,2.9680028E0,3.3387485E2,1.1836405E0,1.4123967E0,3.2071613E2,9.6776276E1,3.5363142E3,5.0295428E2],"tree_param":{"num_deleted":"0","num_feature":"20","num_nodes":"17","size_leaf_vector":"1"}},{"base_weights":[-6.963387E-2,-2.385472E-1,1.031442E0,1.3307098E0,-3.5901356E-1,4.2422214E-1,5.3357985E-2,1.3359061E0,2.5908148E-3,-5.2252126E-1,5.3537246E-2,-1.13904126E-1,5.9665E0,2.679926E-2,6.7072704E-2,5.6276478E-2,-3.5851777E-2,-4.930268E-2,5.1400688E-2,3.591668E-1,7.3607504E-2],"categories":[],"categories_nodes":[],"categories_segments":[],"categories_sizes":[],"default_left":[0,0,0,0,0,0,0,0,0,0,0,0,0,0,0,0,0,0,0,0,0],"id":49,"left_children":[1,3,5,7,9,11,-1,13,-1,15,-1,17,19,-1,-1,-1,-1,-1,-1,-1,-1],"loss_changes":[9.944354E2,8.7675433E2,1.4971313E1,2.128296E0,1.0071204E3,1.23459114E2,0E0,7.424927E-1,0E0,1.2396354E3,0E0,3.936197E1,9.452759E0,0E0,0E0,0E0,0E0,0E0,0E0,0E0,0E0],"parents":[2147483647,0,0,1,1,2,2,3,3,4,4,5,5,7,7,9,9,11,11,12,12],"right_children":[2,4,6,8,10,12,-1,14,-1,16,-1,18,20,-1,-1,-1,-1,-1,-1,-1,-1],"split_conditions":[2.0037668E0,-2.4764488E0,2.5223112E0,6.66E1,2.4954996E0,2.22482E0,5.3357985E-2,5.8E0,2.5908148E-3,-2.3319056E0,5.3537246E-2,2.4954996E0,-9.7026694E-1,2.679926E-2,6.7072704E-2,5.6276478E-2,-3.5851777E-2,-4.930268E-2,5.1400688E-2,3.591668E-1,7.3607504E-2],"split_indices":[17,16,17,15,19,18,0,3,0,18,0,19,16,0,0,0,0,0,0,0,0],"split_type":[0,0,0,0,0,0,0,0,0,0,0,0,0,0,0,0,0,0,0,0,0],"sum_hessian":[5.3444956E3,4.634337E3,7.101588E2,3.2968204E2,4.304655E3,4.0167393E1,6.699914E2,3.2830353E2,1.3785231E0,3.8634622E3,4.411924E2,3.7505276E1,2.6621187E0,2.9336061E0,3.253699E2,4.073493E2,3.456113E3,2.1341793E1,1.616348E1,1.6240946E0,1.0380241E0],"tree_param":{"num_deleted":"0","num_feature":"20","num_nodes":"21","size_leaf_vector":"1"}},{"base_weights":[-6.801914E-2,-2.3308031E-1,1.027165E0,-3.6809173E-1,5.812734E-2,4.2156604E-1,5.3175848E-2,1.3043326E0,-5.094957E-1,-1.1315613E-1,4.9283257E0,6.5594934E-2,1.283855E-2,-3.51507E-2,5.3253967E-2,-4.9124382E-2,5.105394E-2,2.9595038E-1,6.403096E-2],"categories":[],"categories_nodes":[],"categories_segments":[],"categories_sizes":[],"default_left":[0,0,0,0,0,0,0,0,0,0,0,0,0,0,0,0,0,0,0],"id":50,"left_children":[1,3,5,7,-1,9,-1,11,13,15,17,-1,-1,-1,-1,-1,-1,-1,-1],"loss_changes":[9.379505E2,8.4997485E2,1.4512512E1,9.730367E2,0E0,9.728903E1,0E0,2.2059937E0,1.156176E3,3.7348034E1,7.8861694E0,0E0,0E0,0E0,0E0,0E0,0E0,0E0,0E0],"parents":[2147483647,0,0,1,1,2,2,3,3,5,5,7,7,8,8,9,9,10,10],"right_children":[2,4,6,8,-1,10,-1,12,14,16,18,-1,-1,-1,-1,-1,-1,-1,-1],"split_conditions":[2.0037668E0,2.5224571E0,2.5223112E0,-2.4764488E0,5.812734E-2,2.22482E0,5.3175848E-2,1.2071722E0,2.4954996E0,2.4954996E0,3.17E-1,6.5594934E-2,1.283855E-2,-3.51507E-2,5.3253967E-2,-4.9124382E-2,5.105394E-2,2.9595038E-1,6.403096E-2],"split_indices":[17,16,17,16,0,18,0,18,19,19,11,0,0,0,0,0,0,0,0],"split_type":[0,0,0,0,0,0,0,0,0,0,0,0,0,0,0,0,0,0,0],"sum_hessian":[5.186247E3,4.50766E3,6.7858685E2,4.110729E3,3.9693115E2,3.913976E1,6.394471E2,3.1982654E2,3.7909026E3,3.5859913E1,3.279848E0,3.172826E2,2.5439534E0,3.3764802E3,4.144224E2,2.0376322E1,1.5483591E1,2.0896528E0,1.1901953E0],"tree_param":{"num_deleted":"0","num_feature":"20","num_nodes":"19","size_leaf_vector":"1"}},{"base_weights":[-6.656572E-2,-2.2833736E-1,1.0229497E0,6.692318E-2,-3.4698874E-1,4.1754925E-1,5.300337E-2,-5.2813447E-1,9.5774513E-1,-1.1240948E-1,4.1665616E0,6.399446E-2,-3.501811E-2,1.6278481E-2,5.771265E-2,-4.89458E-2,5.0715115E-2,5.8296748E-2,2.4574128E-1],"categories":[],"categories_nodes":[],"categories_segments":[],"categories_sizes":[],"default_left":[0,0,0,0,0,0,0,0,0,0,0,0,0,0,0,0,0,0,0],"id":51,"left_children":[1,3,5,-1,7,9,-1,11,13,15,17,-1,-1,-1,-1,-1,-1,-1,-1],"loss_changes":[8.852493E2,8.1340643E2,1.4149109E1,0E0,9.614656E2,7.8277435E1,0E0,1.11283E3,6.124521E1,3.54427E1,5.2189484E0,0E0,0E0,0E0,0E0,0E0,0E0,0E0,0E0],"parents":[2147483647,0,0,1,1,2,2,4,4,5,5,7,7,8,8,9,9,10,10],"right_children":[2,4,6,-1,8,10,-1,12,14,16,18,-1,-1,-1,-1,-1,-1,-1,-1],"split_conditions":[2.0037668E0,-2.535546E0,2.5223112E0,6.692318E-2,2.3577921E0,2.22482E0,5.300337E-2,-2.4764488E0,2.5224571E0,2.4954996E0,1.43E1,6.399446E-2,-3.501811E-2,1.6278481E-2,5.771265E-2,-4.89458E-2,5.0715115E-2,5.8296748E-2,2.4574128E-1],"split_indices":[17,18,17,0,16,18,0,16,16,19,5,0,0,0,0,0,0,0,0],"split_type":[0,0,0,0,0,0,0,0,0,0,0,0,0,0,0,0,0,0,0],"sum_hessian":[5.02029E3,4.371934E3,6.4835596E2,3.0704886E2,4.0648853E3,3.8162582E1,6.1019336E2,3.5698518E3,4.950334E2,3.4285954E1,3.8766313E0,3.0992004E2,3.259932E3,1.1801859E2,3.7701477E2,1.945506E1,1.4830893E1,1.2843645E0,2.5922666E0],"tree_param":{"num_deleted":"0","num_feature":"20","num_nodes":"19","size_leaf_vector":"1"}},{"base_weights":[-6.492239E-2,-2.2282326E-1,1.0188178E0,-3.617888E-1,5.31495E-2,4.1264597E-1,5.2839942E-2,1.0995705E0,-5.2791387E-1,-1.11663565E-1,3.5921187E0,5.8165222E-2,-5.8392625E-2,-3.7447713E-2,4.665078E-2,-4.876659E-2,5.038324E-2,2.1279426E-1,5.1422965E-2],"categories":[],"categories_nodes":[],"categories_segments":[],"categories_sizes":[],"default_left":[0,0,0,0,0,0,0,0,0,0,0,0,0,0,0,0,0,0,0],"id":52,"left_children":[1,3,5,7,-1,9,-1,11,13,15,17,-1,-1,-1,-1,-1,-1,-1,-1],"loss_changes":[8.348167E2,7.6116815E2,1.3847534E1,9.335836E2,0E0,6.411744E1,0E0,5.8096283E1,1.1152931E3,3.3639572E1,4.8814545E0,0E0,0E0,0E0,0E0,0E0,0E0,0E0,0E0],"parents":[2147483647,0,0,1,1,2,2,3,3,5,5,7,7,8,8,9,9,10,10],"right_children":[2,4,6,8,-1,10,-1,12,14,16,18,-1,-1,-1,-1,-1,-1,-1,-1],"split_conditions":[2.0037668E0,2.4954996E0,2.5223112E0,-2.3319056E0,5.31495E-2,2.22482E0,5.2839942E-2,2.29E-1,2.3577921E0,2.4954996E0,-9.7026694E-1,5.8165222E-2,-5.8392625E-2,-3.7447713E-2,4.665078E-2,-4.876659E-2,5.038324E-2,2.1279426E-1,5.1422965E-2],"split_indices":[17,19,17,18,0,18,0,2,16,19,16,0,0,0,0,0,0,0,0],"split_type":[0,0,0,0,0,0,0,0,0,0,0,0,0,0,0,0,0,0,0],"sum_hessian":[4.876118E3,4.2567104E3,6.1940796E2,3.8421814E3,4.14529E2,3.722151E1,5.8218646E2,3.9161618E2,3.4505652E3,3.2780704E1,4.4408073E0,3.81383E2,1.0233167E1,2.9975237E3,4.530415E2,1.8576113E1,1.4204591E1,3.0031648E0,1.4376427E0],"tree_param":{"num_deleted":"0","num_feature":"20","num_nodes":"19","size_leaf_vector":"1"}},{"base_weights":[-6.358856E-2,-2.1818347E-1,1.014825E0,-2.5395966E-1,4.888424E0,4.0752333E-1,5.2685004E-2,1.2702657E0,-3.7696242E-1,-1.836214E-1,6.3987355E0,-1.1091712E-1,3.159256E0,6.3904576E-2,1.1534671E-2,-2.8105939E-2,4.580506E-2,-4.266659E-2,3.919851E-2,4.140098E-1,4.618147E-2,-4.858641E-2,5.0057452E-2,1.8654256E-1,4.6057906E-2],"categories":[],"categories_nodes":[],"categories_segments":[],"categories_sizes":[],"default_left":[0,0,0,0,0,0,0,0,0,0,0,0,0,0,0,0,0,0,0,0,0,0,0,0,0],"id":53,"left_children":[1,3,5,7,9,11,-1,13,15,17,19,21,23,-1,-1,-1,-1,-1,-1,-1,-1,-1,-1,-1,-1],"loss_changes":[7.8805554E2,7.564837E2,1.3562927E1,7.70305E2,2.2186572E2,5.3544056E1,0E0,2.201477E0,9.1036676E2,5.582415E0,2.2131726E2,3.1932718E1,4.1689224E0,0E0,0E0,0E0,0E0,0E0,0E0,0E0,0E0,0E0,0E0,0E0,0E0],"parents":[2147483647,0,0,1,1,2,2,3,3,4,4,5,5,7,7,8,8,9,9,10,10,11,11,12,12],"right_children":[2,4,6,8,10,12,-1,14,16,18,20,22,24,-1,-1,-1,-1,-1,-1,-1,-1,-1,-1,-1,-1],"split_conditions":[2.0037668E0,2.22482E0,2.5223112E0,-2.4764488E0,4.08E-1,2.22482E0,5.2685004E-2,1.2071722E0,2.3577921E0,6.48E1,2.4954996E0,2.4954996E0,3.17E-1,6.3904576E-2,1.1534671E-2,-2.8105939E-2,4.580506E-2,-4.266659E-2,3.919851E-2,4.140098E-1,4.618147E-2,-4.858641E-2,5.0057452E-2,1.8654256E-1,4.6057906E-2],"split_indices":[17,18,17,16,2,18,0,18,16,3,19,19,11,0,0,0,0,0,0,0,0,0,0,0,0],"split_type":[0,0,0,0,0,0,0,0,0,0,0,0,0,0,0,0,0,0,0,0,0,0,0,0,0],"sum_hessian":[4.7245703E3,4.1329E3,5.9167017E2,4.105091E3,2.7809416E1,3.628676E1,5.553834E2,3.0584125E2,3.7992495E3,6.582379E0,2.1227036E1,3.1341543E1,4.9452143E0,3.0332837E2,2.5128765E0,3.323864E3,4.7538544E2,3.9597547E0,2.6226244E0,1.5416863E1,5.810173E0,1.7737652E1,1.3603891E1,3.407889E0,1.5373254E0],"tree_param":{"num_deleted":"0","num_feature":"20","num_nodes":"25","size_leaf_vector":"1"}},{"base_weights":[-6.1672527E-2,-2.1108437E-1,1.0109383E0,-3.5190126E-1,5.300624E-2,4.0208402E-1,5.2538015E-2,1.084071E0,-5.2167416E-1,-1.1016865E-1,2.814965E0,6.5347105E-2,1.9392243E-2,6.240923E-2,-3.4902573E-2,-4.840493E-2,4.973694E-2,4.2184684E-2,1.6483814E-1],"categories":[],"categories_nodes":[],"categories_segments":[],"categories_sizes":[],"default_left":[0,0,0,0,0,0,0,0,0,0,0,0,0,0,0,0,0,0,0],"id":54,"left_children":[1,3,5,7,-1,9,-1,11,13,15,17,-1,-1,-1,-1,-1,-1,-1,-1],"loss_changes":[7.42022E2,7.2779724E2,1.3303406E1,8.926251E2,0E0,4.5267693E1,0E0,5.9574493E1,1.02256256E3,3.0316612E1,3.3039932E0,0E0,0E0,0E0,0E0,0E0,0E0,0E0,0E0],"parents":[2147483647,0,0,1,1,2,2,3,3,5,5,7,7,8,8,9,9,10,10],"right_children":[2,4,6,8,-1,10,-1,12,14,16,18,-1,-1,-1,-1,-1,-1,-1,-1],"split_conditions":[2.0037668E0,2.4954996E0,2.5223112E0,-2.3319056E0,5.300624E-2,2.22482E0,5.2538015E-2,-2.535546E0,-2.4764488E0,2.4954996E0,1.43E1,6.5347105E-2,1.9392243E-2,6.240923E-2,-3.4902573E-2,-4.840493E-2,4.973694E-2,4.2184684E-2,1.6483814E-1],"split_indices":[17,19,17,18,0,18,0,18,16,19,5,0,0,0,0,0,0,0,0],"split_type":[0,0,0,0,0,0,0,0,0,0,0,0,0,0,0,0,0,0,0],"sum_hessian":[4.6277603E3,4.0626475E3,5.651128E2,3.6581436E3,4.0450394E2,3.5373302E1,5.297395E2,3.8620038E2,3.271943E3,2.9965908E1,5.4073963E0,2.9188647E2,9.431389E1,2.959685E2,2.9759746E3,1.693791E1,1.3027997E1,1.6023855E0,3.8050108E0],"tree_param":{"num_deleted":"0","num_feature":"20","num_nodes":"19","size_leaf_vector":"1"}},{"base_weights":[-6.0207166E-2,-2.0094481E-1,5.239851E-2,-3.5349548E-1,9.6272665E-1,-5.1091033E-1,5.688537E-2,8.992771E-1,3.0566494E0,5.2436728E-2,-3.542688E-2,-7.8471545E-3,5.274265E-2,2.9488438E-1,4.7617882E-2],"categories":[],"categories_nodes":[],"categories_segments":[],"categories_sizes":[],"default_left":[0,0,0,0,0,0,0,0,0,0,0,0,0,0,0],"id":55,"left_children":[1,3,-1,5,7,9,-1,11,13,-1,-1,-1,-1,-1,-1],"loss_changes":[7.0059894E2,7.078489E2,0E0,8.278773E2,5.8657745E1,9.835358E2,0E0,7.4113525E1,7.315774E1,0E0,0E0,0E0,0E0,0E0,0E0],"parents":[2147483647,0,0,1,1,3,3,4,4,5,5,7,7,8,8],"right_children":[2,4,-1,6,8,10,-1,12,14,-1,-1,-1,-1,-1,-1],"split_conditions":[2.5223112E0,2.0911887E0,5.239851E-2,2.5224571E0,2.22482E0,-2.3319056E0,5.688537E-2,2.4954996E0,2.4954996E0,5.2436728E-2,-3.542688E-2,-7.8471545E-3,5.274265E-2,2.9488438E-1,4.7617882E-2],"split_indices":[17,19,0,16,18,18,0,19,19,0,0,0,0,0,0],"split_type":[0,0,0,0,0,0,0,0,0,0,0,0,0,0,0],"sum_hessian":[4.489755E3,3.98454E3,5.0521475E2,3.5233457E3,4.6119424E2,3.187521E3,3.3582477E2,4.4901767E2,1.217657E1,3.5799234E2,2.8295286E3,5.7645817E1,3.9137186E2,4.4141974E0,7.762372E0],"tree_param":{"num_deleted":"0","num_feature":"20","num_nodes":"15","size_leaf_vector":"1"}},{"base_weights":[-5.8846157E-2,-2.0181666E-1,1.0044647E0,1.2390199E0,-3.2067055E-1,4.0214986E-1,5.2265998E-2,1.2448345E0,-1.6485071E-3,-5.013944E-1,9.063999E-1,-1.1702197E-1,2.5101917E0,2.9864937E-2,6.270592E-2,-3.5254054E-2,5.2479107E-2,1.4550731E-2,5.6420382E-2,-4.809093E-2,4.908774E-2,1.4858375E-1,3.401963E-2],"categories":[],"categories_nodes":[],"categories_segments":[],"categories_sizes":[],"default_left":[0,0,0,0,0,0,0,0,0,0,0,0,0,0,0,0,0,0,0,0,0,0,0],"id":56,"left_children":[1,3,5,7,9,11,-1,13,-1,15,17,19,21,-1,-1,-1,-1,-1,-1,-1,-1,-1,-1],"loss_changes":[6.6206726E2,6.577468E2,1.2281616E1,2.2059631E0,7.870051E2,3.7957462E1,0E0,1.0028381E0,0E0,9.7759564E2,6.1926422E1,2.7462914E1,3.7583008E0,0E0,0E0,0E0,0E0,0E0,0E0,0E0,0E0,0E0,0E0],"parents":[2147483647,0,0,1,1,2,2,3,3,4,4,5,5,7,7,9,9,10,10,11,11,12,12],"right_children":[2,4,6,8,10,12,-1,14,-1,16,18,20,22,-1,-1,-1,-1,-1,-1,-1,-1,-1,-1],"split_conditions":[2.0037668E0,-2.4764488E0,2.5223112E0,6.66E1,2.3577921E0,2.22482E0,5.2265998E-2,6.8E0,-1.6485071E-3,2.4954996E0,2.5224571E0,2.4954996E0,1E-1,2.9864937E-2,6.270592E-2,-3.5254054E-2,5.2479107E-2,1.4550731E-2,5.6420382E-2,-4.809093E-2,4.908774E-2,1.4858375E-1,3.401963E-2],"split_indices":[17,16,17,15,16,18,0,3,0,19,16,19,9,0,0,0,0,0,0,0,0,0,0],"split_type":[0,0,0,0,0,0,0,0,0,0,0,0,0,0,0,0,0,0,0,0,0,0,0],"sum_hessian":[4.352739E3,3.8375588E3,5.1517975E2,2.9171725E2,3.5458416E3,3.3413815E1,4.8176593E2,2.9041107E2,1.3062072E0,3.0911643E3,4.546775E2,2.7568651E1,5.8451624E0,5.0283303E0,2.8538272E2,2.7328145E3,3.5834976E2,1.2115568E2,3.335218E2,1.5656086E1,1.1912565E1,4.1695414E0,1.6756208E0],"tree_param":{"num_deleted":"0","num_feature":"20","num_nodes":"23","size_leaf_vector":"1"}},{"base_weights":[-5.7535887E-2,-1.9233249E-1,5.2140065E-2,6.413669E-2,-3.10988E-1,-4.8449302E-1,9.4499356E-1,6.0927518E-2,-3.2829124E-2,4.4024087E-2,1.4225163E-1],"categories":[],"categories_nodes":[],"categories_segments":[],"categories_sizes":[],"default_left":[0,0,0,0,0,0,0,0,0,0,0],"id":57,"left_children":[1,3,-1,-1,5,7,9,-1,-1,-1,-1],"loss_changes":[6.256348E2,6.580353E2,0E0,0E0,7.584786E2,8.96707E2,4.928766E1,0E0,0E0,0E0,0E0],"parents":[2147483647,0,0,1,1,4,4,5,5,6,6],"right_children":[2,4,-1,-1,6,8,10,-1,-1,-1,-1],"split_conditions":[2.5223112E0,-2.535546E0,5.2140065E-2,6.413669E-2,2.0911887E0,-2.4764488E0,2.22482E0,6.0927518E-2,-3.2829124E-2,4.4024087E-2,1.4225163E-1],"split_indices":[17,18,0,0,19,16,18,0,0,0,0],"split_type":[0,0,0,0,0,0,0,0,0,0,0],"sum_hessian":[4.215741E3,3.7563904E3,4.5935077E2,2.7893973E2,3.4774507E3,3.055912E3,4.215385E2,2.798969E2,2.7760154E3,4.091114E2,1.2427118E1],"tree_param":{"num_deleted":"0","num_feature":"20","num_nodes":"11","size_leaf_vector":"1"}},{"base_weights":[-5.6057457E-2,-1.9280107E-1,9.984746E-1,-3.2347012E-1,5.6260955E-2,4.051202E-1,5.20203E-2,6.335148E-2,-4.6355608E-1,-1.22251E-1,2.2931423E0,-3.250675E-2,5.2034765E-2,-4.778984E-2,4.8502114E-2,1.3622533E-1,2.972166E-2],"categories":[],"categories_nodes":[],"categories_segments":[],"categories_sizes":[],"default_left":[0,0,0,0,0,0,0,0,0,0,0,0,0,0,0,0,0],"id":58,"left_children":[1,3,5,7,-1,9,-1,-1,11,13,15,-1,-1,-1,-1,-1,-1],"loss_changes":[5.912158E2,6.253645E2,1.1287903E1,7.3639246E2,0E0,3.2840656E1,0E0,0E0,8.5272217E2,2.506459E1,3.649414E0,0E0,0E0,0E0,0E0,0E0,0E0],"parents":[2147483647,0,0,1,1,2,2,3,3,5,5,8,8,9,9,10,10],"right_children":[2,4,6,8,-1,10,-1,-1,12,14,16,-1,-1,-1,-1,-1,-1],"split_conditions":[2.0037668E0,2.5224571E0,2.5223112E0,-2.535546E0,5.6260955E-2,2.22482E0,5.20203E-2,6.335148E-2,2.4954996E0,2.4954996E0,1E-1,-3.250675E-2,5.2034765E-2,-4.778984E-2,4.8502114E-2,1.3622533E-1,2.972166E-2],"split_indices":[17,16,17,18,0,18,0,0,19,19,9,0,0,0,0,0,0],"split_type":[0,0,0,0,0,0,0,0,0,0,0,0,0,0,0,0,0],"sum_hessian":[4.097621E3,3.6279888E3,4.696325E2,3.3014375E3,3.2655127E2,3.170131E1,4.379312E2,2.6659073E2,3.0348467E3,2.551077E1,6.1905384E0,2.700464E3,3.3438263E2,1.4540021E1,1.097075E1,4.455305E0,1.7352334E0],"tree_param":{"num_deleted":"0","num_feature":"20","num_nodes":"17","size_leaf_vector":"1"}},{"base_weights":[-5.4712564E-2,-1.8331039E-1,5.1906314E-2,-2.2739573E-1,3.992026E0,-3.8561285E-1,9.0384203E-1,-3.3200067E-1,4.8001804E0,6.0502417E-2,-2.717934E-2,1.6726678E-2,5.5903763E-2,-4.3011915E-2,3.4429308E-2,6.4709544E-2,2.9704604E-1],"categories":[],"categories_nodes":[],"categories_segments":[],"categories_sizes":[],"default_left":[0,0,0,0,0,0,0,0,0,0,0,0,0,0,0,0,0],"id":59,"left_children":[1,3,-1,5,7,9,11,13,15,-1,-1,-1,-1,-1,-1,-1,-1],"loss_changes":[5.5857263E2,6.5541797E2,0E0,6.3028046E2,1.316059E2,7.7915784E2,5.2333008E1,4.2550297E0,1.1793762E2,0E0,0E0,0E0,0E0,0E0,0E0,0E0,0E0],"parents":[2147483647,0,0,1,1,3,3,4,4,5,5,6,6,7,7,8,8],"right_children":[2,4,-1,6,8,10,12,14,16,-1,-1,-1,-1,-1,-1,-1,-1],"split_conditions":[2.5223112E0,2.22482E0,5.1906314E-2,2.3577921E0,4.08E-1,-2.4764488E0,2.5224571E0,6.48E1,3.31E1,6.0502417E-2,-2.717934E-2,1.6726678E-2,5.5903763E-2,-4.3011915E-2,3.4429308E-2,6.4709544E-2,2.9704604E-1],"split_indices":[17,18,0,16,2,16,16,3,15,0,0,0,0,0,0,0,0],"split_type":[0,0,0,0,0,0,0,0,0,0,0,0,0,0,0,0,0],"sum_hessian":[3.9722139E3,3.5547476E3,4.1746625E2,3.5185425E3,3.6205025E1,3.0873928E3,4.3114966E2,5.793911E0,3.0411112E1,2.775238E2,2.809869E3,1.185838E2,3.1256586E2,3.9213858E0,1.8725253E0,7.989728E0,2.2421385E1],"tree_param":{"num_deleted":"0","num_feature":"20","num_nodes":"17","size_leaf_vector":"1"}},{"base_weights":[-5.295966E-2,-1.7730626E-1,5.1797755E-2,1.046209E0,-3.1572288E-1,1.1086626E0,-5.3768832E-2,-4.8123112E-1,5.193883E-2,6.2768385E-2,3.1249395E-2,-3.517761E-2,4.388298E-2],"categories":[],"categories_nodes":[],"categories_segments":[],"categories_sizes":[],"default_left":[0,0,0,0,0,0,0,0,0,0,0,0,0],"id":60,"left_children":[1,3,-1,5,7,9,-1,11,-1,-1,-1,-1,-1],"loss_changes":[5.2701794E2,5.918776E2,0E0,4.8260345E1,7.0414014E2,2.3735687E1,0E0,8.458115E2,0E0,0E0,0E0,0E0,0E0],"parents":[2147483647,0,0,1,1,3,3,4,4,5,5,7,7],"right_children":[2,4,-1,6,8,10,-1,12,-1,-1,-1,-1,-1],"split_conditions":[2.5223112E0,-2.3319056E0,5.1797755E-2,2.29E-1,2.4954996E0,-2.535546E0,-5.3768832E-2,2.3577921E0,5.193883E-2,6.2768385E-2,3.1249395E-2,-3.517761E-2,4.388298E-2],"split_indices":[17,18,0,2,19,18,0,16,0,0,0,0,0],"split_type":[0,0,0,0,0,0,0,0,0,0,0,0,0],"sum_hessian":[3.889865E3,3.4919458E3,3.979191E2,3.5422885E2,3.137717E3,3.445633E2,9.665562E0,2.7966367E3,3.4108035E2,2.6315073E2,8.141257E1,2.4038394E3,3.927974E2],"tree_param":{"num_deleted":"0","num_feature":"20","num_nodes":"13","size_leaf_vector":"1"}},{"base_weights":[-5.1762782E-2,-1.733168E-1,5.169431E-2,1.2022355E0,-2.9420966E-1,1.2110857E0,1.3607846E-1,1.0212476E0,-4.5800635E-1,2.7463332E-2,6.1046552E-2,-2.7517525E-3,1.4038138E-2,6.1973877E-2,2.0519495E-2,-3.2838877E-2,5.171242E-2],"categories":[],"categories_nodes":[],"categories_segments":[],"categories_sizes":[],"default_left":[0,0,0,0,0,0,0,0,0,0,0,0,0,0,0,0,0],"id":61,"left_children":[1,3,-1,5,7,9,11,13,15,-1,-1,-1,-1,-1,-1,-1,-1],"loss_changes":[4.9835077E2,5.6505206E2,0E0,2.4255676E0,6.732102E2,1.1026306E0,1.09097816E-1,4.5620148E1,8.2444763E2,0E0,0E0,0E0,0E0,0E0,0E0,0E0,0E0],"parents":[2147483647,0,0,1,1,3,3,4,4,5,5,6,6,7,7,8,8],"right_children":[2,4,-1,6,8,10,12,14,16,-1,-1,-1,-1,-1,-1,-1,-1],"split_conditions":[2.5223112E0,-2.4764488E0,5.169431E-2,1.2071722E0,-2.3319056E0,6.8E0,1E-1,-2.535546E0,2.4954996E0,2.7463332E-2,6.1046552E-2,-2.7517525E-3,1.4038138E-2,6.1973877E-2,2.0519495E-2,-3.2838877E-2,5.171242E-2],"split_indices":[17,16,0,18,18,3,8,18,19,0,0,0,0,0,0,0,0],"split_type":[0,0,0,0,0,0,0,0,0,0,0,0,0,0,0,0,0],"sum_hessian":[3.7740278E3,3.3947744E3,3.792535E2,2.7352994E2,3.1212444E3,2.7114325E2,2.3866985E0,3.4503348E2,2.776211E3,4.806895E0,2.6633636E2,1.2953242E0,1.0913744E0,2.5345662E2,9.157684E1,2.4503762E3,3.258348E2],"tree_param":{"num_deleted":"0","num_feature":"20","num_nodes":"17","size_leaf_vector":"1"}},{"base_weights":[-5.0435923E-2,-1.7446254E-1,9.870507E-1,-2.1544312E-1,3.9171932E0,4.1633368E-1,5.159563E-2,-3.4871456E-1,5.550704E-2,3.765615E-1,4.850572E0,-1.10894874E-1,1.9610127E0,5.9222132E-2,-2.499773E-2,8.447453E-2,-2.260909E-2,-2.0774389E-2,2.707487E-1,-4.7208324E-2,4.771048E-2,1.1927899E-1,2.5226638E-2],"categories":[],"categories_nodes":[],"categories_segments":[],"categories_sizes":[],"default_left":[0,0,0,0,0,0,0,0,0,0,0,0,0,0,0,0,0,0,0,0,0,0,0],"id":62,"left_children":[1,3,5,7,9,11,-1,13,-1,15,17,19,21,-1,-1,-1,-1,-1,-1,-1,-1,-1,-1],"loss_changes":[4.7194995E2,5.50117E2,9.5979E0,5.7351843E2,1.05695496E2,2.4827587E1,0E0,6.842997E2,0E0,9.329132E0,7.8526855E1,2.1736038E1,3.584547E0,0E0,0E0,0E0,0E0,0E0,0E0,0E0,0E0,0E0,0E0],"parents":[2147483647,0,0,1,1,2,2,3,3,4,4,5,5,7,7,9,9,10,10,11,11,12,12],"right_children":[2,4,6,8,10,12,-1,14,-1,16,18,20,22,-1,-1,-1,-1,-1,-1,-1,-1,-1,-1],"split_conditions":[2.0037668E0,2.22482E0,2.5223112E0,2.5224571E0,3.31E1,2.22482E0,5.159563E-2,-2.4764488E0,5.550704E-2,1.05E1,4.08E-1,2.4954996E0,3.17E-1,5.9222132E-2,-2.499773E-2,8.447453E-2,-2.260909E-2,-2.0774389E-2,2.707487E-1,-4.7208324E-2,4.771048E-2,1.1927899E-1,2.5226638E-2],"split_indices":[17,18,17,16,15,18,0,16,0,0,2,19,11,0,0,0,0,0,0,0,0,0,0],"split_type":[0,0,0,0,0,0,0,0,0,0,0,0,0,0,0,0,0,0,0,0,0,0,0],"sum_hessian":[3.6654019E3,3.2747524E3,3.906493E2,3.2432168E3,3.1535574E1,2.9218756E1,3.6143054E2,2.9476074E3,2.9560938E2,6.871817E0,2.4663755E1,2.2475609E1,6.743147E0,2.6404877E2,2.6835588E3,2.25722E0,4.6145973E0,2.4130461E0,2.225071E1,1.2673889E1,9.801719E0,4.727239E0,2.0159082E0],"tree_param":{"num_deleted":"0","num_feature":"20","num_nodes":"23","size_leaf_vector":"1"}},{"base_weights":[-4.87223E-2,-1.7796674E-1,9.3672734E-1,6.1505318E-2,-2.9548135E-1,8.845651E-1,2.1902313E0,-4.49029E-1,5.148154E-2,1.3593183E-1,1.031686E0,3.0868711E0,4.5446347E-2,-3.3426683E-2,4.3018784E-2,8.5563354E-2,-8.4672956E-4,5.172593E-2,1.8393673E-2,1.7620187E-1,4.4994768E-2],"categories":[],"categories_nodes":[],"categories_segments":[],"categories_sizes":[],"default_left":[0,0,0,0,0,0,0,0,0,0,0,0,0,0,0,0,0,0,0,0,0],"id":63,"left_children":[1,3,5,-1,7,9,11,13,-1,15,17,19,-1,-1,-1,-1,-1,-1,-1,-1,-1],"loss_changes":[4.577069E2,5.260099E2,2.5307648E1,0E0,5.97195E2,4.410428E1,1.5540863E1,7.56191E2,0E0,1.6194992E1,2.5045776E-1,5.4119034E0,0E0,0E0,0E0,0E0,0E0,0E0,0E0,0E0,0E0],"parents":[2147483647,0,0,1,1,2,2,4,4,5,5,6,6,7,7,9,9,10,10,11,11],"right_children":[2,4,6,-1,8,10,12,14,-1,16,18,20,-1,-1,-1,-1,-1,-1,-1,-1,-1],"split_conditions":[2.0911887E0,-2.535546E0,2.22482E0,6.1505318E-2,2.5223112E0,2.4954996E0,2.4954996E0,2.3577921E0,5.148154E-2,9.4E-2,4.25E-1,8E-1,4.5446347E-2,-3.3426683E-2,4.3018784E-2,8.5563354E-2,-8.4672956E-4,5.172593E-2,1.8393673E-2,1.7620187E-1,4.4994768E-2],"split_indices":[19,18,18,0,17,19,19,16,0,2,10,1,0,0,0,0,0,0,0,0,0],"split_type":[0,0,0,0,0,0,0,0,0,0,0,0,0,0,0,0,0,0,0,0,0],"sum_hessian":[3.5913857E3,3.175703E3,4.156828E2,2.438922E2,2.9318108E3,4.0071353E2,1.4969275E1,2.6279568E3,3.0385388E2,6.613018E1,3.3458337E2,7.977537E0,6.991738E0,2.2510818E3,3.768751E2,4.947735E0,6.118244E1,3.3260562E2,1.977748E0,6.139005E0,1.8385321E0],"tree_param":{"num_deleted":"0","num_feature":"20","num_nodes":"21","size_leaf_vector":"1"}},{"base_weights":[-4.742668E-2,-1.7386718E-1,9.246708E-1,1.1764739E0,-2.9736933E-1,8.7468326E-1,2.0552483E0,1.1857715E0,1.1552909E-1,9.9765104E-1,-4.628805E-1,1.3069223E-1,1.0274887E0,2.9356606E0,1.04297E0,2.592487E-2,5.9803266E-2,1.3138858E-2,-3.4454928E-3,6.0799368E-2,1.9567585E-2,-3.287756E-2,5.1390555E-2,8.3533034E-2,-8.052125E-4,5.1521923E-2,1.798143E-2,1.6102567E-1,5.1040072E-2,5.858708E-2,1.0180656E-2],"categories":[],"categories_nodes":[],"categories_segments":[],"categories_sizes":[],"default_left":[0,0,0,0,0,0,0,0,0,0,0,0,0,0,0,0,0,0,0,0,0,0,0,0,0,0,0,0,0,0,0],"id":64,"left_children":[1,3,5,7,9,11,13,15,17,19,21,23,25,27,29,-1,-1,-1,-1,-1,-1,-1,-1,-1,-1,-1,-1,-1,-1,-1,-1],"loss_changes":[4.2911392E2,5.1551324E2,2.0912354E1,2.418396E0,6.072616E2,4.381314E1,1.144191E1,1.1429749E0,1.0931744E-1,4.2034973E1,7.29317E2,1.5176066E1,2.6089478E-1,1.1594849E0,7.472763E-1,0E0,0E0,0E0,0E0,0E0,0E0,0E0,0E0,0E0,0E0,0E0,0E0,0E0,0E0,0E0,0E0],"parents":[2147483647,0,0,1,1,2,2,3,3,4,4,5,5,6,6,7,7,8,8,9,9,10,10,11,11,12,12,13,13,14,14],"right_children":[2,4,6,8,10,12,14,16,18,20,22,24,26,28,30,-1,-1,-1,-1,-1,-1,-1,-1,-1,-1,-1,-1,-1,-1,-1,-1],"split_conditions":[2.0911887E0,-2.4764488E0,2.22482E0,1.2071722E0,-2.3319056E0,2.4954996E0,2.3633797E0,6.8E0,2.3E1,-2.535546E0,2.5223112E0,9.4E-2,4.25E-1,8E-1,3.25E-1,2.592487E-2,5.9803266E-2,1.3138858E-2,-3.4454928E-3,6.0799368E-2,1.9567585E-2,-3.287756E-2,5.1390555E-2,8.3533034E-2,-8.052125E-4,5.1521923E-2,1.798143E-2,1.6102567E-1,5.1040072E-2,5.858708E-2,1.0180656E-2],"split_indices":[19,16,18,18,18,19,19,3,3,18,17,2,10,1,12,0,0,0,0,0,0,0,0,0,0,0,0,0,0,0,0],"split_type":[0,0,0,0,0,0,0,0,0,0,0,0,0,0,0,0,0,0,0,0,0,0,0,0,0,0,0,0,0,0,0],"sum_hessian":[3.488907E3,3.0880642E3,4.0084265E2,2.58053E2,2.8300112E3,3.855687E2,1.5273954E1,2.5569456E2,2.3584416E0,3.2013434E2,2.509877E3,6.601331E1,3.195554E2,7.1528387E0,8.121116E0,4.6650257E0,2.5102954E2,1.0752614E0,1.2831802E0,2.34634E2,8.550032E1,2.2204636E3,2.894133E2,4.8416104E0,6.1171703E1,3.176097E2,1.9456794E0,5.633022E0,1.5198168E0,6.697592E0,1.4235243E0],"tree_param":{"num_deleted":"0","num_feature":"20","num_nodes":"31","size_leaf_vector":"1"}},{"base_weights":[-4.6055157E-2,-9.352894E-2,2.4769282E0,-2.0367938E-1,5.5139612E-2,3.7024138E0,1.4177879E0,1.1606312E0,-3.2630733E-1,-2.3639114E-1,4.410842E0,1.9949081E0,4.705384E-2,5.8503505E-2,5.63899E-3,-2.4482487E-2,5.1166248E-2,-3.8624555E-2,3.1853337E-2,-3.6517426E-2,2.4292879E-1,-3.236303E-2,1.14186645E-1],"categories":[],"categories_nodes":[],"categories_segments":[],"categories_sizes":[],"default_left":[0,0,0,0,0,0,0,0,0,0,0,0,0,0,0,0,0,0,0,0,0,0,0],"id":65,"left_children":[1,3,5,7,-1,9,11,13,15,17,19,21,-1,-1,-1,-1,-1,-1,-1,-1,-1,-1,-1],"loss_changes":[4.0653287E2,4.3910242E2,7.611566E1,5.1074298E2,0E0,8.0402374E1,7.819519E0,2.35849E0,6.1771155E2,2.9667227E0,5.915277E1,1.2963871E1,0E0,0E0,0E0,0E0,0E0,0E0,0E0,0E0,0E0,0E0,0E0],"parents":[2147483647,0,0,1,1,2,2,3,3,5,5,6,6,7,7,8,8,9,9,10,10,11,11],"right_children":[2,4,6,8,-1,10,12,14,16,18,20,22,-1,-1,-1,-1,-1,-1,-1,-1,-1,-1,-1],"split_conditions":[2.22482E0,2.5224571E0,4E-1,-2.4764488E0,5.5139612E-2,4.08E-1,1E0,1.2071722E0,2.4954996E0,6.48E1,1.84E1,-3.788912E-1,4.705384E-2,5.8503505E-2,5.63899E-3,-2.4482487E-2,5.1166248E-2,-3.8624555E-2,3.1853337E-2,-3.6517426E-2,2.4292879E-1,-3.236303E-2,1.14186645E-1],"split_indices":[18,16,1,16,0,2,1,18,19,3,13,19,0,0,0,0,0,0,0,0,0,0,0],"split_type":[0,0,0,0,0,0,0,0,0,0,0,0,0,0,0,0,0,0,0,0,0,0,0],"sum_hessian":[3.3911877E3,3.3295012E3,6.1686714E1,3.0495461E3,2.7995508E2,2.7440647E1,3.4246067E1,2.5079828E2,2.7987478E3,4.28465E0,2.3155996E1,1.4050906E1,2.0195162E1,2.4844368E2,2.354596E0,2.4971604E3,3.0158743E2,2.7266905E0,1.5579596E0,1.8044814E0,2.1351515E1,1.2623069E0,1.2788599E1],"tree_param":{"num_deleted":"0","num_feature":"20","num_nodes":"23","size_leaf_vector":"1"}},{"base_weights":[-4.44368E-2,-1.6355363E-1,9.8168904E-1,9.985213E-1,-3.043908E-1,4.1350734E-1,5.1360674E-2,1.061403E0,-5.2547563E-2,-4.938722E-1,8.636516E-1,-1.386381E-1,1.7508913E0,6.04299E-2,3.1129578E-2,5.72514E-2,-3.439937E-2,1.5380415E-2,5.4928463E-2,-4.662594E-2,4.6413824E-2,1.05849795E-1,1.6436165E-2],"categories":[],"categories_nodes":[],"categories_segments":[],"categories_sizes":[],"default_left":[0,0,0,0,0,0,0,0,0,0,0,0,0,0,0,0,0,0,0,0,0,0,0],"id":66,"left_children":[1,3,5,7,9,11,-1,13,-1,15,17,19,21,-1,-1,-1,-1,-1,-1,-1,-1,-1,-1],"loss_changes":[4.066721E2,4.8814514E2,8.52655E0,4.266925E1,5.889944E2,2.0434772E1,0E0,1.9486145E1,0E0,7.289286E2,4.8195435E1,1.8043467E1,3.5026112E0,0E0,0E0,0E0,0E0,0E0,0E0,0E0,0E0,0E0,0E0],"parents":[2147483647,0,0,1,1,2,2,3,3,4,4,5,5,7,7,9,9,10,10,11,11,12,12],"right_children":[2,4,6,8,10,12,-1,14,-1,16,18,20,22,-1,-1,-1,-1,-1,-1,-1,-1,-1,-1],"split_conditions":[2.0037668E0,-2.3319056E0,2.5223112E0,2.29E-1,2.3577921E0,2.22482E0,5.1360674E-2,-2.535546E0,-5.2547563E-2,-2.4764488E0,2.5224571E0,2.4954996E0,1E-1,6.04299E-2,3.1129578E-2,5.72514E-2,-3.439937E-2,1.5380415E-2,5.4928463E-2,-4.662594E-2,4.6413824E-2,1.05849795E-1,1.6436165E-2],"split_indices":[17,18,17,2,16,18,0,18,0,16,16,19,9,0,0,0,0,0,0,0,0,0,0],"split_type":[0,0,0,0,0,0,0,0,0,0,0,0,0,0,0,0,0,0,0,0,0,0,0],"sum_hessian":[3.324823E3,2.9797607E3,3.4506207E2,3.2143637E2,2.6583245E3,2.634453E1,3.1871753E2,3.1233542E2,9.100939E0,2.2877756E3,3.705489E2,1.9280725E1,7.063804E0,2.3256844E2,7.976698E1,2.417553E2,2.0460203E3,1.1073999E2,2.598089E2,1.1127115E1,8.15361E0,5.2291183E0,1.8346862E0],"tree_param":{"num_deleted":"0","num_feature":"20","num_nodes":"23","size_leaf_vector":"1"}},{"base_weights":[-4.3239202E-2,-1.6960566E-1,9.1310084E-1,5.9774797E-2,-2.8408885E-1,4.496217E-1,1.0218937E0,-4.267381E-1,5.4637324E-2,1.4094286E-1,2.3055284E0,5.124851E-2,4.8544568E-1,-3.0519718E-2,5.125277E-2,-6.503855E-3,4.8374113E-2,1.2572034E-1,3.9963968E-2,3.2273073E-2,1.8919882E-3],"categories":[],"categories_nodes":[],"categories_segments":[],"categories_sizes":[],"default_left":[0,0,0,0,0,0,0,0,0,0,0,0,0,0,0,0,0,0,0,0,0],"id":67,"left_children":[1,3,5,-1,7,9,11,13,-1,15,17,-1,19,-1,-1,-1,-1,-1,-1,-1,-1],"loss_changes":[3.9077927E2,4.4666516E2,1.8570862E1,0E0,5.1813855E2,4.180142E1,5.645752E-3,6.376124E2,0E0,1.4487773E1,1.2690315E0,0E0,2.3616225E-1,0E0,0E0,0E0,0E0,0E0,0E0,0E0,0E0],"parents":[2147483647,0,0,1,1,2,2,4,4,5,5,6,6,7,7,9,9,10,10,12,12],"right_children":[2,4,6,-1,8,10,12,14,-1,16,18,-1,20,-1,-1,-1,-1,-1,-1,-1,-1],"split_conditions":[2.0911887E0,-2.535546E0,2.4954996E0,5.9774797E-2,2.5224571E0,2.22482E0,4.25E-1,2.5223112E0,5.4637324E-2,2.5223112E0,8E-1,5.124851E-2,3.76E-1,-3.0519718E-2,5.125277E-2,-6.503855E-3,4.8374113E-2,1.2572034E-1,3.9963968E-2,3.2273073E-2,1.8919882E-3],"split_indices":[19,18,19,0,16,18,10,17,0,17,1,0,12,0,0,0,0,0,0,0,0],"split_type":[0,0,0,0,0,0,0,0,0,0,0,0,0,0,0,0,0,0,0,0,0],"sum_hessian":[3.2313262E3,2.8549136E3,3.7641275E2,2.201689E2,2.6347446E3,7.253447E1,3.038783E2,2.38802E3,2.4672462E2,6.3113262E1,9.4212055E0,3.0124002E2,2.638255E0,2.1203667E3,2.6765326E2,4.816328E1,1.4949981E1,7.6860332E0,1.7351726E0,1.6178536E0,1.0204012E0],"tree_param":{"num_deleted":"0","num_feature":"20","num_nodes":"21","size_leaf_vector":"1"}},{"base_weights":[-4.200123E-2,-1.6561761E-1,9.0306526E-1,1.1373799E0,-2.8700563E-1,4.327428E-1,1.0179485E0,1.1445893E0,-8.106553E-3,9.6264076E-1,-4.5197126E-1,1.3654482E-1,2.1353893E0,5.1057346E-2,4.771863E-1,2.2678522E-2,5.778409E-2,5.108225E-2,-5.3464897E-2,-3.372748E-2,4.1576933E-2,8.161359E-2,-5.372918E-4,1.15316905E-1,3.8987488E-2,3.1971537E-2,1.5371325E-3],"categories":[],"categories_nodes":[],"categories_segments":[],"categories_sizes":[],"default_left":[0,0,0,0,0,0,0,0,0,0,0,0,0,0,0,0,0,0,0,0,0,0,0,0,0,0,0],"id":68,"left_children":[1,3,5,7,9,11,13,15,-1,17,19,21,23,-1,25,-1,-1,-1,-1,-1,-1,-1,-1,-1,-1,-1,-1],"loss_changes":[3.6685052E2,4.3950256E2,1.918576E1,2.404419E0,5.242194E2,3.654744E1,1.6357422E-2,1.2820435E0,0E0,3.6654724E1,6.4197034E2,1.3960906E1,6.943016E-1,0E0,2.40331E-1,0E0,0E0,0E0,0E0,0E0,0E0,0E0,0E0,0E0,0E0,0E0,0E0],"parents":[2147483647,0,0,1,1,2,2,3,3,4,4,5,5,6,6,7,7,9,9,10,10,11,11,12,12,14,14],"right_children":[2,4,6,8,10,12,14,16,-1,18,20,22,24,-1,26,-1,-1,-1,-1,-1,-1,-1,-1,-1,-1,-1,-1],"split_conditions":[2.0911887E0,-2.4764488E0,2.4954996E0,6.66E1,-2.3319056E0,2.22482E0,4.25E-1,6.8E0,-8.106553E-3,2.29E-1,2.3577921E0,9.4E-2,8E-1,5.1057346E-2,3.8043067E-1,2.2678522E-2,5.778409E-2,5.108225E-2,-5.3464897E-2,-3.372748E-2,4.1576933E-2,8.161359E-2,-5.372918E-4,1.15316905E-1,3.8987488E-2,3.1971537E-2,1.5371325E-3],"split_indices":[19,16,19,15,18,18,10,3,0,2,16,2,1,0,16,0,0,0,0,0,0,0,0,0,0,0,0],"split_type":[0,0,0,0,0,0,0,0,0,0,0,0,0,0,0,0,0,0,0,0,0,0,0,0,0,0,0],"sum_hessian":[3.1378723E3,2.7756384E3,3.622337E2,2.3583032E2,2.539808E3,7.204682E1,2.901869E2,2.3464775E2,1.182566E0,2.95617E2,2.2441912E3,6.229072E1,9.756103E0,2.8759753E2,2.5893683E0,4.3689623E0,2.302788E2,2.8775818E2,7.858823E0,1.9129362E3,3.3125497E2,4.680327E0,5.7610394E1,8.040846E0,1.7152567E0,1.5821241E0,1.0072443E0],"tree_param":{"num_deleted":"0","num_feature":"20","num_nodes":"27","size_leaf_vector":"1"}},{"base_weights":[-4.0766265E-2,-1.6091631E-1,9.8175305E-1,1.123511E0,-2.7850983E-1,4.358403E-1,5.1238943E-2,1.1338705E0,6.0959242E-2,9.441911E-1,-4.4271857E-1,-1.547432E-1,1.6989834E0,2.2008728E-2,5.726405E-2,-5.897103E-3,1.1360107E-2,5.8737036E-2,2.0040557E-2,-3.3672202E-2,4.109631E-2,-4.6130802E-2,4.542302E-2,1.02607846E-1,1.5053016E-2],"categories":[],"categories_nodes":[],"categories_segments":[],"categories_sizes":[],"default_left":[0,0,0,0,0,0,0,0,0,0,0,0,0,0,0,0,0,0,0,0,0,0,0,0,0],"id":69,"left_children":[1,3,5,7,9,11,-1,13,15,17,19,21,23,-1,-1,-1,-1,-1,-1,-1,-1,-1,-1,-1,-1],"loss_changes":[3.7613513E2,4.140706E2,7.1148987E0,2.4622192E0,5.0445618E2,1.9105923E1,0E0,1.2980957E0,1.2426526E-1,3.6805115E1,6.4652966E2,1.56381235E1,3.3964329E0,0E0,0E0,0E0,0E0,0E0,0E0,0E0,0E0,0E0,0E0,0E0,0E0],"parents":[2147483647,0,0,1,1,2,2,3,3,4,4,5,5,7,7,8,8,9,9,10,10,11,11,12,12],"right_children":[2,4,6,8,10,12,-1,14,16,18,20,22,24,-1,-1,-1,-1,-1,-1,-1,-1,-1,-1,-1,-1],"split_conditions":[2.0037668E0,-2.4764488E0,2.5223112E0,1.2071722E0,-2.3319056E0,2.22482E0,5.1238943E-2,6.8E0,1E-1,-2.535546E0,2.3577921E0,2.4954996E0,1E-1,2.2008728E-2,5.726405E-2,-5.897103E-3,1.1360107E-2,5.8737036E-2,2.0040557E-2,-3.3672202E-2,4.109631E-2,-4.6130802E-2,4.542302E-2,1.02607846E-1,1.5053016E-2],"split_indices":[17,16,17,18,18,18,0,3,8,18,16,19,9,0,0,0,0,0,0,0,0,0,0,0,0],"split_type":[0,0,0,0,0,0,0,0,0,0,0,0,0,0,0,0,0,0,0,0,0,0,0,0,0],"sum_hessian":[3.059314E3,2.7383855E3,3.2092844E2,2.289627E2,2.5094226E3,2.4259024E1,2.9666943E2,2.2668547E2,2.2772384E0,2.9655078E2,2.2128718E3,1.712821E1,7.130814E0,4.3088107E0,2.2237666E2,1.2368034E0,1.040435E0,2.0739407E2,8.915671E1,1.8718362E3,3.410357E2,1.0022171E1,7.1060386E0,5.319008E0,1.8118061E0],"tree_param":{"num_deleted":"0","num_feature":"20","num_nodes":"25","size_leaf_vector":"1"}},{"base_weights":[-3.9599124E-2,-9.046437E-2,2.3873181E0,-2.0725831E-1,1.0159976E0,3.4237978E0,1.3702563E0,-3.364686E-1,5.115465E-2,5.096671E-2,1.7030558E-2,-2.1011998E-1,3.980938E0,1.8157403E0,4.5840964E-2,4.609499E-2,-2.5477443E-2,-3.734703E-2,3.1008318E-2,-3.4888867E-2,2.1608034E-1,-3.154045E-2,1.032322E-1],"categories":[],"categories_nodes":[],"categories_segments":[],"categories_sizes":[],"default_left":[0,0,0,0,0,0,0,0,0,0,0,0,0,0,0,0,0,0,0,0,0,0,0],"id":70,"left_children":[1,3,5,7,9,11,13,15,-1,-1,-1,17,19,21,-1,-1,-1,-1,-1,-1,-1,-1,-1],"loss_changes":[3.6797745E2,3.7741965E2,5.9816803E1,4.2020697E2,2.8121948E-1,6.0846222E1,4.9110603E0,5.211887E2,0E0,0E0,0E0,2.6428216E0,4.4058594E1,1.0680809E1,0E0,0E0,0E0,0E0,0E0,0E0,0E0,0E0,0E0],"parents":[2147483647,0,0,1,1,2,2,3,3,4,4,5,5,6,6,7,7,11,11,12,12,13,13],"right_children":[2,4,6,8,10,12,14,16,-1,-1,-1,18,20,22,-1,-1,-1,-1,-1,-1,-1,-1,-1],"split_conditions":[2.22482E0,2.4954996E0,4E-1,2.5223112E0,4.25E-1,4.08E-1,1E0,-2.3319056E0,5.115465E-2,5.096671E-2,1.7030558E-2,6.48E1,1.84E1,-3.788912E-1,4.5840964E-2,4.609499E-2,-2.5477443E-2,-3.734703E-2,3.1008318E-2,-3.4888867E-2,2.1608034E-1,-3.154045E-2,1.032322E-1],"split_indices":[18,19,1,17,10,2,1,18,0,0,0,3,13,19,0,0,0,0,0,0,0,0,0],"split_type":[0,0,0,0,0,0,0,0,0,0,0,0,0,0,0,0,0,0,0,0,0,0,0],"sum_hessian":[2.9781348E3,2.917941E3,6.019378E1,2.640077E3,2.7786386E2,2.8640303E1,3.1553476E1,2.3898262E3,2.502507E2,2.7599115E2,1.8727136E0,3.89011E0,2.4750193E1,1.4400833E1,1.7152643E1,2.884371E2,2.1013892E3,2.4235492E0,1.4665607E0,1.6086655E0,2.3141527E1,1.1881167E0,1.3212716E1],"tree_param":{"num_deleted":"0","num_feature":"20","num_nodes":"23","size_leaf_vector":"1"}},{"base_weights":[-3.8192414E-2,-1.4619943E-1,5.1084954E-2,1.1160243E0,-2.6326418E-1,1.1263975E0,7.684162E-2,-4.451436E-1,8.151891E-1,2.2111354E-2,5.689423E-2,1.1724903E-2,-5.0289924E-3,-3.213365E-2,5.0566364E-2,1.4060872E-2,5.405904E-2],"categories":[],"categories_nodes":[],"categories_segments":[],"categories_sizes":[],"default_left":[0,0,0,0,0,0,0,0,0,0,0,0,0,0,0,0,0],"id":71,"left_children":[1,3,-1,5,7,9,11,13,15,-1,-1,-1,-1,-1,-1,-1,-1],"loss_changes":[3.3460345E2,3.922026E2,0E0,2.342102E0,4.766114E2,1.2493591E0,1.15890875E-1,5.985566E2,4.951219E1,0E0,0E0,0E0,0E0,0E0,0E0,0E0,0E0],"parents":[2147483647,0,0,1,1,3,3,4,4,5,5,6,6,7,7,8,8],"right_children":[2,4,-1,6,8,10,12,14,16,-1,-1,-1,-1,-1,-1,-1,-1],"split_conditions":[2.5223112E0,-2.4764488E0,5.1084954E-2,1.2071722E0,2.3577921E0,6.8E0,2.3E1,2.4954996E0,2.5224571E0,2.2111354E-2,5.689423E-2,1.1724903E-2,-5.0289924E-3,-3.213365E-2,5.0566364E-2,1.4060872E-2,5.405904E-2],"split_indices":[17,16,0,18,16,3,3,19,16,0,0,0,0,0,0,0,0],"split_type":[0,0,0,0,0,0,0,0,0,0,0,0,0,0,0,0,0],"sum_hessian":[2.9206157E3,2.6513E3,2.6931564E2,2.2430026E2,2.427E3,2.220003E2,2.2999527E0,2.0772605E3,3.4973947E2,4.3180013E0,2.1768231E2,1.0474709E0,1.2524818E0,1.8296752E3,2.4758522E2,1.1697413E2,2.3276534E2],"tree_param":{"num_deleted":"0","num_feature":"20","num_nodes":"17","size_leaf_vector":"1"}},{"base_weights":[-3.715828E-2,-8.813536E-2,2.2539144E0,-1.9874659E-1,1.0082603E0,3.079377E0,1.3478924E0,1.1025699E0,-3.2111907E-1,1.0119072E0,1.5485561E-2,-2.1124613E-1,3.5159266E0,3.5572863E-1,1.5103121E0,5.5515677E-2,-9.246833E-3,4.561032E-2,-2.4831725E-2,5.0780196E-2,2.336855E-2,-3.653237E-2,2.9960735E-2,-3.3950973E-2,1.8922083E-1,-3.2448817E-2,3.958673E-2,9.821201E-2,4.4818062E-2],"categories":[],"categories_nodes":[],"categories_segments":[],"categories_sizes":[],"default_left":[0,0,0,0,0,0,0,0,0,0,0,0,0,0,0,0,0,0,0,0,0,0,0,0,0,0,0,0,0],"id":72,"left_children":[1,3,5,7,9,11,13,15,17,19,-1,21,23,25,27,-1,-1,-1,-1,-1,-1,-1,-1,-1,-1,-1,-1,-1,-1],"loss_changes":[3.31359E2,3.366999E2,4.20347E1,4.0185455E2,3.3480835E-1,4.6043884E1,4.493599E0,2.368225E0,4.9948248E2,3.3996582E-2,0E0,2.3897543E0,3.39917E1,3.0106597E0,5.6299667E0,0E0,0E0,0E0,0E0,0E0,0E0,0E0,0E0,0E0,0E0,0E0,0E0,0E0,0E0],"parents":[2147483647,0,0,1,1,2,2,3,3,4,4,5,5,6,6,7,7,8,8,9,9,11,11,12,12,13,13,14,14],"right_children":[2,4,6,8,10,12,14,16,18,20,-1,22,24,26,28,-1,-1,-1,-1,-1,-1,-1,-1,-1,-1,-1,-1,-1,-1],"split_conditions":[2.22482E0,2.4954996E0,4E-1,-2.4764488E0,4.25E-1,4.08E-1,-3.788912E-1,6.66E1,-2.3319056E0,4.25E-1,1.5485561E-2,6.48E1,1.84E1,2.5223112E0,1E0,5.5515677E-2,-9.246833E-3,4.561032E-2,-2.4831725E-2,5.0780196E-2,2.336855E-2,-3.653237E-2,2.9960735E-2,-3.3950973E-2,1.8922083E-1,-3.2448817E-2,3.958673E-2,9.821201E-2,4.4818062E-2],"split_indices":[18,19,1,16,10,2,19,15,18,12,0,3,13,17,1,0,0,0,0,0,0,0,0,0,0,0,0,0,0],"split_type":[0,0,0,0,0,0,0,0,0,0,0,0,0,0,0,0,0,0,0,0,0,0,0,0,0,0,0,0,0],"sum_hessian":[2.8344666E3,2.7737122E3,6.075443E1,2.5202703E3,2.534419E2,3.053535E1,3.0219078E1,2.1594008E2,2.30433E3,2.5167934E2,1.7625442E0,3.6369388E0,2.689841E1,4.6998076E0,2.551927E1,2.1478589E2,1.1542E0,2.865539E2,2.0177762E3,2.4912305E2,2.556298E0,2.276484E0,1.3604548E0,1.5260503E0,2.537236E1,1.2744915E0,3.4253163E0,1.340722E1,1.211205E1],"tree_param":{"num_deleted":"0","num_feature":"20","num_nodes":"29","size_leaf_vector":"1"}},{"base_weights":[-3.572652E-2,-1.4513794E-1,5.1038403E-2,-2.6614437E-1,5.3932812E-2,1.0894942E0,-4.0133584E-1,5.503198E-2,2.3245108E-3,4.395668E-2,-2.98185E-2],"categories":[],"categories_nodes":[],"categories_segments":[],"categories_sizes":[],"default_left":[0,0,0,0,0,0,0,0,0,0,0],"id":73,"left_children":[1,3,-1,5,-1,7,9,-1,-1,-1,-1],"loss_changes":[3.2229782E2,3.7439682E2,0E0,4.2191754E2,0E0,2.3762817E0,5.2295844E2,0E0,0E0,0E0,0E0],"parents":[2147483647,0,0,1,1,3,3,5,5,6,6],"right_children":[2,4,-1,6,-1,8,10,-1,-1,-1,-1],"split_conditions":[2.5223112E0,2.5224571E0,5.1038403E-2,-2.4764488E0,5.3932812E-2,1.2071722E0,-2.3319056E0,5.503198E-2,2.3245108E-3,4.395668E-2,-2.98185E-2],"split_indices":[17,16,0,16,0,18,18,0,0,0,0],"split_type":[0,0,0,0,0,0,0,0,0,0,0],"sum_hessian":[2.7859414E3,2.5252837E3,2.6065775E2,2.2987683E3,2.2651534E2,2.0781682E2,2.0909514E3,2.0556491E2,2.2519102E0,2.759213E2,1.8150303E3],"tree_param":{"num_deleted":"0","num_feature":"20","num_nodes":"11","size_leaf_vector":"1"}},{"base_weights":[-3.463449E-2,-1.571114E-1,8.884015E-1,-2.758266E-1,5.372634E-2,4.2321792E-1,1.0068902E0,-4.2206383E-1,5.095188E-2,1.4872007E-1,1.7614683E0,1.0105205E0,4.2792523E-1,5.381289E-2,-2.9537266E-2,-4.5469794E-3,5.69121E-2,3.3858266E-2,9.500496E-2,5.0711554E-2,2.3351138E-2,1.452139E-3,2.949757E-2],"categories":[],"categories_nodes":[],"categories_segments":[],"categories_sizes":[],"default_left":[0,0,0,0,0,0,0,0,0,0,0,0,0,0,0,0,0,0,0,0,0,0,0],"id":74,"left_children":[1,3,5,7,-1,9,11,13,-1,15,17,19,21,-1,-1,-1,-1,-1,-1,-1,-1,-1,-1],"loss_changes":[3.071388E2,3.5096512E2,1.7116547E1,4.1479535E2,0E0,2.4106152E1,9.918213E-2,4.9775394E2,0E0,1.3416325E1,3.9663696E-1,3.17688E-2,1.9682902E-1,0E0,0E0,0E0,0E0,0E0,0E0,0E0,0E0,0E0,0E0],"parents":[2147483647,0,0,1,1,2,2,3,3,5,5,6,6,7,7,9,9,10,10,11,11,12,12],"right_children":[2,4,6,8,-1,10,12,14,-1,16,18,20,22,-1,-1,-1,-1,-1,-1,-1,-1,-1,-1],"split_conditions":[2.0911887E0,2.5224571E0,2.4954996E0,2.5223112E0,5.372634E-2,2.22482E0,4.25E-1,-2.4764488E0,5.095188E-2,2.3577921E0,3.49E1,4.25E-1,1.4E0,5.381289E-2,-2.9537266E-2,-4.5469794E-3,5.69121E-2,3.3858266E-2,9.500496E-2,5.0711554E-2,2.3351138E-2,1.452139E-3,2.949757E-2],"split_indices":[19,16,19,17,0,18,10,16,0,16,13,12,7,0,0,0,0,0,0,0,0,0,0],"split_type":[0,0,0,0,0,0,0,0,0,0,0,0,0,0,0,0,0,0,0,0,0,0,0],"sum_hessian":[2.7145916E3,2.3973225E3,3.1726904E2,2.1872717E3,2.100508E2,6.533544E1,2.5193358E2,1.9659218E3,2.2134995E2,5.513703E1,1.0198411E1,2.4962297E2,2.3106127E0,1.9838419E2,1.7675376E3,4.5117733E1,1.00193E1,1.8231654E0,8.375246E0,2.4707004E2,2.5529377E0,1.008094E0,1.3025187E0],"tree_param":{"num_deleted":"0","num_feature":"20","num_nodes":"23","size_leaf_vector":"1"}},{"base_weights":[-3.352544E-2,-8.5619226E-2,2.1649E0,5.7593316E-2,-1.8371575E-1,-6.6760585E-2,2.4120295E0,-3.1435162E-1,1.0027486E0,-4.3199714E-2,3.8215175E-2,2.9946206E0,1.2556261E0,-2.5272427E-2,4.0444624E-2,5.0331045E-2,1.5385901E-2,-2.6082426E-2,1.6205166E-1,-2.8072537E-3,6.784734E-2],"categories":[],"categories_nodes":[],"categories_segments":[],"categories_sizes":[],"default_left":[0,0,0,0,0,0,0,0,0,0,0,0,0,0,0,0,0,0,0,0,0],"id":75,"left_children":[1,3,5,-1,7,9,11,13,15,-1,-1,17,19,-1,-1,-1,-1,-1,-1,-1,-1],"loss_changes":[3.024235E2,3.1327795E2,3.3872467E1,0E0,3.7081335E2,5.342722E0,3.3333496E1,4.627751E2,3.2899475E-1,0E0,0E0,3.2788666E1,2.756651E0,0E0,0E0,0E0,0E0,0E0,0E0,0E0,0E0],"parents":[2147483647,0,0,1,1,2,2,4,4,5,5,6,6,7,7,8,8,11,11,12,12],"right_children":[2,4,6,-1,8,10,12,14,16,-1,-1,18,20,-1,-1,-1,-1,-1,-1,-1,-1],"split_conditions":[2.22482E0,-2.535546E0,-4.10861E-1,5.7593316E-2,2.4954996E0,2.5223112E0,7E-1,2.3577921E0,4.25E-1,-4.3199714E-2,3.8215175E-2,1.84E1,4.08E-1,-2.5272427E-2,4.0444624E-2,5.0331045E-2,1.5385901E-2,-2.6082426E-2,1.6205166E-1,-2.8072537E-3,6.784734E-2],"split_indices":[18,18,19,0,19,17,1,16,10,0,0,13,2,0,0,0,0,0,0,0,0],"split_type":[0,0,0,0,0,0,0,0,0,0,0,0,0,0,0,0,0,0,0,0,0],"sum_hessian":[2.638074E3,2.577948E3,6.0125874E1,1.8855746E2,2.3893906E3,6.0671673E0,5.405871E1,2.1530623E3,2.3632826E2,3.0763874E0,2.99078E0,3.4891117E1,1.9167591E1,1.8404907E3,3.1257166E2,2.3457304E2,1.755221E0,2.2118201E0,3.2679295E1,1.4063139E0,1.7761278E1],"tree_param":{"num_deleted":"0","num_feature":"20","num_nodes":"21","size_leaf_vector":"1"}},{"base_weights":[-3.225472E-2,-1.4575462E-1,9.722856E-1,5.7146307E-2,-2.5459835E-1,4.2511395E-1,5.0929725E-2,-4.3183684E-1,7.857841E-1,-1.7383118E-1,1.4036411E0,5.352931E-2,-3.059556E-2,1.4458464E-2,5.334396E-2,-4.5066953E-2,4.3536663E-2,8.611893E-2,7.37803E-3],"categories":[],"categories_nodes":[],"categories_segments":[],"categories_sizes":[],"default_left":[0,0,0,0,0,0,0,0,0,0,0,0,0,0,0,0,0,0,0],"id":76,"left_children":[1,3,5,-1,7,9,-1,11,13,15,17,-1,-1,-1,-1,-1,-1,-1,-1],"loss_changes":[2.95637E2,3.2703568E2,6.2370453E0,0E0,3.9658282E2,1.3288021E1,0E0,4.9757758E2,4.340564E1,1.195247E1,3.1731625E0,0E0,0E0,0E0,0E0,0E0,0E0,0E0,0E0],"parents":[2147483647,0,0,1,1,2,2,4,4,5,5,7,7,8,8,9,9,10,10],"right_children":[2,4,6,-1,8,10,-1,12,14,16,18,-1,-1,-1,-1,-1,-1,-1,-1],"split_conditions":[2.0037668E0,-2.535546E0,2.5223112E0,5.7146307E-2,2.3577921E0,2.22482E0,5.0929725E-2,-2.4764488E0,2.5224571E0,2.4954996E0,1E-1,5.352931E-2,-3.059556E-2,1.4458464E-2,5.334396E-2,-4.5066953E-2,4.3536663E-2,8.611893E-2,7.37803E-3],"split_indices":[17,18,17,0,16,18,0,16,16,19,9,0,0,0,0,0,0,0,0],"split_type":[0,0,0,0,0,0,0,0,0,0,0,0,0,0,0,0,0,0,0],"sum_hessian":[2.5907178E3,2.3284844E3,2.6223334E2,1.8060994E2,2.1478745E3,2.1256233E1,2.409771E2,1.8357269E3,3.1214764E2,1.3695643E1,7.5605907E0,1.9594492E2,1.639782E3,1.13555756E2,1.9859189E2,8.153848E0,5.541796E0,5.734258E0,1.8263323E0],"tree_param":{"num_deleted":"0","num_feature":"20","num_nodes":"19","size_leaf_vector":"1"}},{"base_weights":[-3.1210259E-2,-1.4187016E-1,9.690887E-1,-2.627528E-1,9.998918E-1,4.1576177E-1,5.086283E-2,8.6739707E-1,-4.2801988E-1,1.0041392E0,1.6723204E-2,-1.7219082E-1,1.3224628E0,5.6721177E-2,1.6900431E-2,-3.2993376E-2,3.8158305E-2,5.0419677E-2,1.8391434E-2,-4.482321E-2,4.32084E-2,8.413949E-2,1.343517E-2],"categories":[],"categories_nodes":[],"categories_segments":[],"categories_sizes":[],"default_left":[0,0,0,0,0,0,0,0,0,0,0,0,0,0,0,0,0,0,0,0,0,0,0],"id":77,"left_children":[1,3,5,7,9,11,-1,13,15,17,-1,19,21,-1,-1,-1,-1,-1,-1,-1,-1,-1,-1],"loss_changes":[2.793065E2,3.1379712E2,6.27594E0,3.8419333E2,2.794037E-1,1.1859133E1,0E0,3.6723892E1,4.9581516E2,2.1331787E-1,0E0,1.1373705E1,2.8504314E0,0E0,0E0,0E0,0E0,0E0,0E0,0E0,0E0,0E0,0E0],"parents":[2147483647,0,0,1,1,2,2,3,3,4,4,5,5,7,7,8,8,9,9,11,11,12,12],"right_children":[2,4,6,8,10,12,-1,14,16,18,-1,20,22,-1,-1,-1,-1,-1,-1,-1,-1,-1,-1],"split_conditions":[2.0037668E0,2.4954996E0,2.5223112E0,-2.3319056E0,4.25E-1,2.22482E0,5.086283E-2,-2.535546E0,2.3577921E0,4.25E-1,1.6723204E-2,2.4954996E0,-9.7026694E-1,5.6721177E-2,1.6900431E-2,-3.2993376E-2,3.8158305E-2,5.0419677E-2,1.8391434E-2,-4.482321E-2,4.32084E-2,8.413949E-2,1.343517E-2],"split_indices":[17,19,17,18,12,18,0,18,16,10,0,19,16,0,0,0,0,0,0,0,0,0,0],"split_type":[0,0,0,0,0,0,0,0,0,0,0,0,0,0,0,0,0,0,0,0,0,0,0],"sum_hessian":[2.5210117E3,2.2706726E3,2.5033914E2,2.0539797E3,2.1669269E2,2.0818562E1,2.2952057E2,2.6150122E2,1.7924786E3,2.1481255E2,1.8801385E0,1.312058E1,7.6979823E0,1.7306395E2,8.843728E1,1.5008125E3,2.916661E2,2.12805E2,2.0075555E0,7.802608E0,5.3179717E0,5.2916083E0,2.406374E0],"tree_param":{"num_deleted":"0","num_feature":"20","num_nodes":"23","size_leaf_vector":"1"}},{"base_weights":[-3.026878E-2,-8.362053E-2,2.0876198E0,-1.9354494E-1,9.972474E-1,-1.7822836E-1,2.3027806E0,1.0659388E0,-3.1683487E-1,1.0013654E0,1.5182815E-2,-4.3984354E-1,2.6958168E-2,3.02578E0,1.3654407E0,5.389882E-2,5.7377294E-4,4.234858E-2,-2.446257E-2,5.0278127E-2,2.1622354E-2,-4.1129913E-2,2.6101902E-2,1.6177376E-1,-3.611454E-2,7.688831E-2,7.880962E-3],"categories":[],"categories_nodes":[],"categories_segments":[],"categories_sizes":[],"default_left":[0,0,0,0,0,0,0,0,0,0,0,0,0,0,0,0,0,0,0,0,0,0,0,0,0,0,0],"id":78,"left_children":[1,3,5,7,9,11,13,15,17,19,-1,21,-1,23,25,-1,-1,-1,-1,-1,-1,-1,-1,-1,-1,-1,-1],"loss_changes":[2.7738962E2,2.8464E2,2.9819183E1,3.3790375E2,3.2763672E-1,1.3931781E0,3.3252594E1,2.4508514E0,3.978883E2,8.909607E-2,0E0,2.293924E0,0E0,2.6166992E1,5.136627E0,0E0,0E0,0E0,0E0,0E0,0E0,0E0,0E0,0E0,0E0,0E0,0E0],"parents":[2147483647,0,0,1,1,2,2,3,3,4,4,5,5,6,6,7,7,8,8,9,9,11,11,13,13,14,14],"right_children":[2,4,6,8,10,12,14,16,18,20,-1,22,-1,24,26,-1,-1,-1,-1,-1,-1,-1,-1,-1,-1,-1,-1],"split_conditions":[2.22482E0,2.4954996E0,4.08E-1,-2.4764488E0,4.25E-1,6.48E1,4E-1,1.2071722E0,-2.3319056E0,4.25E-1,1.5182815E-2,1E0,2.6958168E-2,1.81E1,3.88E-1,5.389882E-2,5.7377294E-4,4.234858E-2,-2.446257E-2,5.0278127E-2,2.1622354E-2,-4.1129913E-2,2.6101902E-2,1.6177376E-1,-3.611454E-2,7.688831E-2,7.880962E-3],"split_indices":[18,19,2,16,10,3,1,18,18,12,0,1,0,5,11,0,0,0,0,0,0,0,0,0,0,0,0],"split_type":[0,0,0,0,0,0,0,0,0,0,0,0,0,0,0,0,0,0,0,0,0,0,0,0,0,0,0],"sum_hessian":[2.4523809E3,2.3930579E3,5.932303E1,2.172895E3,2.2016277E2,5.1595645E0,5.4163467E1,1.9305649E2,1.9798385E3,2.1842218E2,1.7405837E0,4.0642996E0,1.0952652E0,2.9319996E1,2.484347E1,1.9085541E2,2.20107E0,2.5495914E2,1.7248794E3,2.1606071E2,2.3614657E0,3.0109687E0,1.0533305E0,2.7896044E1,1.4239521E0,2.1502447E1,3.3410237E0],"tree_param":{"num_deleted":"0","num_feature":"20","num_nodes":"27","size_leaf_vector":"1"}},{"base_weights":[-2.9044911E-2,-1.3556401E-1,5.0823208E-2,-2.4841799E-1,5.3085465E-2,1.054229E0,-3.8215148E-1,5.316025E-2,-1.2365657E-2,-2.7676975E-2,4.9630154E-2],"categories":[],"categories_nodes":[],"categories_segments":[],"categories_sizes":[],"default_left":[0,0,0,0,0,0,0,0,0,0,0],"id":79,"left_children":[1,3,-1,5,-1,7,9,-1,-1,-1,-1],"loss_changes":[2.687229E2,2.9611713E2,0E0,3.491326E2,0E0,2.4434357E0,4.284674E2,0E0,0E0,0E0,0E0],"parents":[2147483647,0,0,1,1,3,3,5,5,6,6],"right_children":[2,4,-1,6,-1,8,10,-1,-1,-1,-1],"split_conditions":[2.5223112E0,2.5224571E0,5.0823208E-2,-2.4764488E0,5.3085465E-2,6.66E1,2.4954996E0,5.316025E-2,-1.2365657E-2,-2.7676975E-2,4.9630154E-2],"split_indices":[17,16,0,16,0,15,19,0,0,0,0],"split_type":[0,0,0,0,0,0,0,0,0,0,0],"sum_hessian":[2.4107188E3,2.1886082E3,2.2211058E2,2.0008063E3,1.8780179E2,1.8564323E2,1.8151631E3,1.8455359E2,1.0896397E0,1.6144856E3,2.0067749E2],"tree_param":{"num_deleted":"0","num_feature":"20","num_nodes":"11",