{"learner":{"attributes":{"scikit_learn":"{\"_estimator_type\": \"classifier\"}"},"feature_names":[],"feature_types":[],"gradient_booster":{"model":{"cats":{"enc":[],"feature_segments":[],"sorted_idx":[]},"gbtree_model_param":{"num_parallel_tree":"1","num_trees":"150"},"iteration_indptr":[0,1,2,3,4,5,6,7,8,9,10,11,12,13,14,15,16,17,18,19,20,21,22,23,24,25,26,27,28,29,30,31,32,33,34,35,36,37,38,39,40,41,42,43,44,45,46,47,48,49,50,51,52,53,54,55,56,57,58,59,60,61,62,63,64,65,66,67,68,69,70,71,72,73,74,75,76,77,78,79,80,81,82,83,84,85,86,87,88,89,90,91,92,93,94,95,96,97,98,99,100,101,102,103,104,105,106,107,108,109,110,111,112,113,114,115,116,117,118,119,120,121,122,123,124,125,126,127,128,129,130,131,132,133,134,135,136,137,138,139,140,141,142,143,144,145,146,147,148,149,150],"tree_info":[0,0,0,0,0,0,0,0,0,0,0,0,0,0,0,0,0,0,0,0,0,0,0,0,0,0,0,0,0,0,0,0,0,0,0,0,0,0,0,0,0,0,0,0,0,0,0,0,0,0,0,0,0,0,0,0,0,0,0,0,0,0,0,0,0,0,0,0,0,0,0,0,0,0,0,0,0,0,0,0,0,0,0,0,0,0,0,0,0,0,0,0,0,0,0,0,0,0,0,0,0,0,0,0,0,0,0,0,0,0,0,0,0,0,0,0,0,0,0,0,0,0,0,0,0,0,0,0,0,0,0,0,0,0,0,0,0,0,0,0,0,0,0,0,0,0,0,0,0,0],"trees":[{"base_weights":[-1.4834586E-1,-5.55538E-1,4.0747833E0,3.8905647E0,-8.3455384E-1,3.657354E0,2.0606323E-1,2.0598972E-1,2.0128381E0,-1.0900859E0,2.059636E-1,2.0410441E-1,3.2476673E0,1.6006047E-1,6.414677E-2,-6.1128903E-2,2.0573305E-1,-2.7384682E-2,1.917048E-1],"categories":[],"categories_nodes":[],"categories_segments":[],"categories_sizes":[],"default_left":[0,0,0,0,0,0,0,0,0,0,0,0,0,0,0,0,0,0,0],"id":0,"left_children":[1,3,5,7,9,11,-1,-1,13,15,-1,-1,17,-1,-1,-1,-1,-1,-1],"loss_changes":[3.93437E4,2.5889328E4,2.396875E1,5.221543E2,2.4860365E4,2.3366943E1,0E0,0E0,1.1388611E2,1.2881828E4,0E0,0E0,2.514414E2,0E0,0E0,0E0,0E0,0E0,0E0],"parents":[2147483647,0,0,1,1,2,2,3,3,4,4,5,5,8,8,9,9,12,12],"right_children":[2,4,6,8,10,12,-1,-1,14,16,-1,-1,18,-1,-1,-1,-1,-1,-1],"split_conditions":[2.3620913E0,-2.3867218E0,2.6527371E0,-2.5362961E0,2.506263E0,9E-1,2.0606323E-1,2.0598972E-1,1.08E-1,2.5536208E0,2.059636E-1,2.0410441E-1,1E0,1.6006047E-1,6.414677E-2,-6.1128903E-2,2.0573305E-1,-2.7384682E-2,1.917048E-1],"split_indices":[17,18,17,18,19,1,0,0,12,16,0,0,1,0,0,0,0,0,0],"split_type":[0,0,0,0,0,0,0,0,0,0,0,0,0,0,0,0,0,0,0],"sum_hessian":[2.2876916E4,2.0865902E4,2.0110122E3,1.2313566E3,1.9634547E4,2.0947615E2,1.801536E3,1.0963251E3,1.3503148E2,1.8672164E4,9.623819E2,9.844825E1,1.1102791E2,5.0091145E1,8.494033E1,1.820939E4,4.6277374E2,1.4868048E1,9.615986E1],"tree_param":{"num_deleted":"0","num_feature":"20","num_nodes":"19","size_leaf_vector":"1"}},{"base_weights":[-1.4443223E-1,-5.378694E-1,3.5042975E0,3.3600683E0,-8.122527E-1,3.1788855E0,1.7700541E-1,1.7695746E-1,1.8194716E0,-1.0669903E0,1.7694046E-1,1.7572406E-1,2.84908E0,1.4076023E-1,5.9011783E-2,-6.0760524E-2,1.5873414E-1,-2.6461352E-2,1.6597268E-1],"categories":[],"categories_nodes":[],"categories_segments":[],"categories_sizes":[],"default_left":[0,0,0,0,0,0,0,0,0,0,0,0,0,0,0,0,0,0,0],"id":1,"left_children":[1,3,5,7,9,11,-1,-1,13,15,-1,-1,17,-1,-1,-1,-1,-1,-1],"loss_changes":[3.2693148E4,2.1989072E4,1.4576172E1,3.6658887E2,2.1291242E4,1.5394287E1,0E0,0E0,8.7608215E1,1.1411322E4,0E0,0E0,1.9412616E2,0E0,0E0,0E0,0E0,0E0,0E0],"parents":[2147483647,0,0,1,1,2,2,3,3,4,4,5,5,8,8,9,9,12,12],"right_children":[2,4,6,8,10,12,-1,-1,14,16,-1,-1,18,-1,-1,-1,-1,-1,-1],"split_conditions":[2.3620913E0,-2.3867218E0,2.6527371E0,-2.5362961E0,2.506263E0,9E-1,1.7700541E-1,1.7695746E-1,1.08E-1,2.3651881E0,1.7694046E-1,1.7572406E-1,1E0,1.4076023E-1,5.9011783E-2,-6.0760524E-2,1.5873414E-1,-2.6461352E-2,1.6597268E-1],"split_indices":[17,18,17,18,19,1,0,0,12,16,0,0,1,0,0,0,0,0,0],"split_type":[0,0,0,0,0,0,0,0,0,0,0,0,0,0,0,0,0,0,0],"sum_hessian":[2.2771705E4,2.0556031E4,2.2156738E3,1.3510818E3,1.920495E4,2.2855528E2,1.9871187E3,1.209223E3,1.4185876E2,1.8143477E4,1.0614741E3,1.0849712E2,1.2005816E2,5.4132687E1,8.7726074E1,1.7531568E4,6.1190625E2,1.4657831E1,1.0540033E2],"tree_param":{"num_deleted":"0","num_feature":"20","num_nodes":"19","size_leaf_vector":"1"}},{"base_weights":[-1.4061177E-1,-5.21836E-1,3.0987012E0,2.978624E0,-7.9179597E-1,2.829933E0,1.5640327E-1,1.5636905E-1,1.6596512E0,-1.0454171E0,1.5635687E-1,1.5548627E-1,2.5516965E0,1.2600236E-1,5.450502E-2,-5.9727438E-2,1.4083481E-1,-2.5564522E-2,1.4726718E-1],"categories":[],"categories_nodes":[],"categories_segments":[],"categories_sizes":[],"default_left":[0,0,0,0,0,0,0,0,0,0,0,0,0,0,0,0,0,0,0],"id":2,"left_children":[1,3,5,7,9,11,-1,-1,13,15,-1,-1,17,-1,-1,-1,-1,-1,-1],"loss_changes":[2.7877264E4,1.9088338E4,9.90625E0,2.785869E2,1.864116E4,1.11073E1,0E0,0E0,7.0130035E1,1.014768E4,0E0,0E0,1.5610333E2,0E0,0E0,0E0,0E0,0E0,0E0],"parents":[2147483647,0,0,1,1,2,2,3,3,4,4,5,5,8,8,9,9,12,12],"right_children":[2,4,6,8,10,12,-1,-1,14,16,-1,-1,18,-1,-1,-1,-1,-1,-1],"split_conditions":[2.3620913E0,-2.3867218E0,2.6527371E0,-2.5362961E0,2.506263E0,9E-1,1.5640327E-1,1.5636905E-1,1.08E-1,2.3651881E0,1.5635687E-1,1.5548627E-1,1E0,1.2600236E-1,5.450502E-2,-5.9727438E-2,1.4083481E-1,-2.5564522E-2,1.4726718E-1],"split_indices":[17,18,17,18,19,1,0,0,12,16,0,0,1,0,0,0,0,0,0],"split_type":[0,0,0,0,0,0,0,0,0,0,0,0,0,0,0,0,0,0,0],"sum_hessian":[2.257212E4,2.019614E4,2.375979E3,1.4453142E3,1.8750826E4,2.4360919E2,2.1323699E3,1.2975972E3,1.47717E2,1.7611781E4,1.1390459E3,1.16390816E2,1.2721837E2,5.7471954E1,9.024503E1,1.6957668E4,6.541128E2,1.4453795E1,1.1276458E2],"tree_param":{"num_deleted":"0","num_feature":"20","num_nodes":"19","size_leaf_vector":"1"}},{"base_weights":[-1.3697308E-1,-5.0723255E-1,2.7947853E0,2.6902857E0,-7.729674E-1,2.563442E0,1.4099748E-1,1.4097126E-1,1.5248579E0,-1.0252298E0,1.4096193E-1,1.4029421E-1,2.3205485E0,-2.690062E-2,8.634558E-2,-5.8752447E-2,1.2707454E-1,-2.4693262E-2,1.3301478E-1],"categories":[],"categories_nodes":[],"categories_segments":[],"categories_sizes":[],"default_left":[0,0,0,0,0,0,0,0,0,0,0,0,0,0,0,0,0,0,0],"id":3,"left_children":[1,3,5,7,9,11,-1,-1,13,15,-1,-1,17,-1,-1,-1,-1,-1,-1],"loss_changes":[2.4204662E4,1.6823713E4,7.328125E0,2.2435547E2,1.656698E4,8.580688E0,0E0,0E0,6.500644E1,9.130104E3,0E0,0E0,1.2925586E2,0E0,0E0,0E0,0E0,0E0,0E0],"parents":[2147483647,0,0,1,1,2,2,3,3,4,4,5,5,8,8,9,9,12,12],"right_children":[2,4,6,8,10,12,-1,-1,14,16,-1,-1,18,-1,-1,-1,-1,-1,-1],"split_conditions":[2.3620913E0,-2.3867218E0,2.6527371E0,-2.5362961E0,2.506263E0,9E-1,1.4099748E-1,1.4097126E-1,-1.2715499E0,2.3651881E0,1.4096193E-1,1.4029421E-1,1E0,-2.690062E-2,8.634558E-2,-5.8752447E-2,1.2707454E-1,-2.4693262E-2,1.3301478E-1],"split_indices":[17,18,17,18,19,1,0,0,19,16,0,0,1,0,0,0,0,0,0],"split_type":[0,0,0,0,0,0,0,0,0,0,0,0,0,0,0,0,0,0,0],"sum_hessian":[2.229563E4,1.9796328E4,2.4993032E3,1.518269E3,1.8278059E4,2.552839E2,2.2440193E3,1.3655365E3,1.5273253E2,1.7079375E4,1.1986832E3,1.224798E2,1.3280411E2,1.3476928E1,1.392556E2,1.6391525E4,6.878509E2,1.4255986E1,1.1854812E2],"tree_param":{"num_deleted":"0","num_feature":"20","num_nodes":"19","size_leaf_vector":"1"}},{"base_weights":[-1.3355011E-1,-4.938671E-1,2.5583067E0,2.4637992E0,-7.5555515E-1,2.3529112E0,1.2902968E-1,1.290084E-1,1.4061924E0,-1.0062641E0,1.2900084E-1,1.2845924E-1,2.135278E0,1.0480696E-1,4.3025658E-2,2.4756002E-1,-5.4616798E-2,-2.3846723E-2,1.2177215E-1],"categories":[],"categories_nodes":[],"categories_segments":[],"categories_sizes":[],"default_left":[0,0,0,0,0,0,0,0,0,0,0,0,0,0,0,0,0,0,0],"id":4,"left_children":[1,3,5,7,9,11,-1,-1,13,15,-1,-1,17,-1,-1,-1,-1,-1,-1],"loss_changes":[2.1298918E4,1.4991447E4,5.794922E0,1.9014551E2,1.4882353E4,6.991455E0,0E0,0E0,5.7781647E1,8.491793E3,0E0,0E0,1.09405945E2,0E0,0E0,0E0,0E0,0E0,0E0],"parents":[2147483647,0,0,1,1,2,2,3,3,4,4,5,5,8,8,9,9,12,12],"right_children":[2,4,6,8,10,12,-1,-1,14,16,-1,-1,18,-1,-1,-1,-1,-1,-1],"split_conditions":[2.3620913E0,-2.3867218E0,2.6527371E0,-2.5362961E0,2.506263E0,9E-1,1.2902968E-1,1.290084E-1,9.4E-2,-2.5122354E0,1.2900084E-1,1.2845924E-1,1E0,1.0480696E-1,4.3025658E-2,2.4756002E-1,-5.4616798E-2,-2.3846723E-2,1.2177215E-1],"split_indices":[17,18,17,18,19,1,0,0,2,16,0,0,1,0,0,0,0,0,0],"split_type":[0,0,0,0,0,0,0,0,0,0,0,0,0,0,0,0,0,0,0],"sum_hessian":[2.1957115E4,1.9365742E4,2.591374E3,1.5734773E3,1.7792264E4,2.640891E2,2.327285E3,1.4162118E3,1.5726555E2,1.6549096E4,1.2431683E3,1.2703887E2,1.3705023E2,6.819708E1,8.906846E1,2.3488646E2,1.6314209E4,1.4064415E1,1.2298582E2],"tree_param":{"num_deleted":"0","num_feature":"20","num_nodes":"19","size_leaf_vector":"1"}},{"base_weights":[-1.3014849E-1,-4.8059344E-1,2.3689866E0,2.2815607E0,-7.3769414E-1,2.1821907E0,1.1946163E-1,1.1944356E-1,1.3049488E0,-9.8591685E-1,1.19437136E-1,1.1897707E-1,1.983162E0,-2.8120164E-2,7.404123E-2,-5.70873E-2,1.2067683E-1,-2.3024159E-2,1.1266308E-1],"categories":[],"categories_nodes":[],"categories_segments":[],"categories_sizes":[],"default_left":[0,0,0,0,0,0,0,0,0,0,0,0,0,0,0,0,0,0,0],"id":5,"left_children":[1,3,5,7,9,11,-1,-1,13,15,-1,-1,17,-1,-1,-1,-1,-1,-1],"loss_changes":[1.8927771E4,1.3461617E4,4.838867E0,1.6605469E2,1.3459407E4,5.942871E0,0E0,0E0,5.4042023E1,8.513262E3,0E0,0E0,9.420087E1,0E0,0E0,0E0,0E0,0E0,0E0],"parents":[2147483647,0,0,1,1,2,2,3,3,4,4,5,5,8,8,9,9,12,12],"right_children":[2,4,6,8,10,12,-1,-1,14,16,-1,-1,18,-1,-1,-1,-1,-1,-1],"split_conditions":[2.3620913E0,-2.3867218E0,2.6527371E0,-2.5362961E0,2.506263E0,9E-1,1.1946163E-1,1.1944356E-1,-1.2715499E0,2.3651881E0,1.19437136E-1,1.1897707E-1,1E0,-2.8120164E-2,7.404123E-2,-5.70873E-2,1.2067683E-1,-2.3024159E-2,1.1266308E-1],"split_indices":[17,18,17,18,19,1,0,0,19,16,0,0,1,0,0,0,0,0,0],"split_type":[0,0,0,0,0,0,0,0,0,0,0,0,0,0,0,0,0,0,0],"sum_hessian":[2.1609451E4,1.8952604E4,2.6568494E3,1.6132139E3,1.7339389E4,2.704436E2,2.3864058E3,1.4521993E3,1.6101451E2,1.6064627E4,1.2747623E3,1.3029301E2,1.4015059E2,1.3670539E1,1.4734396E2,1.5361145E4,7.034824E2,1.3879061E1,1.2627152E2],"tree_param":{"num_deleted":"0","num_feature":"20","num_nodes":"19","size_leaf_vector":"1"}},{"base_weights":[-1.271348E-1,-4.691069E-1,2.214003E0,2.1311994E0,-7.223502E-1,2.0408397E0,1.116385E-1,1.11622535E-1,1.2141205E0,-9.68584E-1,1.1161689E-1,1.1121074E-1,1.8558111E0,-6.284645E-2,6.66723E-2,-5.624504E-2,1.1093519E-1,-2.2224892E-2,1.05123185E-1],"categories":[],"categories_nodes":[],"categories_segments":[],"categories_sizes":[],"default_left":[0,0,0,0,0,0,0,0,0,0,0,0,0,0,0,0,0,0,0],"id":6,"left_children":[1,3,5,7,9,11,-1,-1,13,15,-1,-1,17,-1,-1,-1,-1,-1,-1],"loss_changes":[1.6963967E4,1.2176102E4,4.2197266E0,1.4966602E2,1.2259853E4,5.2266846E0,0E0,0E0,5.043271E1,7.75126E3,0E0,0E0,8.222189E1,0E0,0E0,0E0,0E0,0E0,0E0],"parents":[2147483647,0,0,1,1,2,2,3,3,4,4,5,5,8,8,9,9,12,12],"right_children":[2,4,6,8,10,12,-1,-1,14,16,-1,-1,18,-1,-1,-1,-1,-1,-1],"split_conditions":[2.3620913E0,-2.3867218E0,2.6527371E0,-2.5362961E0,2.506263E0,9E-1,1.116385E-1,1.11622535E-1,6.5E0,2.3651881E0,1.1161689E-1,1.1121074E-1,1E0,-6.284645E-2,6.66723E-2,-5.624504E-2,1.1093519E-1,-2.2224892E-2,1.05123185E-1],"split_indices":[17,18,17,18,19,1,0,0,6,16,0,0,1,0,0,0,0,0,0],"split_type":[0,0,0,0,0,0,0,0,0,0,0,0,0,0,0,0,0,0,0],"sum_hessian":[2.1186664E4,1.8487045E4,2.6996196E3,1.640007E3,1.684704E4,2.7469968E2,2.42492E3,1.4756514E3,1.6435564E2,1.5551685E4,1.2953533E3,1.3243109E2,1.4226859E2,7.1318736E0,1.5722377E2,1.4825245E4,7.2644006E2,1.3699883E1,1.285687E2],"tree_param":{"num_deleted":"0","num_feature":"20","num_nodes":"19","size_leaf_vector":"1"}},{"base_weights":[-1.2431286E-1,-4.5845947E-1,2.0848312E0,2.0050113E0,-7.079976E-1,1.9217939E0,1.05125666E-1,1.0511112E-1,1.1327215E0,-9.5215E-1,1.0510595E-1,1.04735844E-1,1.7474551E0,6.9420375E-2,6.637785E-5,2.2278832E-1,-5.2260913E-2,-2.14483E-2,9.877165E-2],"categories":[],"categories_nodes":[],"categories_segments":[],"categories_sizes":[],"default_left":[0,0,0,0,0,0,0,0,0,0,0,0,0,0,0,0,0,0,0],"id":7,"left_children":[1,3,5,7,9,11,-1,-1,13,15,-1,-1,17,-1,-1,-1,-1,-1,-1],"loss_changes":[1.5304679E4,1.1071943E4,3.8125E0,1.3809863E2,1.1221795E4,4.725342E0,0E0,0E0,4.867903E1,7.577661E3,0E0,0E0,7.256656E1,0E0,0E0,0E0,0E0,0E0,0E0],"parents":[2147483647,0,0,1,1,2,2,3,3,4,4,5,5,8,8,9,9,12,12],"right_children":[2,4,6,8,10,12,-1,-1,14,16,-1,-1,18,-1,-1,-1,-1,-1,-1],"split_conditions":[2.3620913E0,-2.3867218E0,2.6527371E0,-2.5362961E0,2.506263E0,9E-1,1.05125666E-1,1.0511112E-1,1.47E1,-2.5122354E0,1.0510595E-1,1.04735844E-1,1E0,6.9420375E-2,6.637785E-5,2.2278832E-1,-5.2260913E-2,-2.14483E-2,9.877165E-2],"split_indices":[17,18,17,18,19,1,0,0,6,16,0,0,1,0,0,0,0,0,0],"split_type":[0,0,0,0,0,0,0,0,0,0,0,0,0,0,0,0,0,0,0],"sum_hessian":[2.0730752E4,1.800776E4,2.722992E3,1.6556774E3,1.6352083E4,2.7715814E2,2.4458337E3,1.4883953E3,1.6728207E2,1.5045537E4,1.3065455E3,1.3361409E2,1.4354404E2,1.3626103E2,3.102105E1,2.5375449E2,1.4791782E4,1.3526816E1,1.3001723E2],"tree_param":{"num_deleted":"0","num_feature":"20","num_nodes":"19","size_leaf_vector":"1"}},{"base_weights":[-1.2143379E-1,-4.474032E-1,1.975571E0,1.8976562E0,-6.925317E-1,1.8200922E0,9.9622816E-2,9.960918E-2,1.0601946E0,-9.3356603E-1,9.960433E-2,9.925812E-2,1.6539876E0,8.574637E-2,3.1393662E-2,-5.4056764E-2,1.23047784E-1,-2.0693824E-2,9.334176E-2],"categories":[],"categories_nodes":[],"categories_segments":[],"categories_sizes":[],"default_left":[0,0,0,0,0,0,0,0,0,0,0,0,0,0,0,0,0,0,0],"id":8,"left_children":[1,3,5,7,9,11,-1,-1,13,15,-1,-1,17,-1,-1,-1,-1,-1,-1],"loss_changes":[1.3875141E4,1.0099701E4,3.5429688E0,1.2951953E2,1.0294062E4,4.3685913E0,0E0,0E0,4.7265213E1,7.3140703E3,0E0,0E0,6.4635925E1,0E0,0E0,0E0,0E0,0E0,0E0],"parents":[2147483647,0,0,1,1,2,2,3,3,4,4,5,5,8,8,9,9,12,12],"right_children":[2,4,6,8,10,12,-1,-1,14,16,-1,-1,18,-1,-1,-1,-1,-1,-1],"split_conditions":[2.3620913E0,-2.3867218E0,2.6527371E0,-2.5362961E0,2.506263E0,9E-1,9.9622816E-2,9.960918E-2,1.08E-1,2.5536208E0,9.960433E-2,9.925812E-2,1E0,8.574637E-2,3.1393662E-2,-5.4056764E-2,1.23047784E-1,-2.0693824E-2,9.334176E-2],"split_indices":[17,18,17,18,19,1,0,0,12,16,0,0,1,0,0,0,0,0,0],"split_type":[0,0,0,0,0,0,0,0,0,0,0,0,0,0,0,0,0,0,0],"sum_hessian":[2.0296076E4,1.756627E4,2.7298062E3,1.6617872E3,1.5904481E4,2.780784E2,2.4517278E3,1.4920006E3,1.6978658E2,1.4594766E4,1.3097163E3,1.339807E2,1.440977E2,6.634424E1,1.0344234E2,1.3987377E4,6.073882E2,1.335978E1,1.3073792E2],"tree_param":{"num_deleted":"0","num_feature":"20","num_nodes":"19","size_leaf_vector":"1"}},{"base_weights":[-1.1890148E-1,-4.3795413E-1,1.8820035E0,1.8055061E0,-6.7949706E-1,1.7321436E0,9.491548E-2,9.490245E-2,9.968708E-1,-9.1813284E-1,9.489781E-2,9.4566934E-2,1.5724025E0,-6.369293E-2,5.5197652E-2,-5.408696E-2,1.0059153E-1,-1.9960944E-2,8.864094E-2],"categories":[],"categories_nodes":[],"categories_segments":[],"categories_sizes":[],"default_left":[0,0,0,0,0,0,0,0,0,0,0,0,0,0,0,0,0,0,0],"id":9,"left_children":[1,3,5,7,9,11,-1,-1,13,15,-1,-1,17,-1,-1,-1,-1,-1,-1],"loss_changes":[1.2642561E4,9.256681E3,3.3671875E0,1.22365234E2,9.486431E3,4.113037E0,0E0,0E0,4.3379242E1,6.7680566E3,0E0,0E0,5.8017303E1,0E0,0E0,0E0,0E0,0E0,0E0],"parents":[2147483647,0,0,1,1,2,2,3,3,4,4,5,5,8,8,9,9,12,12],"right_children":[2,4,6,8,10,12,-1,-1,14,16,-1,-1,18,-1,-1,-1,-1,-1,-1],"split_conditions":[2.3620913E0,-2.3867218E0,2.6527371E0,-2.5362961E0,2.506263E0,9E-1,9.491548E-2,9.490245E-2,6.5E0,2.3651881E0,9.489781E-2,9.4566934E-2,1E0,-6.369293E-2,5.5197652E-2,-5.408696E-2,1.0059153E-1,-1.9960944E-2,8.864094E-2],"split_indices":[17,18,17,18,19,1,0,0,6,16,0,0,1,0,0,0,0,0,0],"split_type":[0,0,0,0,0,0,0,0,0,0,0,0,0,0,0,0,0,0,0],"sum_hessian":[1.9801404E4,1.7078885E4,2.7225183E3,1.6594429E3,1.5419442E4,2.776854E2,2.4448328E3,1.4878243E3,1.7161847E2,1.4113387E4,1.3060564E3,1.336511E2,1.4403429E2,7.237956E0,1.6438051E2,1.3367584E4,7.4580225E2,1.3198676E1,1.3083562E2],"tree_param":{"num_deleted":"0","num_feature":"20","num_nodes":"19","size_leaf_vector":"1"}},{"base_weights":[-1.16551474E-1,-4.29162E-1,1.8010288E0,1.7248746E0,-6.672785E-1,1.6552821E0,9.084623E-2,9.083356E-2,9.3698364E-1,-9.0351087E-1,9.082905E-2,1.7481979E0,1.4003578E0,1.03966095E-1,3.592969E-2,2.0409857E-1,-5.0219364E-2,1.22266505E-2,8.788087E-2,-5.8981873E-2,7.284055E-2],"categories":[],"categories_nodes":[],"categories_segments":[],"categories_sizes":[],"default_left":[0,0,0,0,0,0,0,0,0,0,0,0,0,0,0,0,0,0,0,0,0],"id":10,"left_children":[1,3,5,7,9,11,-1,-1,13,15,-1,17,19,-1,-1,-1,-1,-1,-1,-1,-1],"loss_changes":[1.1564918E4,8.509232E3,3.256836E0,1.1773877E2,8.766411E3,4.1171875E0,0E0,0E0,4.2013016E1,6.8642783E3,0E0,2.3903809E0,1.3234314E1,0E0,0E0,0E0,0E0,0E0,0E0,0E0,0E0],"parents":[2147483647,0,0,1,1,2,2,3,3,4,4,5,5,8,8,9,9,11,11,12,12],"right_children":[2,4,6,8,10,12,-1,-1,14,16,-1,18,20,-1,-1,-1,-1,-1,-1,-1,-1],"split_conditions":[2.3620913E0,-2.3867218E0,2.6527371E0,-2.5362961E0,2.506263E0,1.21E1,9.084623E-2,9.083356E-2,7.8E-2,-2.5122354E0,9.082905E-2,-1.646554E0,1.4E1,1.03966095E-1,3.592969E-2,2.0409857E-1,-5.0219364E-2,1.22266505E-2,8.788087E-2,-5.8981873E-2,7.284055E-2],"split_indices":[17,18,17,18,19,0,0,0,2,16,0,16,15,0,0,0,0,0,0,0,0],"split_type":[0,0,0,0,0,0,0,0,0,0,0,0,0,0,0,0,0,0,0,0,0],"sum_hessian":[1.929007E4,1.6586809E4,2.7032622E3,1.6504406E3,1.4936368E4,2.7617514E2,2.4270872E3,1.4770455E3,1.73395E2,1.3639768E4,1.2966007E3,1.9810968E2,7.806546E1,2.6461405E1,1.469336E2,2.697311E2,1.3370036E4,1.4011497E0,1.9670853E2,1.2455628E0,7.68199E1],"tree_param":{"num_deleted":"0","num_feature":"20","num_nodes":"21","size_leaf_vector":"1"}},{"base_weights":[-1.1406339E-1,-4.196245E-1,1.7296859E0,1.6541961E0,-6.534806E-1,1.5818409E0,8.7296896E-2,8.728437E-2,8.838736E-1,-8.861692E-1,8.7279916E-2,8.7112464E-2,1.4236895E0,-3.4209453E-2,5.1484086E-2,-5.28475E-2,9.731915E-2,-2.2168089E-2,8.113888E-2],"categories":[],"categories_nodes":[],"categories_segments":[],"categories_sizes":[],"default_left":[0,0,0,0,0,0,0,0,0,0,0,0,0,0,0,0,0,0,0],"id":11,"left_children":[1,3,5,7,9,11,-1,-1,13,15,-1,-1,17,-1,-1,-1,-1,-1,-1],"loss_changes":[1.0603706E4,7.8312695E3,3.6674805E0,1.1379004E2,8.101635E3,4.512451E0,0E0,0E0,4.088794E1,6.400963E3,0E0,0E0,5.434616E1,0E0,0E0,0E0,0E0,0E0,0E0],"parents":[2147483647,0,0,1,1,2,2,3,3,4,4,5,5,8,8,9,9,12,12],"right_children":[2,4,6,8,10,12,-1,-1,14,16,-1,-1,18,-1,-1,-1,-1,-1,-1],"split_conditions":[2.3620913E0,-2.3867218E0,2.6527371E0,-2.5362961E0,2.506263E0,9E-1,8.7296896E-2,8.728437E-2,-1.2715499E0,2.3651881E0,8.7279916E-2,8.7112464E-2,1E0,-3.4209453E-2,5.1484086E-2,-5.28475E-2,9.731915E-2,-2.2168089E-2,8.113888E-2],"split_indices":[17,18,17,18,19,1,0,0,19,16,0,0,1,0,0,0,0,0,0],"split_type":[0,0,0,0,0,0,0,0,0,0,0,0,0,0,0,0,0,0,0],"sum_hessian":[1.8819363E4,1.6144532E4,2.6748308E3,1.6354442E3,1.4509088E4,2.7465103E2,2.4001797E3,1.4606915E3,1.7475269E2,1.3226837E4,1.2822511E3,1.3137987E2,1.4327116E2,1.4553011E1,1.6019968E2,1.2475301E4,7.5153644E2,1.3687031E1,1.2958414E2],"tree_param":{"num_deleted":"0","num_feature":"20","num_nodes":"19","size_leaf_vector":"1"}},{"base_weights":[-1.1195279E-1,-4.117156E-1,1.6674521E0,1.5913954E0,-6.4227E-1,1.5216006E0,8.41768E-2,8.416431E-2,8.340808E-1,-8.7237215E-1,8.415987E-2,8.397595E-2,1.3666295E0,5.305611E-2,-8.510764E-3,1.8248962E-1,-4.8886735E-2,-2.139311E-2,7.78718E-2],"categories":[],"categories_nodes":[],"categories_segments":[],"categories_sizes":[],"default_left":[0,0,0,0,0,0,0,0,0,0,0,0,0,0,0,0,0,0,0],"id":12,"left_children":[1,3,5,7,9,11,-1,-1,13,15,-1,-1,17,-1,-1,-1,-1,-1,-1],"loss_changes":[9.759701E3,7.2327065E3,3.6274414E0,1.1109277E2,7.515981E3,4.371399E0,0E0,0E0,4.051847E1,6.092591E3,0E0,0E0,4.9580597E1,0E0,0E0,0E0,0E0,0E0,0E0],"parents":[2147483647,0,0,1,1,2,2,3,3,4,4,5,5,8,8,9,9,12,12],"right_children":[2,4,6,8,10,12,-1,-1,14,16,-1,-1,18,-1,-1,-1,-1,-1,-1],"split_conditions":[2.3620913E0,-2.3867218E0,2.6527371E0,-2.5362961E0,2.506263E0,9E-1,8.41768E-2,8.416431E-2,1.47E1,-2.5122354E0,8.415987E-2,8.397595E-2,1E0,5.305611E-2,-8.510764E-3,1.8248962E-1,-4.8886735E-2,-2.139311E-2,7.78718E-2],"split_indices":[17,18,17,18,19,1,0,0,6,16,0,0,1,0,0,0,0,0,0],"split_type":[0,0,0,0,0,0,0,0,0,0,0,0,0,0,0,0,0,0,0],"sum_hessian":[1.8294889E4,1.5657892E4,2.6369973E3,1.6155668E3,1.4042325E4,2.71412E2,2.3655852E3,1.4396593E3,1.7590747E2,1.277853E4,1.2637949E3,1.2955527E2,1.418567E2,1.4342645E2,3.248102E1,2.9018387E2,1.2488346E4,1.3514407E1,1.283423E2],"tree_param":{"num_deleted":"0","num_feature":"20","num_nodes":"19","size_leaf_vector":"1"}},{"base_weights":[-1.09666824E-1,-4.0296322E-1,1.6122987E0,1.5352354E0,-6.293721E-1,1.4676393E0,8.1415355E-2,8.140277E-2,7.8798985E-1,-8.557636E-1,8.139831E-2,1.5607406E0,1.2163719E0,5.4101378E-2,7.124326E-4,-5.1707465E-2,9.430589E-2,7.151092E-3,7.850778E-2,-6.2034924E-2,6.363553E-2],"categories":[],"categories_nodes":[],"categories_segments":[],"categories_sizes":[],"default_left":[0,0,0,0,0,0,0,0,0,0,0,0,0,0,0,0,0,0,0,0,0],"id":13,"left_children":[1,3,5,7,9,11,-1,-1,13,15,-1,17,19,-1,-1,-1,-1,-1,-1,-1,-1],"loss_changes":[8.99854E3,6.68159E3,3.6157227E0,1.0918164E2,6.968041E3,4.3826904E0,0E0,0E0,4.046106E1,6.062206E3,0E0,2.3432922E0,1.2254959E1,0E0,0E0,0E0,0E0,0E0,0E0,0E0,0E0],"parents":[2147483647,0,0,1,1,2,2,3,3,4,4,5,5,8,8,9,9,11,11,12,12],"right_children":[2,4,6,8,10,12,-1,-1,14,16,-1,18,20,-1,-1,-1,-1,-1,-1,-1,-1],"split_conditions":[2.3620913E0,-2.3867218E0,2.6527371E0,-2.5362961E0,2.506263E0,1.21E1,8.1415355E-2,8.140277E-2,2.34E-1,2.3651881E0,8.139831E-2,-1.646554E0,1.4E1,5.4101378E-2,7.124326E-4,-5.1707465E-2,9.430589E-2,7.151092E-3,7.850778E-2,-6.2034924E-2,6.363553E-2],"split_indices":[17,18,17,18,19,0,0,0,2,16,0,16,15,0,0,0,0,0,0,0,0],"split_type":[0,0,0,0,0,0,0,0,0,0,0,0,0,0,0,0,0,0,0,0,0],"sum_hessian":[1.7814973E4,1.5222878E4,2.592094E3,1.5916445E3,1.3631233E4,2.675013E2,2.3245925E3,1.414733E3,1.7691153E2,1.2389313E4,1.2419202E3,1.913789E2,7.612241E1,1.27906105E2,4.900542E1,1.1633092E4,7.562214E2,1.3693688E0,1.9000954E2,1.2350867E0,7.488733E1],"tree_param":{"num_deleted":"0","num_feature":"20","num_nodes":"21","size_leaf_vector":"1"}},{"base_weights":[-1.07747495E-1,-3.957532E-1,1.5624855E0,1.4848282E0,-6.189687E-1,1.4134103E0,7.895664E-2,7.8943886E-2,7.4585885E-1,-8.426311E-1,7.893936E-2,7.884238E-2,1.2561632E0,6.624621E-2,1.8866448E-2,-5.0206043E-2,1.03231326E-1,-2.320416E-2,7.248898E-2],"categories":[],"categories_nodes":[],"categories_segments":[],"categories_sizes":[],"default_left":[0,0,0,0,0,0,0,0,0,0,0,0,0,0,0,0,0,0,0],"id":14,"left_children":[1,3,5,7,9,11,-1,-1,13,15,-1,-1,17,-1,-1,-1,-1,-1,-1],"loss_changes":[8.318511E3,6.192286E3,4.07959E0,1.0760376E2,6.4825107E3,4.830078E0,0E0,0E0,3.7616066E1,5.620868E3,0E0,0E0,4.729654E1,0E0,0E0,0E0,0E0,0E0,0E0],"parents":[2147483647,0,0,1,1,2,2,3,3,4,4,5,5,8,8,9,9,12,12],"right_children":[2,4,6,8,10,12,-1,-1,14,16,-1,-1,18,-1,-1,-1,-1,-1,-1],"split_conditions":[2.3620913E0,-2.3867218E0,2.6527371E0,-2.5362961E0,2.506263E0,9E-1,7.895664E-2,7.8943886E-2,1.08E-1,2.5536208E0,7.893936E-2,7.884238E-2,1E0,6.624621E-2,1.8866448E-2,-5.0206043E-2,1.03231326E-1,-2.320416E-2,7.248898E-2],"split_indices":[17,18,17,18,19,1,0,0,12,16,0,0,1,0,0,0,0,0,0],"split_type":[0,0,0,0,0,0,0,0,0,0,0,0,0,0,0,0,0,0,0],"sum_hessian":[1.7290598E4,1.4748255E4,2.542344E3,1.5642089E3,1.3184046E4,2.640155E2,2.2783286E3,1.3865984E3,1.7761049E2,1.1966816E4,1.2172289E3,1.2503276E2,1.3898274E2,6.806533E1,1.0954516E2,1.1337695E4,6.291212E2,1.3918895E1,1.2506385E2],"tree_param":{"num_deleted":"0","num_feature":"20","num_nodes":"19","size_leaf_vector":"1"}},{"base_weights":[-1.058743E-1,-3.8879576E-1,1.5183985E0,1.439448E0,-6.088568E-1,1.3693037E0,7.675582E-2,7.674281E-2,7.0783967E-1,-8.2972753E-1,7.67382E-2,7.6612435E-2,1.2134798E0,4.6080854E-2,-1.1688631E-2,1.7224012E-1,-4.7208376E-2,-2.2399778E-2,7.0057034E-2],"categories":[],"categories_nodes":[],"categories_segments":[],"categories_sizes":[],"default_left":[0,0,0,0,0,0,0,0,0,0,0,0,0,0,0,0,0,0,0],"id":15,"left_children":[1,3,5,7,9,11,-1,-1,13,15,-1,-1,17,-1,-1,-1,-1,-1,-1],"loss_changes":[7.706903E3,5.747162E3,4.0996094E0,1.06042725E2,6.0374175E3,4.74469E0,0E0,0E0,3.6229866E1,5.6574917E3,0E0,0E0,4.3580368E1,0E0,0E0,0E0,0E0,0E0,0E0],"parents":[2147483647,0,0,1,1,2,2,3,3,4,4,5,5,8,8,9,9,12,12],"right_children":[2,4,6,8,10,12,-1,-1,14,16,-1,-1,18,-1,-1,-1,-1,-1,-1],"split_conditions":[2.3620913E0,-2.3867218E0,2.6527371E0,-2.5362961E0,2.506263E0,9E-1,7.675582E-2,7.674281E-2,1.47E1,-2.5122354E0,7.67382E-2,7.6612435E-2,1E0,4.6080854E-2,-1.1688631E-2,1.7224012E-1,-4.7208376E-2,-2.2399778E-2,7.0057034E-2],"split_indices":[17,18,17,18,19,1,0,0,6,16,0,0,1,0,0,0,0,0,0],"split_type":[0,0,0,0,0,0,0,0,0,0,0,0,0,0,0,0,0,0,0],"sum_hessian":[1.6768562E4,1.4281689E4,2.4868733E3,1.5337678E3,1.2747922E4,2.5909546E2,2.2277778E3,1.3558545E3,1.7791327E2,1.1557675E4,1.190247E3,1.2233569E2,1.3675975E2,1.4501196E2,3.290131E1,3.0060117E2,1.1257073E4,1.3738373E1,1.2302138E2],"tree_param":{"num_deleted":"0","num_feature":"20","num_nodes":"19","size_leaf_vector":"1"}},{"base_weights":[-1.0382358E-1,-3.8088048E-1,1.4786797E0,1.3978338E0,-5.9688234E-1,1.3290567E0,7.47765E-2,7.4763194E-2,6.708555E-1,-8.13794E-1,7.4758455E-2,1.4315625E0,1.0868119E0,8.641949E-2,2.3844901E-2,-5.003419E-2,8.7646075E-2,6.967359E-2,1.0741625E-1,-6.2182732E-2,5.703333E-2],"categories":[],"categories_nodes":[],"categories_segments":[],"categories_sizes":[],"default_left":[0,0,0,0,0,0,0,0,0,0,0,0,0,0,0,0,0,0,0,0,0],"id":16,"left_children":[1,3,5,7,9,11,-1,-1,13,15,-1,17,19,-1,-1,-1,-1,-1,-1,-1,-1],"loss_changes":[7.146767E3,5.3303145E3,4.135254E0,1.0541089E2,5.6146167E3,4.7713623E0,0E0,0E0,3.5967384E1,5.378439E3,0E0,1.8085632E0,1.14483795E1,0E0,0E0,0E0,0E0,0E0,0E0,0E0,0E0],"parents":[2147483647,0,0,1,1,2,2,3,3,4,4,5,5,8,8,9,9,11,11,12,12],"right_children":[2,4,6,8,10,12,-1,-1,14,16,-1,18,20,-1,-1,-1,-1,-1,-1,-1,-1],"split_conditions":[2.3620913E0,-2.3867218E0,2.6527371E0,-2.5362961E0,2.506263E0,1.16E1,7.47765E-2,7.4763194E-2,7.8E-2,2.3651881E0,7.4758455E-2,2.8422358E0,1.37E1,8.641949E-2,2.3844901E-2,-5.003419E-2,8.7646075E-2,6.967359E-2,1.0741625E-1,-6.2182732E-2,5.703333E-2],"split_indices":[17,18,17,18,19,4,0,0,2,16,0,19,13,0,0,0,0,0,0,0,0],"split_type":[0,0,0,0,0,0,0,0,0,0,0,0,0,0,0,0,0,0,0,0,0],"sum_hessian":[1.6298033E4,1.3870427E4,2.4276067E3,1.5013948E3,1.2369032E4,2.5380489E2,2.1738018E3,1.3230254E3,1.7836935E2,1.1207598E4,1.1614343E3,1.7489053E2,7.891435E1,2.641779E1,1.5195157E2,1.0447496E4,7.6010144E2,1.6886092E2,6.029616E0,1.2834336E0,7.763092E1],"tree_param":{"num_deleted":"0","num_feature":"20","num_nodes":"21","size_leaf_vector":"1"}},{"base_weights":[-1.02121875E-1,-3.7450275E-1,1.4420766E0,1.3599472E0,-5.8748037E-1,1.286539E0,7.298882E-2,7.297512E-2,6.373293E-1,-8.0154854E-1,7.297027E-2,7.2931856E-2,1.1254239E0,4.5493443E-2,-3.454019E-3,1.5818404E-1,-4.6045423E-2,-2.3975989E-2,6.592775E-2],"categories":[],"categories_nodes":[],"categories_segments":[],"categories_sizes":[],"default_left":[0,0,0,0,0,0,0,0,0,0,0,0,0,0,0,0,0,0,0],"id":17,"left_children":[1,3,5,7,9,11,-1,-1,13,15,-1,-1,17,-1,-1,-1,-1,-1,-1],"loss_changes":[6.641074E3,4.9586504E3,4.6401367E0,1.0468628E2,5.2392163E3,5.299011E0,0E0,0E0,3.4629883E1,5.125367E3,0E0,0E0,4.206195E1,0E0,0E0,0E0,0E0,0E0,0E0],"parents":[2147483647,0,0,1,1,2,2,3,3,4,4,5,5,8,8,9,9,12,12],"right_children":[2,4,6,8,10,12,-1,-1,14,16,-1,-1,18,-1,-1,-1,-1,-1,-1],"split_conditions":[2.3620913E0,-2.3867218E0,2.6527371E0,-2.5362961E0,2.506263E0,9E-1,7.298882E-2,7.297512E-2,2.34E-1,-2.5122354E0,7.297027E-2,7.2931856E-2,1E0,4.5493443E-2,-3.454019E-3,1.5818404E-1,-4.6045423E-2,-2.3975989E-2,6.592775E-2],"split_indices":[17,18,17,18,19,1,0,0,2,16,0,0,1,0,0,0,0,0,0],"split_type":[0,0,0,0,0,0,0,0,0,0,0,0,0,0,0,0,0,0,0],"sum_hessian":[1.5786862E4,1.3420397E4,2.366464E3,1.4671134E3,1.1953284E4,2.4931313E2,2.117151E3,1.2885674E3,1.7854602E2,1.0822093E4,1.1311919E3,1.1665374E2,1.326594E2,1.2863095E2,4.991507E1,3.1549796E2,1.0506595E4,1.4089657E1,1.1856973E2],"tree_param":{"num_deleted":"0","num_feature":"20","num_nodes":"19","size_leaf_vector":"1"}},{"base_weights":[-1.0018291E-1,-3.6703333E-1,1.4094203E0,1.3250327E0,-5.7602614E-1,1.2525368E0,7.1368046E-2,7.1353935E-2,6.053701E-1,-7.860467E-1,7.1348906E-2,7.12724E-2,1.0918294E0,-3.909349E-2,3.689094E-2,-4.9066555E-2,8.540863E-2,-2.3149682E-2,6.402027E-2],"categories":[],"categories_nodes":[],"categories_segments":[],"categories_sizes":[],"default_left":[0,0,0,0,0,0,0,0,0,0,0,0,0,0,0,0,0,0,0],"id":18,"left_children":[1,3,5,7,9,11,-1,-1,13,15,-1,-1,17,-1,-1,-1,-1,-1,-1],"loss_changes":[6.175951E3,4.607791E3,4.694336E0,1.0433838E2,4.879367E3,5.2378235E0,0E0,0E0,3.3583107E1,5.114307E3,0E0,0E0,3.9000473E1,0E0,0E0,0E0,0E0,0E0,0E0],"parents":[2147483647,0,0,1,1,2,2,3,3,4,4,5,5,8,8,9,9,12,12],"right_children":[2,4,6,8,10,12,-1,-1,14,16,-1,-1,18,-1,-1,-1,-1,-1,-1],"split_conditions":[2.3620913E0,-2.3867218E0,2.6527371E0,-2.5362961E0,2.506263E0,9E-1,7.1368046E-2,7.1353935E-2,-1.2715499E0,2.3651881E0,7.1348906E-2,7.12724E-2,1E0,-3.909349E-2,3.689094E-2,-4.9066555E-2,8.540863E-2,-2.3149682E-2,6.402027E-2],"split_indices":[17,18,17,18,19,1,0,0,19,16,0,0,1,0,0,0,0,0,0],"split_type":[0,0,0,0,0,0,0,0,0,0,0,0,0,0,0,0,0,0,0],"sum_hessian":[1.5328811E4,1.3026833E4,2.301978E3,1.4315171E3,1.1595315E4,2.4349817E2,2.0584797E3,1.2528796E3,1.7863737E2,1.0495446E4,1.099869E3,1.1350443E2,1.2999373E2,1.51418295E1,1.6349554E2,9.733937E3,7.6151013E2,1.3903458E1,1.1609027E2],"tree_param":{"num_deleted":"0","num_feature":"20","num_nodes":"19","size_leaf_vector":"1"}},{"base_weights":[-9.861029E-2,-3.610616E-1,1.3796401E0,1.2927103E0,-5.670859E-1,1.2210426E0,6.98935E-2,6.987891E-2,5.7497317E-1,-7.7417886E-1,6.987373E-2,1.3234078E0,9.554877E-1,8.01036E-2,1.9607095E-2,-4.7499586E-2,9.431429E-2,-3.0477773E-3,6.670143E-2,-6.937906E-2,5.0811853E-2],"categories":[],"categories_nodes":[],"categories_segments":[],"categories_sizes":[],"default_left":[0,0,0,0,0,0,0,0,0,0,0,0,0,0,0,0,0,0,0,0,0],"id":19,"left_children":[1,3,5,7,9,11,-1,-1,13,15,-1,17,19,-1,-1,-1,-1,-1,-1,-1,-1],"loss_changes":[5.7558687E3,4.2933447E3,4.760254E0,1.04267334E2,4.559302E3,5.2191772E0,0E0,0E0,3.310949E1,4.74285E3,0E0,2.5743103E0,1.1367943E1,0E0,0E0,0E0,0E0,0E0,0E0,0E0,0E0],"parents":[2147483647,0,0,1,1,2,2,3,3,4,4,5,5,8,8,9,9,11,11,12,12],"right_children":[2,4,6,8,10,12,-1,-1,14,16,-1,18,20,-1,-1,-1,-1,-1,-1,-1,-1],"split_conditions":[2.3620913E0,-2.3867218E0,2.6527371E0,-2.5362961E0,2.506263E0,1.21E1,6.98935E-2,6.987891E-2,7.8E-2,2.5536208E0,6.987373E-2,-1.646554E0,1.4E1,8.01036E-2,1.9607095E-2,-4.7499586E-2,9.431429E-2,-3.0477773E-3,6.670143E-2,-6.937906E-2,5.0811853E-2],"split_indices":[17,18,17,18,19,0,0,0,2,16,0,16,15,0,0,0,0,0,0,0,0],"split_type":[0,0,0,0,0,0,0,0,0,0,0,0,0,0,0,0,0,0,0,0,0],"sum_hessian":[1.4833623E4,1.2597751E4,2.2358723E3,1.3949681E3,1.1202782E4,2.3751474E2,1.9983575E3,1.2163075E3,1.7866072E2,1.0135013E4,1.06777E3,1.6855656E2,6.8958176E1,2.5824242E1,1.5283647E2,9.507375E3,6.276379E2,1.247226E0,1.6730934E2,1.1907427E0,6.776743E1],"tree_param":{"num_deleted":"0","num_feature":"20","num_nodes":"21","size_leaf_vector":"1"}},{"base_weights":[-9.70329E-2,-3.551873E-1,1.3516924E0,1.2628845E0,-5.5826205E-1,1.1859741E0,6.854778E-2,6.8532676E-2,5.473256E-1,1.5172015E-1,-6.688843E-1,6.846947E-2,1.0194542E0,3.7576012E-2,-1.6774302E-2,-4.4602375E-2,6.85273E-2,-2.4464993E-2,6.0747564E-2],"categories":[],"categories_nodes":[],"categories_segments":[],"categories_sizes":[],"default_left":[0,0,0,0,0,0,0,0,0,0,0,0,0,0,0,0,0,0,0],"id":20,"left_children":[1,3,5,7,9,11,-1,-1,13,-1,15,-1,17,-1,-1,-1,-1,-1,-1],"loss_changes":[5.367771E3,4.00342E3,5.303711E0,1.04022705E2,4.3037363E3,5.734436E0,0E0,0E0,3.261073E1,0E0,4.7806553E3,0E0,3.784172E1,0E0,0E0,0E0,0E0,0E0,0E0],"parents":[2147483647,0,0,1,1,2,2,3,3,4,4,5,5,8,8,10,10,12,12],"right_children":[2,4,6,8,10,12,-1,-1,14,-1,16,-1,18,-1,-1,-1,-1,-1,-1],"split_conditions":[2.3620913E0,-2.3867218E0,2.6527371E0,-2.5362961E0,-2.5122354E0,9E-1,6.854778E-2,6.8532676E-2,1.47E1,1.5172015E-1,2.506263E0,6.846947E-2,1E0,3.7576012E-2,-1.6774302E-2,-4.4602375E-2,6.85273E-2,-2.4464993E-2,6.0747564E-2],"split_indices":[17,18,17,18,16,1,0,0,6,0,19,0,1,0,0,0,0,0,0],"split_type":[0,0,0,0,0,0,0,0,0,0,0,0,0,0,0,0,0,0,0],"sum_hessian":[1.4350244E4,1.2180504E4,2.1697397E3,1.3576575E3,1.0822847E4,2.3246227E2,1.9372776E3,1.1791521E3,1.7850537E2,3.225036E2,1.0500343E4,1.0718196E2,1.25280304E2,1.4509384E2,3.341153E1,9.465185E3,1.0351587E3,1.4198687E1,1.1108162E2],"tree_param":{"num_deleted":"0","num_feature":"20","num_nodes":"19","size_leaf_vector":"1"}},{"base_weights":[-9.5230296E-2,-3.4818867E-1,1.3266796E0,1.2348793E0,-5.473281E-1,1.1586463E0,6.731613E-2,6.730045E-2,5.2028596E-1,-7.472463E-1,6.7294866E-2,6.719697E-2,9.918406E-1,-6.87393E-2,3.0657167E-2,-4.7568284E-2,8.0371924E-2,-2.3624806E-2,5.918246E-2],"categories":[],"categories_nodes":[],"categories_segments":[],"categories_sizes":[],"default_left":[0,0,0,0,0,0,0,0,0,0,0,0,0,0,0,0,0,0,0],"id":21,"left_children":[1,3,5,7,9,11,-1,-1,13,15,-1,-1,17,-1,-1,-1,-1,-1,-1],"loss_changes":[5.0081523E3,3.7271118E3,5.3811035E0,1.0421179E2,3.9753137E3,5.6916504E0,0E0,0E0,3.241755E1,4.566695E3,0E0,0E0,3.522499E1,0E0,0E0,0E0,0E0,0E0,0E0],"parents":[2147483647,0,0,1,1,2,2,3,3,4,4,5,5,8,8,9,9,12,12],"right_children":[2,4,6,8,10,12,-1,-1,14,16,-1,-1,18,-1,-1,-1,-1,-1,-1],"split_conditions":[2.3620913E0,-2.3867218E0,2.6527371E0,-2.5362961E0,2.506263E0,9E-1,6.731613E-2,6.730045E-2,6.5E0,2.3651881E0,6.7294866E-2,6.719697E-2,1E0,-6.87393E-2,3.0657167E-2,-4.7568284E-2,8.0371924E-2,-2.3624806E-2,5.918246E-2],"split_indices":[17,18,17,18,19,1,0,0,6,16,0,0,1,0,0,0,0,0,0],"split_type":[0,0,0,0,0,0,0,0,0,0,0,0,0,0,0,0,0,0,0],"sum_hessian":[1.3921472E4,1.1819527E4,2.1019438E3,1.3201035E3,1.0499424E4,2.2627608E2,1.8756677E3,1.1416731E3,1.7843044E2,9.497161E3,1.00226276E3,1.0385439E2,1.22421684E2,7.6897335E0,1.707407E2,8.740107E3,7.570533E2,1.4008939E1,1.0841274E2],"tree_param":{"num_deleted":"0","num_feature":"20","num_nodes":"19","size_leaf_vector":"1"}},{"base_weights":[-9.379145E-2,-3.4270328E-1,1.3036518E0,2.803335E0,-4.3950695E-1,1.1330073E0,6.6185914E-2,5.7677865E-2,1.4165792E-1,1.2080028E0,-6.5389687E-1,1.249621E0,8.682155E-1,6.616925E-2,2.4720829E-2,-4.3542888E-2,6.616382E-2,6.0271036E-2,1.02456175E-1,-4.3768257E-2,4.723994E-2],"categories":[],"categories_nodes":[],"categories_segments":[],"categories_sizes":[],"default_left":[0,0,0,0,0,0,0,0,0,0,0,0,0,0,0,0,0,0,0,0,0],"id":22,"left_children":[1,3,5,7,9,11,-1,-1,-1,13,15,17,19,-1,-1,-1,-1,-1,-1,-1,-1],"loss_changes":[4.681757E3,3.4804717E3,5.4682617E0,1.3517578E1,3.9158003E3,5.7408752E0,0E0,0E0,0E0,1.0445813E2,4.2086816E3,2.872818E0,1.0289387E1,0E0,0E0,0E0,0E0,0E0,0E0,0E0,0E0],"parents":[2147483647,0,0,1,1,2,2,3,3,4,4,5,5,9,9,10,10,11,11,12,12],"right_children":[2,4,6,8,10,12,-1,-1,-1,14,16,18,20,-1,-1,-1,-1,-1,-1,-1,-1],"split_conditions":[2.3620913E0,-2.5122354E0,2.6527371E0,-2.7995222E0,-2.3867218E0,1.16E1,6.6185914E-2,5.7677865E-2,1.4165792E-1,-2.5362961E0,2.506263E0,2.8422358E0,1.69E1,6.616925E-2,2.4720829E-2,-4.3542888E-2,6.616382E-2,6.0271036E-2,1.02456175E-1,-4.3768257E-2,4.723994E-2],"split_indices":[17,16,17,18,18,4,0,0,0,18,19,19,13,0,0,0,0,0,0,0,0],"split_type":[0,0,0,0,0,0,0,0,0,0,0,0,0,0,0,0,0,0,0,0,0],"sum_hessian":[1.3457222E4,1.14232705E4,2.0339518E3,3.4016705E2,1.1083104E4,2.2005574E2,1.8138961E3,6.744624E0,3.3342242E2,1.2756392E3,9.807464E3,1.5019218E2,6.986356E1,1.0973503E3,1.7828879E2,8.838185E3,9.692797E2,1.4470018E2,5.4919972E0,2.5006518E0,6.7362915E1],"tree_param":{"num_deleted":"0","num_feature":"20","num_nodes":"21","size_leaf_vector":"1"}},{"base_weights":[-9.203311E-2,-3.359481E-1,1.2816509E0,-4.793154E-1,1.7592936E0,1.1030256E0,6.514628E-2,1.1720936E0,-6.909622E-1,6.413204E-2,1.8017879E0,6.505957E-2,9.289332E-1,6.5126516E-2,2.0301944E-2,-4.560018E-2,6.512189E-2,9.0835445E-2,6.1916348E-2,-2.4809962E-2,5.6440987E-2],"categories":[],"categories_nodes":[],"categories_segments":[],"categories_sizes":[],"default_left":[0,0,0,0,0,0,0,0,0,0,0,0,0,0,0,0,0,0,0,0,0],"id":23,"left_children":[1,3,5,7,9,11,-1,13,15,-1,17,-1,19,-1,-1,-1,-1,-1,-1,-1,-1],"loss_changes":[4.373608E3,3.330527E3,6.0427246E0,3.6271948E3,1.2071777E1,6.24292E0,0E0,1.172832E2,4.0537905E3,0E0,3.2109375E0,0E0,3.4309914E1,0E0,0E0,0E0,0E0,0E0,0E0,0E0,0E0],"parents":[2147483647,0,0,1,1,2,2,3,3,4,4,5,5,7,7,8,8,10,10,12,12],"right_children":[2,4,6,8,10,12,-1,14,16,-1,18,-1,20,-1,-1,-1,-1,-1,-1,-1,-1],"split_conditions":[2.3620913E0,2.5536208E0,2.6527371E0,-2.3867218E0,-2.5362961E0,9E-1,6.514628E-2,-2.5362961E0,2.506263E0,6.413204E-2,2.506263E0,6.505957E-2,1E0,6.5126516E-2,2.0301944E-2,-4.560018E-2,6.512189E-2,9.0835445E-2,6.1916348E-2,-2.4809962E-2,5.6440987E-2],"split_indices":[17,16,17,18,18,1,0,18,19,0,19,0,1,0,0,0,0,0,0,0,0],"split_type":[0,0,0,0,0,0,0,0,0,0,0,0,0,0,0,0,0,0,0,0,0],"sum_hessian":[1.305084E4,1.1083567E4,1.9672723E3,1.0374464E4,7.0910333E2,2.1499425E2,1.7522781E3,1.178044E3,9.19642E3,6.0595425E1,6.4850793E2,9.7517685E1,1.1747656E2,1.0060439E3,1.72E2,8.278939E3,9.174811E2,6.2961096E2,1.8896982E1,1.4267936E1,1.03208626E2],"tree_param":{"num_deleted":"0","num_feature":"20","num_nodes":"21","size_leaf_vector":"1"}},{"base_weights":[-9.059083E-2,-3.305633E-1,1.2619727E0,2.640293E0,-4.307462E-1,1.0802383E0,6.418789E-2,5.556002E-2,1.3325979E-1,-6.0333264E-1,1.5000058E0,6.40563E-2,9.0545106E-1,5.7362407E-2,-4.1911386E-2,2.9322503E-2,8.476018E-2,-2.3959799E-2,5.5108547E-2],"categories":[],"categories_nodes":[],"categories_segments":[],"categories_sizes":[],"default_left":[0,0,0,0,0,0,0,0,0,0,0,0,0,0,0,0,0,0,0],"id":24,"left_children":[1,3,5,7,9,11,-1,-1,-1,13,15,-1,17,-1,-1,-1,-1,-1,-1],"loss_changes":[4.0944465E3,3.189793E3,6.138672E0,1.0351807E1,3.45471E3,6.205948E0,0E0,0E0,0E0,3.9136086E3,1.507174E2,0E0,3.2012833E1,0E0,0E0,0E0,0E0,0E0,0E0],"parents":[2147483647,0,0,1,1,2,2,3,3,4,4,5,5,9,9,10,10,12,12],"right_children":[2,4,6,8,10,12,-1,-1,-1,14,16,-1,18,-1,-1,-1,-1,-1,-1],"split_conditions":[2.3620913E0,-2.5122354E0,2.6527371E0,-2.7995222E0,2.3651881E0,9E-1,6.418789E-2,5.556002E-2,1.3325979E-1,-2.3867218E0,2.5536208E0,6.40563E-2,1E0,5.7362407E-2,-4.1911386E-2,2.9322503E-2,8.476018E-2,-2.3959799E-2,5.5108547E-2],"split_indices":[17,16,17,18,16,1,0,0,0,18,16,0,1,0,0,0,0,0,0],"split_type":[0,0,0,0,0,0,0,0,0,0,0,0,0,0,0,0,0,0,0],"sum_hessian":[1.2612392E4,1.0712525E4,1.8998661E3,3.4863498E2,1.0363891E4,2.0878055E2,1.6910856E3,6.3179593E0,3.4231705E2,9.514128E3,8.497631E2,9.419276E1,1.1458779E2,1.1251252E3,8.389002E3,1.5030705E2,6.9945605E2,1.4075941E1,1.00511856E2],"tree_param":{"num_deleted":"0","num_feature":"20","num_nodes":"19","size_leaf_vector":"1"}},{"base_weights":[-8.856215E-2,-3.225352E-1,1.2437134E0,-4.7696203E-1,1.4452341E0,1.0586159E0,6.330258E-2,1.1222227E0,-6.840129E-1,5.543801E-1,1.6400123E0,1.1841258E0,7.799576E-1,6.337198E-2,1.6315416E-2,-4.5898393E-2,6.47722E-2,6.829607E-2,2.1005064E-2,6.1977275E-2,8.366766E-2,5.682838E-2,1.0089754E-1,-6.8789534E-2,4.201757E-2],"categories":[],"categories_nodes":[],"categories_segments":[],"categories_sizes":[],"default_left":[0,0,0,0,0,0,0,0,0,0,0,0,0,0,0,0,0,0,0,0,0,0,0,0,0],"id":25,"left_children":[1,3,5,7,9,11,-1,13,15,17,19,21,23,-1,-1,-1,-1,-1,-1,-1,-1,-1,-1,-1,-1],"loss_changes":[3.82728E3,2.8517048E3,6.2436523E0,3.1812195E3,1.4472119E2,6.197876E0,0E0,1.26892334E2,3.9398394E3,1.5999729E1,7.114258E0,3.197052E0,9.769955E0,0E0,0E0,0E0,0E0,0E0,0E0,0E0,0E0,0E0,0E0,0E0,0E0],"parents":[2147483647,0,0,1,1,2,2,3,3,4,4,5,5,7,7,8,8,9,9,10,10,11,11,12,12],"right_children":[2,4,6,8,10,12,-1,14,16,18,20,22,24,-1,-1,-1,-1,-1,-1,-1,-1,-1,-1,-1,-1],"split_conditions":[2.3620913E0,2.3651881E0,2.6527371E0,-2.3867218E0,2.5536208E0,1.16E1,6.330258E-2,-2.5362961E0,2.506263E0,-1.8178158E0,-2.5362961E0,2.8422358E0,1.37E1,6.337198E-2,1.6315416E-2,-4.5898393E-2,6.47722E-2,6.829607E-2,2.1005064E-2,6.1977275E-2,8.366766E-2,5.682838E-2,1.0089754E-1,-6.8789534E-2,4.201757E-2],"split_indices":[17,16,17,18,16,4,0,18,19,18,18,19,13,0,0,0,0,0,0,0,0,0,0,0,0],"split_type":[0,0,0,0,0,0,0,0,0,0,0,0,0,0,0,0,0,0,0,0,0,0,0,0,0],"sum_hessian":[1.2275791E4,1.0442624E4,1.8331663E3,9.604349E3,8.382759E2,2.0261916E2,1.6305471E3,1.1004508E3,8.503897E3,1.5108894E2,6.8718695E2,1.3745775E2,6.51614E1,9.3014996E2,1.7030083E2,7.6055254E3,8.983722E2,2.014802E1,1.3094092E2,5.574898E1,6.314379E2,1.3227629E2,5.181454E0,1.1822116E0,6.3979187E1],"tree_param":{"num_deleted":"0","num_feature":"20","num_nodes":"25","size_leaf_vector":"1"}},{"base_weights":[-8.72257E-2,-3.175774E-1,1.2259078E0,2.5047443E0,-4.208449E-1,1.0318184E0,6.248325E-2,5.3652383E-2,1.2628995E-1,1.1127952E0,-6.2274104E-1,6.2367674E-2,8.491314E-1,6.253375E-2,1.8554423E-2,-4.211279E-2,6.38042E-2,-2.507824E-2,5.2749176E-2],"categories":[],"categories_nodes":[],"categories_segments":[],"categories_sizes":[],"default_left":[0,0,0,0,0,0,0,0,0,0,0,0,0,0,0,0,0,0,0],"id":26,"left_children":[1,3,5,7,9,11,-1,-1,-1,13,15,-1,17,-1,-1,-1,-1,-1,-1],"loss_changes":[3.5865488E3,2.9410056E3,6.870117E0,8.0271E0,3.014065E3,6.7654266E0,0E0,0E0,0E0,1.1535132E2,3.585934E3,0E0,3.1304909E1,0E0,0E0,0E0,0E0,0E0,0E0],"parents":[2147483647,0,0,1,1,2,2,3,3,4,4,5,5,9,9,10,10,12,12],"right_children":[2,4,6,8,10,12,-1,-1,-1,14,16,-1,18,-1,-1,-1,-1,-1,-1],"split_conditions":[2.3620913E0,-2.5122354E0,2.6527371E0,-2.7995222E0,-2.3867218E0,9E-1,6.248325E-2,5.3652383E-2,1.2628995E-1,-2.5362961E0,2.506263E0,6.2367674E-2,1E0,6.253375E-2,1.8554423E-2,-4.211279E-2,6.38042E-2,-2.507824E-2,5.2749176E-2],"split_indices":[17,16,17,18,18,1,0,0,0,18,19,0,1,0,0,0,0,0,0],"split_type":[0,0,0,0,0,0,0,0,0,0,0,0,0,0,0,0,0,0,0],"sum_hessian":[1.1854758E4,1.0086184E4,1.7685741E3,3.5520154E2,9.730982E3,1.9771738E2,1.5708567E3,5.9010005E0,3.4930054E2,1.1314869E3,8.599495E3,8.8030594E1,1.0968678E2,9.535419E2,1.7794508E2,7.7088643E3,8.9063116E2,1.4316002E1,9.537078E1],"tree_param":{"num_deleted":"0","num_feature":"20","num_nodes":"19","size_leaf_vector":"1"}},{"base_weights":[-8.5589066E-2,-3.1129077E-1,1.2100754E0,-4.714948E-1,1.4248497E0,1.0122025E0,6.172368E-2,2.3272774E0,-5.8994836E-1,5.6332994E-1,1.6138916E0,6.1559964E-2,8.285911E-1,5.2831646E-2,1.1722942E-1,5.3991675E-2,-4.0832326E-2,-3.7663486E-2,3.167742E-2,6.0388673E-2,8.227532E-2,-2.422019E-2,5.1577307E-2],"categories":[],"categories_nodes":[],"categories_segments":[],"categories_sizes":[],"default_left":[0,0,0,0,0,0,0,0,0,0,0,0,0,0,0,0,0,0,0,0,0,0,0],"id":27,"left_children":[1,3,5,7,9,11,-1,13,15,17,19,-1,21,-1,-1,-1,-1,-1,-1,-1,-1,-1,-1],"loss_changes":[3.3605813E3,2.722688E3,6.980957E0,2.9720269E3,1.3378296E2,6.7281036E0,0E0,5.5302734E0,3.2553645E3,1.4377438E1,6.713501E0,0E0,2.9245522E1,0E0,0E0,0E0,0E0,0E0,0E0,0E0,0E0,0E0,0E0],"parents":[2147483647,0,0,1,1,2,2,3,3,4,4,5,5,7,7,8,8,9,9,10,10,12,12],"right_children":[2,4,6,8,10,12,-1,14,16,18,20,-1,22,-1,-1,-1,-1,-1,-1,-1,-1,-1,-1],"split_conditions":[2.3620913E0,2.3651881E0,2.6527371E0,-2.5122354E0,2.5536208E0,9E-1,6.172368E-2,-2.7995222E0,-2.3867218E0,1.23E1,-2.5362961E0,6.1559964E-2,1E0,5.2831646E-2,1.1722942E-1,5.3991675E-2,-4.0832326E-2,-3.7663486E-2,3.167742E-2,6.0388673E-2,8.227532E-2,-2.422019E-2,5.1577307E-2],"split_indices":[17,16,17,16,16,1,0,18,18,0,18,0,1,0,0,0,0,0,0,0,0,0,0],"split_type":[0,0,0,0,0,0,0,0,0,0,0,0,0,0,0,0,0,0,0,0,0,0,0],"sum_hessian":[1.1489483E4,9.785612E3,1.7038708E3,8.959586E3,8.26026E2,1.9169365E2,1.5121772E3,3.630456E2,8.596541E3,1.4935428E2,6.7667175E2,8.48208E1,1.0687285E2,5.7133408E0,3.5733224E2,1.0271486E3,7.569392E3,7.0696945E0,1.4228458E2,5.170349E1,6.2496826E2,1.4122454E1,9.27504E1],"tree_param":{"num_deleted":"0","num_feature":"20","num_nodes":"23","size_leaf_vector":"1"}},{"base_weights":[-8.365512E-2,-3.0372345E-1,1.1952844E0,-4.603851E-1,1.3763001E0,9.933996E-1,6.1018366E-2,-6.4868367E-1,6.3523054E-2,5.322294E-1,1.5664426E0,6.080783E-2,8.087458E-1,5.2874364E-2,-4.4909865E-2,6.5439366E-2,2.0404985E-2,5.9680115E-2,7.973589E-2,-2.338648E-2,5.0448895E-2],"categories":[],"categories_nodes":[],"categories_segments":[],"categories_sizes":[],"default_left":[0,0,0,0,0,0,0,0,0,0,0,0,0,0,0,0,0,0,0,0,0],"id":28,"left_children":[1,3,5,7,9,11,-1,13,-1,15,17,-1,19,-1,-1,-1,-1,-1,-1,-1,-1],"loss_changes":[3.1468042E3,2.511205E3,7.099365E0,2.8447476E3,1.2978784E2,6.6990814E0,0E0,3.3515027E3,0E0,1.4035522E1,5.093506E0,0E0,2.7336395E1,0E0,0E0,0E0,0E0,0E0,0E0,0E0,0E0],"parents":[2147483647,0,0,1,1,2,2,3,3,4,4,5,5,7,7,9,9,10,10,12,12],"right_children":[2,4,6,8,10,12,-1,14,-1,16,18,-1,20,-1,-1,-1,-1,-1,-1,-1,-1],"split_conditions":[2.3620913E0,2.3651881E0,2.6527371E0,2.506263E0,2.5536208E0,9E-1,6.1018366E-2,-2.3867218E0,6.3523054E-2,-1.8178158E0,-2.5362961E0,6.080783E-2,1E0,5.2874364E-2,-4.4909865E-2,6.5439366E-2,2.0404985E-2,5.9680115E-2,7.973589E-2,-2.338648E-2,5.0448895E-2],"split_indices":[17,16,17,19,16,1,0,18,0,18,18,0,1,0,0,0,0,0,0,0,0],"split_type":[0,0,0,0,0,0,0,0,0,0,0,0,0,0,0,0,0,0,0,0,0],"sum_hessian":[1.1178234E4,9.537816E3,1.6404187E3,8.724943E3,8.128723E2,1.8577577E2,1.454643E3,7.869452E3,8.554916E2,1.5014693E2,6.6272534E2,8.166869E1,1.04107086E2,1.0036013E3,6.8658506E3,1.9377453E1,1.3076949E2,4.9762512E1,6.129628E2,1.3935108E1,9.0171974E1],"tree_param":{"num_deleted":"0","num_feature":"20","num_nodes":"21","size_leaf_vector":"1"}},{"base_weights":[-8.2388744E-2,-2.989449E-1,1.1814361E0,2.2355955E0,-4.0403667E-1,9.753167E-1,6.0362436E-2,5.127705E-2,1.12532295E-1,-5.763314E-1,1.3326265E0,1.1161524E0,6.7236346E-1,-3.9261326E-2,6.268439E-2,2.5251968E-2,7.6193176E-2,5.310439E-2,1.0112351E-1,-5.081277E-2,3.783173E-2],"categories":[],"categories_nodes":[],"categories_segments":[],"categories_sizes":[],"default_left":[0,0,0,0,0,0,0,0,0,0,0,0,0,0,0,0,0,0,0,0,0],"id":29,"left_children":[1,3,5,7,9,11,-1,-1,-1,13,15,17,19,-1,-1,-1,-1,-1,-1,-1,-1],"loss_changes":[2.9548281E3,2.4558486E3,7.225586E0,4.3775635E0,2.649017E3,6.9711914E0,0E0,0E0,0E0,3.079293E3,1.2570288E2,3.8313446E0,9.299597E0,0E0,0E0,0E0,0E0,0E0,0E0,0E0,0E0],"parents":[2147483647,0,0,1,1,2,2,3,3,4,4,5,5,9,9,10,10,11,11,12,12],"right_children":[2,4,6,8,10,12,-1,-1,-1,14,16,18,20,-1,-1,-1,-1,-1,-1,-1,-1],"split_conditions":[2.3620913E0,-2.5122354E0,2.6527371E0,-2.7995222E0,2.3651881E0,1.16E1,6.0362436E-2,5.127705E-2,1.12532295E-1,2.506263E0,2.5536208E0,2.8422358E0,1.69E1,-3.9261326E-2,6.268439E-2,2.5251968E-2,7.6193176E-2,5.310439E-2,1.0112351E-1,-5.081277E-2,3.783173E-2],"split_indices":[17,16,17,18,16,4,0,0,0,19,16,19,13,0,0,0,0,0,0,0,0],"split_type":[0,0,0,0,0,0,0,0,0,0,0,0,0,0,0,0,0,0,0,0,0],"sum_hessian":[1.0794007E4,9.215667E3,1.5783396E3,3.660966E2,8.84957E3,1.7997652E2,1.398363E3,5.3469095E0,3.6074966E2,8.0514526E3,7.981181E2,1.21028854E2,5.894767E1,7.2270605E3,8.243919E2,1.5049303E2,6.476251E2,1.1626515E2,4.763701E0,2.276285E0,5.6671387E1],"tree_param":{"num_deleted":"0","num_feature":"20","num_nodes":"21","size_leaf_vector":"1"}},{"base_weights":[-8.043785E-2,-2.9151398E-1,1.1675485E0,6.0916353E-2,-4.5571622E-1,9.5157087E-1,5.97516E-2,-6.4492536E-1,6.1857905E-2,5.9539914E-2,7.588923E-1,-4.2728543E-2,6.512429E-2,-2.4384782E-2,4.8431948E-2],"categories":[],"categories_nodes":[],"categories_segments":[],"categories_sizes":[],"default_left":[0,0,0,0,0,0,0,0,0,0,0,0,0,0,0],"id":30,"left_children":[1,3,5,-1,7,9,-1,11,-1,-1,13,-1,-1,-1,-1],"loss_changes":[2.767571E3,2.2283816E3,7.8845215E0,0E0,2.5970166E3,7.2312775E0,0E0,2.9778665E3,0E0,0E0,2.6752682E1,0E0,0E0,0E0,0E0],"parents":[2147483647,0,0,1,1,2,2,4,4,5,5,7,7,10,10],"right_children":[2,4,6,-1,8,10,-1,12,-1,-1,14,-1,-1,-1,-1],"split_conditions":[2.3620913E0,-2.5362961E0,2.6527371E0,6.0916353E-2,2.506263E0,9E-1,5.97516E-2,2.3651881E0,6.1857905E-2,5.9539914E-2,1E0,-4.2728543E-2,6.512429E-2,-2.4384782E-2,4.8431948E-2],"split_indices":[17,18,17,0,19,1,0,16,0,0,1,0,0,0,0],"split_type":[0,0,0,0,0,0,0,0,0,0,0,0,0,0,0],"sum_hessian":[1.0504008E4,8.985095E3,1.518913E3,8.8069324E2,8.1044014E3,1.7548625E2,1.3434268E3,7.2902085E3,8.141927E2,7.59756E1,9.951064E1,6.582176E3,7.0803284E2,1.4141035E1,8.536961E1],"tree_param":{"num_deleted":"0","num_feature":"20","num_nodes":"15","size_leaf_vector":"1"}},{"base_weights":[-7.912858E-2,-2.866394E-1,1.1553314E0,2.1531034E0,-3.948326E-1,9.3476546E-1,5.9182007E-2,4.970452E-2,1.0830887E-1,1.0514472E0,-5.9676164E-1,5.8920123E-2,7.4100316E-1,6.026855E-2,1.5904708E-2,-4.0779024E-2,6.1140236E-2,-2.3546007E-2,4.7402617E-2],"categories":[],"categories_nodes":[],"categories_segments":[],"categories_sizes":[],"default_left":[0,0,0,0,0,0,0,0,0,0,0,0,0,0,0,0,0,0,0],"id":31,"left_children":[1,3,5,7,9,11,-1,-1,-1,13,15,-1,17,-1,-1,-1,-1,-1,-1],"loss_changes":[2.600324E3,2.294669E3,8.0147705E0,3.4403076E0,2.43096E3,7.1955566E0,0E0,0E0,0E0,1.1474292E2,2.9086682E3,0E0,2.5011993E1,0E0,0E0,0E0,0E0,0E0,0E0],"parents":[2147483647,0,0,1,1,2,2,3,3,4,4,5,5,9,9,10,10,12,12],"right_children":[2,4,6,8,10,12,-1,-1,-1,14,16,-1,18,-1,-1,-1,-1,-1,-1],"split_conditions":[2.3620913E0,-2.5122354E0,2.6527371E0,-2.7995222E0,-2.3867218E0,9E-1,5.9182007E-2,4.970452E-2,1.0830887E-1,-2.5362961E0,2.506263E0,5.8920123E-2,1E0,6.026855E-2,1.5904708E-2,-4.0779024E-2,6.1140236E-2,-2.3546007E-2,4.7402617E-2],"split_indices":[17,16,17,18,18,1,0,0,0,18,19,0,1,0,0,0,0,0,0],"split_type":[0,0,0,0,0,0,0,0,0,0,0,0,0,0,0,0,0,0,0],"sum_hessian":[1.0148728E4,8.688904E3,1.4598235E3,3.6815518E2,8.320749E3,1.6992026E2,1.2899032E3,4.9658537E0,3.6318933E2,1.0188948E3,7.3018545E3,7.302137E1,9.6898895E1,8.4160596E2,1.7728876E2,6.5184995E3,7.833551E2,1.3953028E1,8.294587E1],"tree_param":{"num_deleted":"0","num_feature":"20","num_nodes":"19","size_leaf_vector":"1"}},{"base_weights":[-7.761054E-2,-2.809168E-1,1.1438221E0,2.0350754E0,-3.8749316E-1,9.1846293E-1,5.8650233E-2,4.9029365E-2,1.0231097E-1,-5.638766E-1,1.2745916E0,1.0709685E0,5.9896225E-1,5.115046E-2,-3.9785355E-2,2.2254325E-2,7.3725976E-2,5.0613757E-2,1.006544E-1,-7.26838E-2,3.3342194E-2],"categories":[],"categories_nodes":[],"categories_segments":[],"categories_sizes":[],"default_left":[0,0,0,0,0,0,0,0,0,0,0,0,0,0,0,0,0,0,0,0,0],"id":32,"left_children":[1,3,5,7,9,11,-1,-1,-1,13,15,17,19,-1,-1,-1,-1,-1,-1,-1,-1],"loss_changes":[2.4421067E3,2.0817349E3,8.151733E0,2.3537598E0,2.3638079E3,7.422516E0,0E0,0E0,0E0,2.68198E3,1.2764624E2,4.086609E0,8.736187E0,0E0,0E0,0E0,0E0,0E0,0E0,0E0,0E0],"parents":[2147483647,0,0,1,1,2,2,3,3,4,4,5,5,9,9,10,10,11,11,12,12],"right_children":[2,4,6,8,10,12,-1,-1,-1,14,16,18,20,-1,-1,-1,-1,-1,-1,-1,-1],"split_conditions":[2.3620913E0,-2.5122354E0,2.6527371E0,-2.7995222E0,2.3651881E0,1.16E1,5.8650233E-2,4.9029365E-2,1.0231097E-1,-2.3867218E0,2.5536208E0,2.8422358E0,1.37E1,5.115046E-2,-3.9785355E-2,2.2254325E-2,7.3725976E-2,5.0613757E-2,1.006544E-1,-7.26838E-2,3.3342194E-2],"split_indices":[17,16,17,18,16,4,0,0,0,18,16,19,13,0,0,0,0,0,0,0,0],"split_type":[0,0,0,0,0,0,0,0,0,0,0,0,0,0,0,0,0,0,0,0,0],"sum_hessian":[9.832027E3,8.429685E3,1.4023428E3,3.700521E2,8.0596323E3,1.6449777E2,1.237845E3,4.8004956E0,3.6525162E2,7.286985E3,7.7264734E2,1.0975635E2,5.4741425E1,9.2843176E2,6.358553E3,1.506837E2,6.219636E2,1.05272415E2,4.4839325E0,1.0988554E0,5.364257E1],"tree_param":{"num_deleted":"0","num_feature":"20","num_nodes":"21","size_leaf_vector":"1"}},{"base_weights":[-7.584804E-2,-2.7417612E-1,1.1319518E0,-4.107652E-1,1.441328E0,8.959029E-1,5.815319E-2,-5.9171873E-1,6.0942423E-2,5.6392606E-2,7.3063895E-2,5.7878822E-2,6.941088E-1,5.0146032E-2,-4.189809E-2,-2.4514865E-2,4.555518E-2],"categories":[],"categories_nodes":[],"categories_segments":[],"categories_sizes":[],"default_left":[0,0,0,0,0,0,0,0,0,0,0,0,0,0,0,0,0],"id":33,"left_children":[1,3,5,7,9,11,-1,13,-1,-1,-1,-1,15,-1,-1,-1,-1],"loss_changes":[2.2905173E3,1.9250833E3,8.862793E0,2.2442588E3,2.1412354E0,7.71994E0,0E0,2.690026E3,0E0,0E0,0E0,0E0,2.4511303E1,0E0,0E0,0E0,0E0],"parents":[2147483647,0,0,1,1,2,2,3,3,4,4,5,5,7,7,12,12],"right_children":[2,4,6,8,10,12,-1,14,-1,-1,-1,-1,16,-1,-1,-1,-1],"split_conditions":[2.3620913E0,2.5536208E0,2.6527371E0,2.506263E0,-2.5362961E0,9E-1,5.815319E-2,-2.3867218E0,6.0942423E-2,5.6392606E-2,7.3063895E-2,5.7878822E-2,1E0,5.0146032E-2,-4.189809E-2,-2.4514865E-2,4.555518E-2],"split_indices":[17,16,17,19,18,1,0,18,0,0,0,0,1,0,0,0,0],"split_type":[0,0,0,0,0,0,0,0,0,0,0,0,0,0,0,0,0],"sum_hessian":[9.559829E3,8.212121E3,1.3477074E3,7.6071943E3,6.04927E2,1.6041586E2,1.1872915E3,6.8474814E3,7.597127E2,3.963687E1,5.652901E2,6.7782936E1,9.2632935E1,9.1553265E2,5.9319487E3,1.4148388E1,7.848454E1],"tree_param":{"num_deleted":"0","num_feature":"20","num_nodes":"17","size_leaf_vector":"1"}},{"base_weights":[-7.460783E-2,-2.6959583E-1,1.1216722E0,1.9748621E0,-3.7952006E-1,8.8052714E-1,5.7688113E-2,4.7715142E-2,9.923645E-2,-5.520394E-1,1.2186702E0,5.7360034E-2,6.7773384E-1,-3.803115E-2,6.02929E-2,2.2947576E-2,7.053055E-2,-2.3671923E-2,4.459562E-2],"categories":[],"categories_nodes":[],"categories_segments":[],"categories_sizes":[],"default_left":[0,0,0,0,0,0,0,0,0,0,0,0,0,0,0,0,0,0,0],"id":34,"left_children":[1,3,5,7,9,11,-1,-1,-1,13,15,-1,17,-1,-1,-1,-1,-1,-1],"loss_changes":[2.15452E3,1.9601343E3,9.001587E0,1.8415527E0,2.0883525E3,7.672867E0,0E0,0E0,0E0,2.507004E3,1.0697229E2,0E0,2.290908E1,0E0,0E0,0E0,0E0,0E0,0E0],"parents":[2147483647,0,0,1,1,2,2,3,3,4,4,5,5,9,9,10,10,12,12],"right_children":[2,4,6,8,10,12,-1,-1,-1,14,16,-1,18,-1,-1,-1,-1,-1,-1],"split_conditions":[2.3620913E0,-2.5122354E0,2.6527371E0,-2.7995222E0,2.3651881E0,9E-1,5.7688113E-2,4.7715142E-2,9.923645E-2,2.506263E0,2.5536208E0,5.7360034E-2,1E0,-3.803115E-2,6.02929E-2,2.2947576E-2,7.053055E-2,-2.3671923E-2,4.459562E-2],"split_indices":[17,16,17,18,16,1,0,0,0,19,16,0,1,0,0,0,0,0,0],"split_type":[0,0,0,0,0,0,0,0,0,0,0,0,0,0,0,0,0,0,0],"sum_hessian":[9.234253E3,7.940727E3,1.2935265E3,3.6995404E2,7.570773E3,1.5525783E2,1.1382687E3,4.4782104E0,3.6547583E2,6.833747E3,7.370257E2,6.5054306E1,9.020353E1,6.1094023E3,7.2434485E2,1.4933507E2,5.876906E2,1.3960075E1,7.6243454E1],"tree_param":{"num_deleted":"0","num_feature":"20","num_nodes":"19","size_leaf_vector":"1"}},{"base_weights":[-7.282567E-2,-2.629177E-1,1.1119286E0,1.8127648E0,-3.746995E-1,8.654995E-1,5.7252496E-2,1.8828621E0,7.8588533E-1,5.9017565E-2,-5.5615634E-1,1.0307674E0,5.288995E-1,4.7096267E-2,9.457136E-2,3.5373506E-1,-3.8364504E-3,-3.8426585E-2,5.9632402E-2,4.8347425E-2,1.0034406E-1,-5.4926883E-2,3.1019641E-2],"categories":[],"categories_nodes":[],"categories_segments":[],"categories_sizes":[],"default_left":[0,0,0,0,0,0,0,0,0,0,0,0,0,0,0,0,0,0,0,0,0,0,0],"id":35,"left_children":[1,3,5,7,9,11,-1,13,15,-1,17,19,21,-1,-1,-1,-1,-1,-1,-1,-1,-1,-1],"loss_changes":[2.0230936E3,1.7967048E3,9.1467285E0,2.7005493E1,2.073504E3,7.8690033E0,0E0,1.1982422E0,1.4703333E2,0E0,2.4443901E3,4.3132935E0,8.403883E0,0E0,0E0,0E0,0E0,0E0,0E0,0E0,0E0,0E0,0E0],"parents":[2147483647,0,0,1,1,2,2,3,3,4,4,5,5,7,7,8,8,10,10,11,11,12,12],"right_children":[2,4,6,8,10,12,-1,14,16,-1,18,20,22,-1,-1,-1,-1,-1,-1,-1,-1,-1,-1],"split_conditions":[2.3620913E0,-2.3151352E0,2.6527371E0,-2.5122354E0,-2.5362961E0,1.16E1,5.7252496E-2,-2.7995222E0,-1E0,5.9017565E-2,2.506263E0,2.8422358E0,1.69E1,4.7096267E-2,9.457136E-2,3.5373506E-1,-3.8364504E-3,-3.8426585E-2,5.9632402E-2,4.8347425E-2,1.0034406E-1,-5.4926883E-2,3.1019641E-2],"split_indices":[17,16,17,16,18,4,0,18,5,0,19,19,13,0,0,0,0,0,0,0,0,0,0],"split_type":[0,0,0,0,0,0,0,0,0,0,0,0,0,0,0,0,0,0,0,0,0,0,0],"sum_hessian":[8.980751E3,7.739705E3,1.2410459E3,3.9472974E2,7.3449756E3,1.5025455E2,1.0907914E3,3.68726E2,2.6003735E1,7.6694006E2,6.5780356E3,9.93917E1,5.0862846E1,4.327179E0,3.6439883E2,2.2679527E0,2.373578E1,5.8662026E3,7.1183295E2,9.5160645E1,4.2310557E0,2.121416E0,4.8741432E1],"tree_param":{"num_deleted":"0","num_feature":"20","num_nodes":"23","size_leaf_vector":"1"}},{"base_weights":[-7.126377E-2,-2.5730243E-1,1.1015915E0,-4.138688E-1,1.209383E0,8.4405124E-1,5.6844093E-2,5.8594383E-2,-5.96808E-1,4.696963E-1,1.3983303E0,5.6491286E-2,6.337434E-1,-4.08126E-2,5.911548E-2,1.5351308E-2,5.3293504E-2,5.4896872E-2,7.076939E-2,-2.454224E-2,4.287696E-2],"categories":[],"categories_nodes":[],"categories_segments":[],"categories_sizes":[],"default_left":[0,0,0,0,0,0,0,0,0,0,0,0,0,0,0,0,0,0,0,0,0],"id":36,"left_children":[1,3,5,7,9,11,-1,-1,13,15,17,-1,19,-1,-1,-1,-1,-1,-1,-1,-1],"loss_changes":[1.9005002E3,1.7267228E3,9.878174E0,1.9713213E3,1.007146E2,8.154274E0,0E0,0E0,2.3790032E3,1.413089E1,1.4036865E0,0E0,2.239215E1,0E0,0E0,0E0,0E0,0E0,0E0,0E0,0E0],"parents":[2147483647,0,0,1,1,2,2,3,3,4,4,5,5,8,8,9,9,10,10,12,12],"right_children":[2,4,6,8,10,12,-1,-1,14,16,18,-1,20,-1,-1,-1,-1,-1,-1,-1,-1],"split_conditions":[2.3620913E0,2.3651881E0,2.6527371E0,-2.5362961E0,2.5536208E0,9E-1,5.6844093E-2,5.8594383E-2,2.506263E0,1E-1,-2.5362961E0,5.6491286E-2,1E0,-4.08126E-2,5.911548E-2,1.5351308E-2,5.3293504E-2,5.4896872E-2,7.076939E-2,-2.454224E-2,4.287696E-2],"split_indices":[17,16,17,18,16,1,0,0,19,9,18,0,1,0,0,0,0,0,0,0,0],"split_type":[0,0,0,0,0,0,0,0,0,0,0,0,0,0,0,0,0,0,0,0,0],"sum_hessian":[8.707744E3,7.5162886E3,1.1914553E3,6.7919736E3,7.2431476E2,1.465906E2,1.0448647E3,7.019464E2,6.0900273E3,1.4808421E2,5.762306E2,6.029168E1,8.629892E1,5.4218184E3,6.6820905E2,1.1753025E2,3.0553959E1,3.447474E1,5.4175586E2,1.412527E1,7.217365E1],"tree_param":{"num_deleted":"0","num_feature":"20","num_nodes":"21","size_leaf_vector":"1"}},{"base_weights":[-7.002264E-2,-2.5286022E-1,1.0927801E0,1.7701699E0,-3.6866927E-1,8.296989E-1,5.646087E-2,1.8369851E0,7.862833E-1,-5.461008E-1,1.1775167E0,5.6050617E-2,6.185816E-1,4.575047E-2,9.223045E-2,1.8139444E-1,-3.0856369E-2,4.904785E-2,-3.9275967E-2,2.2240976E-2,6.85681E-2,-2.36979E-2,4.1966744E-2],"categories":[],"categories_nodes":[],"categories_segments":[],"categories_sizes":[],"default_left":[0,0,0,0,0,0,0,0,0,0,0,0,0,0,0,0,0,0,0,0,0,0,0],"id":37,"left_children":[1,3,5,7,9,11,-1,13,15,17,19,-1,21,-1,-1,-1,-1,-1,-1,-1,-1,-1,-1],"loss_changes":[1.7890001E3,1.7041531E3,1.0023071E1,2.4447998E1,1.8876188E3,8.092766E0,0E0,8.9941406E-1,1.0909531E2,2.256858E3,9.999921E1,0E0,2.0913643E1,0E0,0E0,0E0,0E0,0E0,0E0,0E0,0E0,0E0,0E0],"parents":[2147483647,0,0,1,1,2,2,3,3,4,4,5,5,7,7,8,8,9,9,10,10,12,12],"right_children":[2,4,6,8,10,12,-1,14,16,18,20,-1,22,-1,-1,-1,-1,-1,-1,-1,-1,-1,-1],"split_conditions":[2.3620913E0,-2.3151352E0,2.6527371E0,-2.5122354E0,2.3651881E0,9E-1,5.646087E-2,-2.7995222E0,-1.8E0,-2.3867218E0,2.5536208E0,5.6050617E-2,1E0,4.575047E-2,9.223045E-2,1.8139444E-1,-3.0856369E-2,4.904785E-2,-3.9275967E-2,2.2240976E-2,6.85681E-2,-2.36979E-2,4.1966744E-2],"split_indices":[17,16,17,16,16,1,0,18,0,18,16,0,1,0,0,0,0,0,0,0,0,0,0],"split_type":[0,0,0,0,0,0,0,0,0,0,0,0,0,0,0,0,0,0,0,0,0,0,0],"sum_hessian":[8.412405E3,7.2700537E3,1.1423511E3,3.9286908E2,6.8771846E3,1.4186214E2,1.00048895E3,3.670742E2,2.5794897E1,6.1698184E3,7.0736646E2,5.7798344E1,8.40638E1,4.0029297E0,3.6307126E2,8.003822E0,1.7791075E1,8.3580365E2,5.3340146E3,1.4868004E2,5.586864E2,1.3937604E1,7.012619E1],"tree_param":{"num_deleted":"0","num_feature":"20","num_nodes":"23","size_leaf_vector":"1"}},{"base_weights":[-6.842023E-2,-2.4680611E-1,1.0843753E0,1.6941264E0,-3.6022437E-1,8.1558365E-1,5.6100935E-2,1.7631919E0,7.240332E-1,-5.32407E-1,5.8880687E-2,9.9417794E-1,4.624093E-1,4.5176703E-2,8.8495284E-2,2.474711E-1,-3.591394E-3,4.8489325E-2,-3.9100587E-2,4.6238434E-2,1.0004973E-1,-3.2687162E-3,3.958381E-2],"categories":[],"categories_nodes":[],"categories_segments":[],"categories_sizes":[],"default_left":[0,0,0,0,0,0,0,0,0,0,0,0,0,0,0,0,0,0,0,0,0,0,0],"id":38,"left_children":[1,3,5,7,9,11,-1,13,15,17,-1,19,21,-1,-1,-1,-1,-1,-1,-1,-1,-1,-1],"loss_changes":[1.681793E3,1.5596206E3,1.0173828E1,2.4931396E1,1.7725498E3,8.262955E0,0E0,5.0439453E-1,9.348778E1,2.257505E3,0E0,4.5071793E0,8.447914E0,0E0,0E0,0E0,0E0,0E0,0E0,0E0,0E0,0E0,0E0],"parents":[2147483647,0,0,1,1,2,2,3,3,4,4,5,5,7,7,8,8,9,9,11,11,12,12],"right_children":[2,4,6,8,10,12,-1,14,16,18,-1,20,22,-1,-1,-1,-1,-1,-1,-1,-1,-1,-1],"split_conditions":[2.3620913E0,-2.3151352E0,2.6527371E0,-2.5122354E0,2.506263E0,1.16E1,5.6100935E-2,-2.7995222E0,-1E0,-2.3867218E0,5.8880687E-2,2.8422358E0,3.13E1,4.5176703E-2,8.8495284E-2,2.474711E-1,-3.591394E-3,4.8489325E-2,-3.9100587E-2,4.6238434E-2,1.0004973E-1,-3.2687162E-3,3.958381E-2],"split_indices":[17,16,17,16,19,4,0,18,5,18,0,19,3,0,0,0,0,0,0,0,0,0,0],"split_type":[0,0,0,0,0,0,0,0,0,0,0,0,0,0,0,0,0,0,0,0,0,0,0],"sum_hessian":[8.1759365E3,7.080995E3,1.0949415E3,3.9016382E2,6.6908315E3,1.3729062E2,9.5765094E2,3.6346915E2,2.6694675E1,6.0177173E3,6.731142E2,8.9976204E1,4.731442E1,3.8672276E0,3.5960193E2,3.403872E0,2.3290804E1,8.570227E2,5.1606943E3,8.5968124E1,4.0080795E0,1.8485449E1,2.8828972E1],"tree_param":{"num_deleted":"0","num_feature":"20","num_nodes":"23","size_leaf_vector":"1"}},{"base_weights":[-6.6988274E-2,-2.416271E-1,1.0751354E0,-4.006653E-1,1.1700661E0,7.9483545E-1,5.576263E-2,-5.796982E-1,5.8413893E-2,4.5689872E-1,1.360793E0,5.53164E-2,5.7704103E-1,4.7062933E-2,-4.1724887E-2,-4.3569796E-2,2.627407E-2,5.3681303E-2,6.876941E-2,-2.4535285E-2,4.036061E-2],"categories":[],"categories_nodes":[],"categories_segments":[],"categories_sizes":[],"default_left":[0,0,0,0,0,0,0,0,0,0,0,0,0,0,0,0,0,0,0,0,0],"id":39,"left_children":[1,3,5,7,9,11,-1,13,-1,15,17,-1,19,-1,-1,-1,-1,-1,-1,-1,-1],"loss_changes":[1.5812897E3,1.5442482E3,1.0937134E1,1.7367748E3,9.4112E1,8.528824E0,0E0,2.1509592E3,0E0,1.3982714E1,8.244629E-1,0E0,2.0454044E1,0E0,0E0,0E0,0E0,0E0,0E0,0E0,0E0],"parents":[2147483647,0,0,1,1,2,2,3,3,4,4,5,5,7,7,9,9,10,10,12,12],"right_children":[2,4,6,8,10,12,-1,14,-1,16,18,-1,20,-1,-1,-1,-1,-1,-1,-1,-1],"split_conditions":[2.3620913E0,2.3651881E0,2.6527371E0,2.506263E0,2.5536208E0,9E-1,5.576263E-2,-2.3867218E0,5.8413893E-2,1.23E1,-2.5362961E0,5.53164E-2,1E0,4.7062933E-2,-4.1724887E-2,-4.3569796E-2,2.627407E-2,5.3681303E-2,6.876941E-2,-2.4535285E-2,4.036061E-2],"split_indices":[17,16,17,19,16,1,0,18,0,0,18,0,1,0,0,0,0,0,0,0,0],"split_type":[0,0,0,0,0,0,0,0,0,0,0,0,0,0,0,0,0,0,0,0,0],"sum_hessian":[7.925585E3,6.8751187E3,1.0504661E3,6.1796494E3,6.9546936E2,1.341273E2,9.163388E2,5.5472773E3,6.3237195E2,1.4746443E2,5.4800494E2,5.3512833E1,8.061448E1,7.9558044E2,4.7516973E3,6.665361E0,1.4079907E2,3.0111351E1,5.1789355E2,1.4095339E1,6.6519135E1],"tree_param":{"num_deleted":"0","num_feature":"20","num_nodes":"21","size_leaf_vector":"1"}},{"base_weights":[-6.588584E-2,-2.3756182E-1,1.067435E0,1.6623815E0,-3.5533231E-1,7.8122413E-1,5.544438E-2,1.7285005E0,7.2916657E-1,-5.3726923E-1,1.140466E0,5.4936625E-2,5.6290597E-1,4.4032156E-2,8.67284E-2,1.4532697E-1,-2.9800097E-2,-3.719838E-2,5.7928514E-2,2.1611301E-2,6.684757E-2,-2.3690615E-2,3.9485794E-2],"categories":[],"categories_nodes":[],"categories_segments":[],"categories_sizes":[],"default_left":[0,0,0,0,0,0,0,0,0,0,0,0,0,0,0,0,0,0,0,0,0,0,0],"id":40,"left_children":[1,3,5,7,9,11,-1,13,15,17,19,-1,21,-1,-1,-1,-1,-1,-1,-1,-1,-1,-1],"loss_changes":[1.4898416E3,1.4885043E3,1.1085205E1,2.269934E1,1.7048604E3,8.449959E0,0E0,3.3410645E-1,8.085303E1,1.9581874E3,9.396997E1,0E0,1.908444E1,0E0,0E0,0E0,0E0,0E0,0E0,0E0,0E0,0E0,0E0],"parents":[2147483647,0,0,1,1,2,2,3,3,4,4,5,5,7,7,8,8,9,9,10,10,12,12],"right_children":[2,4,6,8,10,12,-1,14,16,18,20,-1,22,-1,-1,-1,-1,-1,-1,-1,-1,-1,-1],"split_conditions":[2.3620913E0,-2.3151352E0,2.6527371E0,-2.5122354E0,2.3651881E0,9E-1,5.544438E-2,-2.7995222E0,-1.8E0,2.506263E0,2.5536208E0,5.4936625E-2,1E0,4.4032156E-2,8.67284E-2,1.4532697E-1,-2.9800097E-2,-3.719838E-2,5.7928514E-2,2.1611301E-2,6.684757E-2,-2.3690615E-2,3.9485794E-2],"split_indices":[17,16,17,16,16,1,0,18,0,19,16,0,1,0,0,0,0,0,0,0,0,0,0],"split_type":[0,0,0,0,0,0,0,0,0,0,0,0,0,0,0,0,0,0,0,0,0,0,0],"sum_hessian":[7.6550317E3,6.6486772E3,1.0063544E3,3.873064E2,6.261371E3,1.2982411E2,8.765303E2,3.608852E2,2.642119E1,5.582947E3,6.7842413E2,5.1252686E1,7.857143E1,3.6026523E0,3.5728256E2,9.544829E0,1.6876362E1,4.9768965E3,6.060505E2,1.4803291E2,5.3039124E2,1.3908494E1,6.466293E1],"tree_param":{"num_deleted":"0","num_feature":"20","num_nodes":"23","size_leaf_vector":"1"}},{"base_weights":[-6.426565E-2,-2.3166017E-1,1.0600419E0,5.7160046E-2,-3.867503E-1,7.6777136E-1,5.5144794E-2,1.607014E0,-5.246537E-1,9.602087E-1,3.99341E-1,8.3662145E-2,3.036584E-2,-3.6903612E-2,5.565716E-2,4.423858E-2,9.9674456E-2,-6.611654E-3,3.7117638E-2],"categories":[],"categories_nodes":[],"categories_segments":[],"categories_sizes":[],"default_left":[0,0,0,0,0,0,0,0,0,0,0,0,0,0,0,0,0,0,0],"id":41,"left_children":[1,3,5,-1,7,9,-1,11,13,15,17,-1,-1,-1,-1,-1,-1,-1,-1],"loss_changes":[1.4012458E3,1.3822021E3,1.1238281E1,0E0,1.6021523E3,8.597733E0,0E0,2.3945984E1,1.905112E3,4.66687E0,8.335163E0,0E0,0E0,0E0,0E0,0E0,0E0,0E0,0E0],"parents":[2147483647,0,0,1,1,2,2,4,4,5,5,7,7,8,8,9,9,10,10],"right_children":[2,4,6,-1,8,10,-1,12,14,16,18,-1,-1,-1,-1,-1,-1,-1,-1],"split_conditions":[2.3620913E0,-2.5362961E0,2.6527371E0,5.7160046E-2,-2.3151352E0,1.16E1,5.5144794E-2,-2.5122354E0,2.3651881E0,2.8422358E0,3.13E1,8.3662145E-2,3.036584E-2,-3.6903612E-2,5.565716E-2,4.423858E-2,9.9674456E-2,-6.611654E-3,3.7117638E-2],"split_indices":[17,18,17,0,16,4,0,16,16,19,3,0,0,0,0,0,0,0,0],"split_type":[0,0,0,0,0,0,0,0,0,0,0,0,0,0,0,0,0,0,0],"sum_hessian":[7.443094E3,6.4792183E3,9.63876E2,6.561483E2,5.8230703E3,1.2567437E2,8.382016E2,3.7602097E2,5.4470493E3,8.1499565E1,4.4174805E1,3.5202588E2,2.3995087E1,4.819569E3,6.2748047E2,7.76843E1,3.815259E0,1.7566322E1,2.6608484E1],"tree_param":{"num_deleted":"0","num_feature":"20","num_nodes":"19","size_leaf_vector":"1"}},{"base_weights":[-6.267384E-2,-2.2588712E-1,1.0516022E0,5.6754675E-2,-3.7647375E-1,7.475424E-1,5.486256E-2,-5.604159E-1,5.7712626E-2,5.4308236E-2,5.23353E-1,-3.907289E-2,5.3936105E-2,-2.4482733E-2,3.795659E-2],"categories":[],"categories_nodes":[],"categories_segments":[],"categories_sizes":[],"default_left":[0,0,0,0,0,0,0,0,0,0,0,0,0,0,0],"id":42,"left_children":[1,3,5,-1,7,9,-1,11,-1,-1,13,-1,-1,-1,-1],"loss_changes":[1.3170404E3,1.2949299E3,1.2022034E1,0E0,1.6021404E3,8.83847E0,0E0,1.8408158E3,0E0,0E0,1.8639513E1,0E0,0E0,0E0,0E0],"parents":[2147483647,0,0,1,1,2,2,4,4,5,5,7,7,10,10],"right_children":[2,4,6,-1,8,10,-1,12,-1,-1,14,-1,-1,-1,-1],"split_conditions":[2.3620913E0,-2.5362961E0,2.6527371E0,5.6754675E-2,2.506263E0,9E-1,5.486256E-2,2.3651881E0,5.7712626E-2,5.4308236E-2,1E0,-3.907289E-2,5.3936105E-2,-2.4482733E-2,3.795659E-2],"split_indices":[17,18,17,0,19,1,0,16,0,0,1,0,0,0,0],"split_type":[0,0,0,0,0,0,0,0,0,0,0,0,0,0,0],"sum_hessian":[7.239565E3,6.3153267E3,9.242385E2,6.2849945E2,5.686827E3,1.2291305E2,8.013255E2,5.077335E3,6.0949225E2,4.74294E1,7.548365E1,4.4744653E3,6.0286957E2,1.4048496E1,6.143515E1],"tree_param":{"num_deleted":"0","num_feature":"20","num_nodes":"15","size_leaf_vector":"1"}},{"base_weights":[-6.150447E-2,-2.2170773E-1,1.0447356E0,1.5728375E0,-3.4046313E-1,7.3447955E-1,5.4596495E-2,8.194415E-2,6.7766136E-1,9.3239135E-1,-5.383076E-1,5.397606E-2,5.1013577E-1,1.2623633E-1,-3.018613E-2,5.6371775E-2,1.3423853E-2,-3.8141754E-2,5.727261E-2,-2.3638915E-2,3.710826E-2],"categories":[],"categories_nodes":[],"categories_segments":[],"categories_sizes":[],"default_left":[0,0,0,0,0,0,0,0,0,0,0,0,0,0,0,0,0,0,0,0,0],"id":43,"left_children":[1,3,5,7,9,11,-1,-1,13,15,17,-1,19,-1,-1,-1,-1,-1,-1,-1,-1],"loss_changes":[1.2411084E3,1.3041162E3,1.2169434E1,2.1346497E1,1.4454966E3,8.739738E0,0E0,0E0,6.733066E1,9.970062E1,1.8785623E3,0E0,1.7370537E1,0E0,0E0,0E0,0E0,0E0,0E0,0E0,0E0],"parents":[2147483647,0,0,1,1,2,2,3,3,4,4,5,5,8,8,9,9,10,10,12,12],"right_children":[2,4,6,8,10,12,-1,-1,14,16,18,-1,20,-1,-1,-1,-1,-1,-1,-1,-1],"split_conditions":[2.3620913E0,-2.3151352E0,2.6527371E0,-2.5122354E0,-2.3867218E0,9E-1,5.4596495E-2,8.194415E-2,-1.8E0,-2.5362961E0,2.506263E0,5.397606E-2,1E0,1.2623633E-1,-3.018613E-2,5.6371775E-2,1.3423853E-2,-3.8141754E-2,5.727261E-2,-2.3638915E-2,3.710826E-2],"split_indices":[17,16,17,16,18,1,0,0,0,18,19,0,1,0,0,0,0,0,0,0,0],"split_type":[0,0,0,0,0,0,0,0,0,0,0,0,0,0,0,0,0,0,0,0,0],"sum_hessian":[7.0007715E3,6.1158823E3,8.848891E2,3.7884268E2,5.7370396E3,1.1901923E2,7.658699E2,3.5203873E2,2.6803967E1,7.7127075E2,4.965769E3,4.539289E1,7.362634E1,1.0581226E1,1.622274E1,5.955983E2,1.7567244E2,4.3819834E3,5.837856E2,1.3862975E1,5.976337E1],"tree_param":{"num_deleted":"0","num_feature":"20","num_nodes":"21","size_leaf_vector":"1"}},{"base_weights":[-6.019494E-2,-2.1704537E-1,1.0380964E0,-3.533979E-1,6.470209E-2,7.2152054E-1,5.4345507E-2,1.5192261E0,-4.9128413E-1,9.2813516E-1,3.389782E-1,7.9425685E-2,3.1347718E-2,-3.4532346E-2,5.6897994E-2,4.231308E-2,9.915544E-2,-4.988743E-2,2.3830479E-2],"categories":[],"categories_nodes":[],"categories_segments":[],"categories_sizes":[],"default_left":[0,0,0,0,0,0,0,0,0,0,0,0,0,0,0,0,0,0,0],"id":44,"left_children":[1,3,5,7,-1,9,-1,11,13,15,17,-1,-1,-1,-1,-1,-1,-1,-1],"loss_changes":[1.1690656E3,1.2239177E3,1.2321228E1,1.4072834E3,0E0,8.875366E0,0E0,2.2115845E1,1.6490195E3,4.792984E0,8.267147E0,0E0,0E0,0E0,0E0,0E0,0E0,0E0,0E0],"parents":[2147483647,0,0,1,1,2,2,3,3,5,5,7,7,8,8,9,9,10,10],"right_children":[2,4,6,8,-1,10,-1,12,14,16,18,-1,-1,-1,-1,-1,-1,-1,-1],"split_conditions":[2.3620913E0,2.5536208E0,2.6527371E0,-2.3151352E0,6.470209E-2,1.16E1,5.4345507E-2,-2.5122354E0,2.506263E0,2.8422358E0,1.22E1,7.9425685E-2,3.1347718E-2,-3.4532346E-2,5.6897994E-2,4.231308E-2,9.915544E-2,-4.988743E-2,2.3830479E-2],"split_indices":[17,16,17,16,0,4,0,16,19,19,4,0,0,0,0,0,0,0,0],"split_type":[0,0,0,0,0,0,0,0,0,0,0,0,0,0,0,0,0,0,0],"sum_hessian":[6.7840312E3,5.936958E3,8.470732E2,5.4462803E3,4.906775E2,1.1527179E2,7.318014E2,3.7283362E2,5.073447E3,7.3920456E1,4.1351334E1,3.4524408E2,2.7589521E1,4.5208306E3,5.5261615E2,7.026922E1,3.6512325E0,3.276764E0,3.807457E1],"tree_param":{"num_deleted":"0","num_feature":"20","num_nodes":"19","size_leaf_vector":"1"}},{"base_weights":[-5.8609605E-2,-2.1147674E-1,1.030168E0,5.6222957E-2,-3.6311758E-1,7.0138544E-1,5.4108586E-2,-5.463398E-1,1.057837E0,5.344194E-2,4.712719E-1,-3.811595E-2,5.6507785E-2,1.6642792E-2,6.427626E-2,-2.4391038E-2,3.5586424E-2],"categories":[],"categories_nodes":[],"categories_segments":[],"categories_sizes":[],"default_left":[0,0,0,0,0,0,0,0,0,0,0,0,0,0,0,0,0],"id":45,"left_children":[1,3,5,-1,7,9,-1,11,13,-1,15,-1,-1,-1,-1,-1,-1],"loss_changes":[1.0989985E3,1.1733151E3,1.3140747E1,0E0,1.3544868E3,9.1243515E0,0E0,1.6690134E3,9.767297E1,0E0,1.6907276E1,0E0,0E0,0E0,0E0,0E0,0E0],"parents":[2147483647,0,0,1,1,2,2,4,4,5,5,7,7,8,8,10,10],"right_children":[2,4,6,-1,8,10,-1,12,14,-1,16,-1,-1,-1,-1,-1,-1],"split_conditions":[2.3620913E0,-2.5362961E0,2.6527371E0,5.6222957E-2,2.3651881E0,9E-1,5.4108586E-2,2.506263E0,2.5536208E0,5.344194E-2,1E0,-3.811595E-2,5.6507785E-2,1.6642792E-2,6.427626E-2,-2.4391038E-2,3.5586424E-2],"split_indices":[17,18,17,0,16,1,0,19,16,0,1,0,0,0,0,0,0],"split_type":[0,0,0,0,0,0,0,0,0,0,0,0,0,0,0,0,0],"sum_hessian":[6.6007285E3,5.7887754E3,8.11953E2,5.894431E2,5.1993325E3,1.1286615E2,6.9908685E2,4.606032E3,5.9330023E2,4.205939E1,7.0806755E1,4.0808506E3,5.2518164E2,1.4238727E2,4.50913E2,1.3987407E1,5.681935E1],"tree_param":{"num_deleted":"0","num_feature":"20","num_nodes":"17","size_leaf_vector":"1"}},{"base_weights":[-5.746082E-2,-2.0751779E-1,1.0239133E0,1.4976768E0,-3.2775998E-1,6.887509E-1,5.3884804E-2,7.824287E-2,6.3038987E-1,9.272858E-1,-5.32686E-1,5.314644E-2,4.5893735E-1,1.7328112E-1,-4.7655213E-3,5.5873573E-2,1.6044177E-2,-3.802868E-2,5.164556E-2,-2.3549113E-2,3.4760006E-2],"categories":[],"categories_nodes":[],"categories_segments":[],"categories_sizes":[],"default_left":[0,0,0,0,0,0,0,0,0,0,0,0,0,0,0,0,0,0,0,0,0],"id":46,"left_children":[1,3,5,7,9,11,-1,-1,13,15,17,-1,19,-1,-1,-1,-1,-1,-1,-1,-1],"loss_changes":[1.0360631E3,1.1500363E3,1.3282776E1,2.0541504E1,1.3476787E3,9.001984E0,0E0,0E0,5.842983E1,8.447687E1,1.6075326E3,0E0,1.5734817E1,0E0,0E0,0E0,0E0,0E0,0E0,0E0,0E0],"parents":[2147483647,0,0,1,1,2,2,3,3,4,4,5,5,8,8,9,9,10,10,12,12],"right_children":[2,4,6,8,10,12,-1,-1,14,16,18,-1,20,-1,-1,-1,-1,-1,-1,-1,-1],"split_conditions":[2.3620913E0,-2.3151352E0,2.6527371E0,-2.5122354E0,-2.3867218E0,9E-1,5.3884804E-2,7.824287E-2,-1E0,-2.5362961E0,2.3651881E0,5.314644E-2,1E0,1.7328112E-1,-4.7655213E-3,5.5873573E-2,1.6044177E-2,-3.802868E-2,5.164556E-2,-2.3549113E-2,3.4760006E-2],"split_indices":[17,16,17,16,18,1,0,0,5,18,16,0,1,0,0,0,0,0,0,0,0],"split_type":[0,0,0,0,0,0,0,0,0,0,0,0,0,0,0,0,0,0,0,0,0],"sum_hessian":[6.382591E3,5.605545E3,7.7704584E2,3.684847E2,5.23706E3,1.0935792E2,6.676879E2,3.412472E2,2.7237524E1,7.345947E2,4.5024653E3,4.0230404E1,6.912751E1,4.781432E0,2.245609E1,5.585684E2,1.7602629E2,3.9308125E3,5.7165295E2,1.38036175E1,5.5323895E1],"tree_param":{"num_deleted":"0","num_feature":"20","num_nodes":"21","size_leaf_vector":"1"}},{"base_weights":[-5.608393E-2,-2.0253034E-1,1.0178213E0,1.452334E0,-3.200945E-1,6.761844E-1,5.3673305E-2,7.610856E-2,5.909799E-1,9.1217744E-1,-5.197508E-1,8.8546276E-1,2.5707245E-1,1.0323753E-1,-3.0229663E-2,5.554542E-2,1.526454E-2,-3.724652E-2,5.634613E-2,3.9989572E-2,9.845956E-2,-7.807987E-2,1.8130317E-2],"categories":[],"categories_nodes":[],"categories_segments":[],"categories_sizes":[],"default_left":[0,0,0,0,0,0,0,0,0,0,0,0,0,0,0,0,0,0,0,0,0,0,0],"id":47,"left_children":[1,3,5,7,9,11,-1,-1,13,15,17,19,21,-1,-1,-1,-1,-1,-1,-1,-1,-1,-1],"loss_changes":[9.757591E2,1.0626271E3,1.3428345E1,2.0894775E1,1.254789E3,9.156319E0,0E0,0E0,5.2005875E1,8.5438416E1,1.6278932E3,5.012108E0,7.6753645E0,0E0,0E0,0E0,0E0,0E0,0E0,0E0,0E0,0E0,0E0],"parents":[2147483647,0,0,1,1,2,2,3,3,4,4,5,5,8,8,9,9,10,10,11,11,12,12],"right_children":[2,4,6,8,10,12,-1,-1,14,16,18,20,22,-1,-1,-1,-1,-1,-1,-1,-1,-1,-1],"split_conditions":[2.3620913E0,-2.3151352E0,2.6527371E0,-2.5122354E0,-2.3867218E0,1.21E1,5.3673305E-2,7.610856E-2,-1.8E0,-2.5362961E0,2.506263E0,2.8422358E0,1.44E1,1.0323753E-1,-3.0229663E-2,5.554542E-2,1.526454E-2,-3.724652E-2,5.634613E-2,3.9989572E-2,9.845956E-2,-7.807987E-2,1.8130317E-2],"split_indices":[17,16,17,16,18,0,0,0,0,18,19,19,15,0,0,0,0,0,0,0,0,0,0],"split_type":[0,0,0,0,0,0,0,0,0,0,0,0,0,0,0,0,0,0,0,0,0,0,0],"sum_hessian":[6.2020625E3,5.4585073E3,7.435548E2,3.6130658E2,5.097201E3,1.0598699E2,6.375678E2,3.3349982E2,2.7806763E1,7.102142E2,4.386987E3,6.9947075E1,3.6039917E1,1.2128763E1,1.56779995E1,5.3439185E2,1.7582234E2,3.859724E3,5.272627E2,6.643335E1,3.5137205E0,1.2199173E0,3.482E1],"tree_param":{"num_deleted":"0","num_feature":"20","num_nodes":"23","size_leaf_vector":"1"}},{"base_weights":[-5.4826133E-2,-1.9817941E-1,1.01022E0,-3.3329484E-1,6.276213E-2,6.562672E-1,5.3473275E-2,-5.004332E-1,5.602165E-2,5.266322E-2,4.2226142E-1,4.4566806E-2,-3.765484E-2,-2.428701E-2,3.332266E-2],"categories":[],"categories_nodes":[],"categories_segments":[],"categories_sizes":[],"default_left":[0,0,0,0,0,0,0,0,0,0,0,0,0,0,0],"id":48,"left_children":[1,3,5,7,-1,9,-1,11,-1,-1,13,-1,-1,-1,-1],"loss_changes":[9.1838434E2,1.0414806E3,1.4262207E1,1.1792639E3,0E0,9.300896E0,0E0,1.5309127E3,0E0,0E0,1.5328067E1,0E0,0E0,0E0,0E0],"parents":[2147483647,0,0,1,1,2,2,3,3,5,5,7,7,10,10],"right_children":[2,4,6,8,-1,10,-1,12,-1,-1,14,-1,-1,-1,-1],"split_conditions":[2.3620913E0,2.5536208E0,2.6527371E0,2.506263E0,6.276213E-2,9E-1,5.3473275E-2,-2.3867218E0,5.602165E-2,5.266322E-2,1E0,4.4566806E-2,-3.765484E-2,-2.428701E-2,3.332266E-2],"split_indices":[17,16,17,19,0,1,0,18,0,0,1,0,0,0,0],"split_type":[0,0,0,0,0,0,0,0,0,0,0,0,0,0,0],"sum_hessian":[6.012865E3,5.3002725E3,7.125931E2,4.850155E3,4.5011746E2,1.03905106E2,6.08688E2,4.350611E3,4.9954385E2,3.7234596E1,6.667051E1,6.6807355E2,3.6825374E3,1.3920266E1,5.2750244E1],"tree_param":{"num_deleted":"0","num_feature":"20","num_nodes":"15","size_leaf_vector":"1"}},{"base_weights":[-5.3740244E-2,-1.9437371E-1,1.004395E0,1.4341401E0,-3.1625357E-1,6.439898E-1,5.328399E-2,7.512709E-2,5.9397894E-1,-5.007777E-1,1.0185633E0,8.733178E-1,2.4216117E-1,9.5784634E-2,-2.9224038E-2,4.345343E-2,-3.7332684E-2,1.8007966E-2,6.1983157E-2,3.9111026E-2,9.623987E-2,-1.636633E-2,3.1716153E-2],"categories":[],"categories_nodes":[],"categories_segments":[],"categories_sizes":[],"default_left":[0,0,0,0,0,0,0,0,0,0,0,0,0,0,0,0,0,0,0,0,0,0,0],"id":49,"left_children":[1,3,5,7,9,11,-1,-1,13,15,17,19,21,-1,-1,-1,-1,-1,-1,-1,-1,-1,-1],"loss_changes":[8.660483E2,1.02001697E3,1.4394165E1,1.9672913E1,1.177834E3,9.165207E0,0E0,0E0,4.5658936E1,1.4152853E3,8.4109985E1,4.662918E0,8.773635E0,0E0,0E0,0E0,0E0,0E0,0E0,0E0,0E0,0E0,0E0],"parents":[2147483647,0,0,1,1,2,2,3,3,4,4,5,5,8,8,9,9,10,10,11,11,12,12],"right_children":[2,4,6,8,10,12,-1,-1,14,16,18,20,22,-1,-1,-1,-1,-1,-1,-1,-1,-1,-1],"split_conditions":[2.3620913E0,-2.3151352E0,2.6527371E0,-2.5122354E0,2.3651881E0,1.16E1,5.328399E-2,7.512709E-2,-1.8E0,-2.3867218E0,2.5536208E0,2.8422358E0,3.13E1,9.5784634E-2,-2.9224038E-2,4.345343E-2,-3.7332684E-2,1.8007966E-2,6.1983157E-2,3.9111026E-2,9.623987E-2,-1.636633E-2,3.1716153E-2],"split_indices":[17,16,17,16,16,4,0,0,0,18,16,19,3,0,0,0,0,0,0,0,0,0,0],"split_type":[0,0,0,0,0,0,0,0,0,0,0,0,0,0,0,0,0,0,0,0,0,0,0],"sum_hessian":[5.8175435E3,5.1357793E3,6.8176416E2,3.5685446E2,4.778925E3,1.0075408E2,5.810101E2,3.292594E2,2.7595045E1,4.1990728E3,5.79852E2,6.339851E1,3.735557E1,1.2712084E1,1.488296E1,6.386172E2,3.5604556E3,1.4643076E2,4.3342123E2,5.994865E1,3.4498603E0,1.5301067E1,2.2054504E1],"tree_param":{"num_deleted":"0","num_feature":"20","num_nodes":"23","size_leaf_vector":"1"}},{"base_weights":[-5.239925E-2,-1.7721388E-1,5.607884E-2,-3.339612E-1,9.8417556E-1,1.3939501E0,-4.7926223E-1,5.4367006E-1,5.3097457E-2,7.329714E-2,2.7394852E-2,-3.5337154E-2,4.974549E-2,5.2198213E-2,1.1963627E-2],"categories":[],"categories_nodes":[],"categories_segments":[],"categories_sizes":[],"default_left":[0,0,0,0,0,0,0,0,0,0,0,0,0,0,0],"id":50,"left_children":[1,3,-1,5,7,9,11,13,-1,-1,-1,-1,-1,-1,-1],"loss_changes":[8.292075E2,9.3144916E2,0E0,1.1323057E3,2.0269104E1,2.050769E1,1.3952153E3,1.3967642E1,0E0,0E0,0E0,0E0,0E0,0E0,0E0],"parents":[2147483647,0,0,1,1,3,3,4,4,5,5,6,6,7,7],"right_children":[2,4,-1,6,8,10,12,14,-1,-1,-1,-1,-1,-1,-1],"split_conditions":[2.506263E0,2.3620913E0,5.607884E-2,-2.3151352E0,2.6527371E0,-2.5122354E0,2.3651881E0,9E-1,5.3097457E-2,7.329714E-2,2.7394852E-2,-3.5337154E-2,4.974549E-2,5.2198213E-2,1.1963627E-2],"split_indices":[19,17,0,16,17,16,16,1,0,0,0,0,0,0,0],"split_type":[0,0,0,0,0,0,0,0,0,0,0,0,0,0,0],"sum_hessian":[5.656629E3,5.1137905E3,5.428382E2,4.5063076E3,6.074829E2,3.4887793E2,4.1574297E3,9.235868E1,5.151242E2,3.2084387E2,2.803407E1,3.602106E3,5.553236E2,3.4018227E1,5.834045E1],"tree_param":{"num_deleted":"0","num_feature":"20","num_nodes":"15","size_leaf_vector":"1"}},{"base_weights":[-5.102033E-2,-1.7269187E-1,5.57633E-2,5.4950755E-2,-3.1284678E-1,-5.044171E-1,9.768561E-1,-3.6538698E-2,4.8113354E-2,2.6404817E-2,5.2926958E-2],"categories":[],"categories_nodes":[],"categories_segments":[],"categories_sizes":[],"default_left":[0,0,0,0,0,0,0,0,0,0,0],"id":51,"left_children":[1,3,-1,-1,5,7,9,-1,-1,-1,-1],"loss_changes":[7.814233E2,8.8905273E2,0E0,0E0,1.1103118E3,1.2993531E3,2.0748291E1,0E0,0E0,0E0,0E0],"parents":[2147483647,0,0,1,1,4,4,5,5,6,6],"right_children":[2,4,-1,-1,6,8,10,-1,-1,-1,-1],"split_conditions":[2.506263E0,-2.5362961E0,5.57633E-2,5.4950755E-2,2.3620913E0,2.3651881E0,2.6527371E0,-3.6538698E-2,4.8113354E-2,2.6404817E-2,5.2926958E-2],"split_indices":[19,18,0,0,17,16,17,0,0,0,0],"split_type":[0,0,0,0,0,0,0,0,0,0,0],"sum_hessian":[5.504353E3,4.985136E3,5.192169E2,4.941932E2,4.490943E3,3.9106677E3,5.8027527E2,3.3882524E3,5.2241516E2,9.050633E1,4.8976892E2],"tree_param":{"num_deleted":"0","num_feature":"20","num_nodes":"11","size_leaf_vector":"1"}},{"base_weights":[-4.9921717E-2,7.245802E-2,-1.4474481E-1,-2.8272912E-1,5.5465776E-2,8.713044E-1,-4.752779E-1,5.4683156E-2,1.3563164E-2,-3.58763E-2,4.8458632E-2],"categories":[],"categories_nodes":[],"categories_segments":[],"categories_sizes":[],"default_left":[0,0,0,0,0,0,0,0,0,0,0],"id":52,"left_children":[1,-1,3,5,-1,7,9,-1,-1,-1,-1],"loss_changes":[7.583009E2,0E0,8.684172E2,1.00485535E3,0E0,8.5990234E1,1.3564666E3,0E0,0E0,0E0,0E0],"parents":[2147483647,0,0,2,2,3,3,5,5,6,6],"right_children":[2,-1,4,6,-1,8,10,-1,-1,-1,-1],"split_conditions":[-2.5122354E0,7.245802E-2,2.506263E0,-2.3867218E0,5.5465776E-2,-2.5362961E0,2.3620913E0,5.4683156E-2,1.3563164E-2,-3.58763E-2,4.8458632E-2],"split_indices":[16,0,19,18,0,18,17,0,0,0,0],"split_type":[0,0,0,0,0,0,0,0,0,0,0],"sum_hessian":[5.3321255E3,3.1636404E2,5.015761E3,4.5192793E3,4.9648187E2,6.4571106E2,3.8735684E3,4.705249E2,1.7518616E2,3.3176672E3,5.559011E2],"tree_param":{"num_deleted":"0","num_feature":"20","num_nodes":"11","size_leaf_vector":"1"}},{"base_weights":[-4.875237E-2,1.3535323E0,-1.459802E-1,7.08748E-2,6.01119E-1,-2.8207856E-1,5.5185862E-2,1.8060173E0,-5.862363E-1,-4.3155295E-1,6.0660113E-2,1.8114966E-1,3.9456263E-2,4.1095484E-2,-4.788982E-2,-3.2421883E-2,4.8034932E-2],"categories":[],"categories_nodes":[],"categories_segments":[],"categories_sizes":[],"default_left":[0,0,0,0,0,0,0,0,0,0,0,0,0,0,0,0,0],"id":53,"left_children":[1,3,5,-1,7,9,-1,11,13,15,-1,-1,-1,-1,-1,-1,-1],"loss_changes":[7.0553046E2,1.5296082E1,8.232971E2,0E0,4.115312E1,9.7598224E2,0E0,2.3294773E1,8.567586E0,1.1989304E3,0E0,0E0,0E0,0E0,0E0,0E0,0E0],"parents":[2147483647,0,0,1,1,2,2,4,4,5,5,7,7,8,8,9,9],"right_children":[2,4,6,-1,8,10,-1,12,14,16,-1,-1,-1,-1,-1,-1,-1],"split_conditions":[-2.3151352E0,-2.5122354E0,2.506263E0,7.08748E-2,-1.8E0,2.5536208E0,5.5185862E-2,1.3E1,-2.6317854E0,2.3620913E0,6.0660113E-2,1.8114966E-1,3.9456263E-2,4.1095484E-2,-4.788982E-2,-3.2421883E-2,4.8034932E-2],"split_indices":[16,16,19,0,0,16,0,14,18,17,0,0,0,0,0,0,0],"split_type":[0,0,0,0,0,0,0,0,0,0,0,0,0,0,0,0,0],"sum_hessian":[5.1722964E3,3.3453192E2,4.8377646E3,3.0750647E2,2.7025427E1,4.363348E3,4.744165E2,1.315501E1,1.3870417E1,3.9674563E3,3.9589175E2,3.8008564E0,9.354155E0,2.6427648E0,1.1227653E1,3.4331716E3,5.342847E2],"tree_param":{"num_deleted":"0","num_feature":"20","num_nodes":"17","size_leaf_vector":"1"}},{"base_weights":[-4.735033E-2,5.4563303E-2,-1.6259655E-1,-3.016587E-1,5.4919727E-2,1.3254294E0,-4.3958467E-1,6.9525585E-2,2.5640747E-2,-3.2835674E-2,4.7593374E-2],"categories":[],"categories_nodes":[],"categories_segments":[],"categories_sizes":[],"default_left":[0,0,0,0,0,0,0,0,0,0,0],"id":54,"left_children":[1,-1,3,5,-1,7,9,-1,-1,-1,-1],"loss_changes":[6.6110504E2,0E0,8.025277E2,9.2542377E2,0E0,1.6331665E1,1.148632E3,0E0,0E0,0E0,0E0],"parents":[2147483647,0,0,2,2,3,3,5,5,6,6],"right_children":[2,-1,4,6,-1,8,10,-1,-1,-1,-1],"split_conditions":[-2.5362961E0,5.4563303E-2,2.506263E0,-2.3151352E0,5.4919727E-2,-2.5122354E0,2.3620913E0,6.9525585E-2,2.5640747E-2,-3.2835674E-2,4.7593374E-2],"split_indices":[18,0,19,16,0,16,17,0,0,0,0],"split_type":[0,0,0,0,0,0,0,0,0,0,0],"sum_hessian":[5.035742E3,4.620716E2,4.573671E3,4.1200703E3,4.536007E2,3.212876E2,3.7987825E3,2.9680533E2,2.4482273E1,3.2864736E3,5.1230896E2],"tree_param":{"num_deleted":"0","num_feature":"20","num_nodes":"11","size_leaf_vector":"1"}},{"base_weights":[-4.609805E-2,-1.551779E-1,6.0300197E-2,-3.0348843E-1,9.575124E-1,8.619859E-1,-5.1014245E-1,4.94009E-1,5.2369088E-2,5.43842E-2,1.4859557E-2,-3.6056753E-2,5.4421753E-2,5.11669E-2,1.1379954E-2],"categories":[],"categories_nodes":[],"categories_segments":[],"categories_sizes":[],"default_left":[0,0,0,0,0,0,0,0,0,0,0,0,0,0,0],"id":55,"left_children":[1,3,-1,5,7,9,11,13,-1,-1,-1,-1,-1,-1,-1],"loss_changes":[6.6866626E2,7.434106E2,0E0,9.5763635E2,2.1554047E1,7.60238E1,1.1395763E3,1.2168909E1,0E0,0E0,0E0,0E0,0E0,0E0,0E0],"parents":[2147483647,0,0,1,1,3,3,4,4,5,5,6,6,7,7],"right_children":[2,4,-1,6,8,10,12,14,-1,-1,-1,-1,-1,-1,-1],"split_conditions":[2.5536208E0,2.3620913E0,6.0300197E-2,-2.3867218E0,2.6527371E0,-2.5362961E0,2.506263E0,9E-1,5.2369088E-2,5.43842E-2,1.4859557E-2,-3.6056753E-2,5.4421753E-2,5.11669E-2,1.1379954E-2],"split_indices":[16,17,0,18,17,18,19,1,0,0,0,0,0,0,0],"split_type":[0,0,0,0,0,0,0,0,0,0,0,0,0,0,0],"sum_hessian":[4.893447E3,4.502111E3,3.9133606E2,3.9732441E3,5.2886664E2,5.979263E2,3.3753179E3,8.694464E1,4.4192203E2,4.2654742E2,1.7137883E2,2.982247E3,3.9307095E2,2.815746E1,5.8787186E1],"tree_param":{"num_deleted":"0","num_feature":"20","num_nodes":"15","size_leaf_vector":"1"}},{"base_weights":[-4.5063965E-2,1.3113201E0,-1.4384677E-1,6.878979E-2,5.8004445E-1,-2.685772E-1,5.9689667E-2,1.6599866E0,-6.042302E-1,-4.4363302E-1,9.505572E-1,-3.38449E-2,1.0777475E-1,3.9090827E-2,-4.7563795E-2,4.2268496E-2,-3.471459E-2,2.3948543E-2,5.2236717E-2],"categories":[],"categories_nodes":[],"categories_segments":[],"categories_sizes":[],"default_left":[0,0,0,0,0,0,0,0,0,0,0,0,0,0,0,0,0,0,0],"id":56,"left_children":[1,3,5,-1,7,9,-1,11,13,15,17,-1,-1,-1,-1,-1,-1,-1,-1],"loss_changes":[6.350618E2,1.4372559E1,7.37364E2,0E0,3.6556545E1,8.6296155E2,0E0,1.860458E1,7.474267E0,1.142679E3,2.2051575E1,0E0,0E0,0E0,0E0,0E0,0E0,0E0,0E0],"parents":[2147483647,0,0,1,1,2,2,4,4,5,5,7,7,8,8,9,9,10,10],"right_children":[2,4,6,-1,8,10,-1,12,14,16,18,-1,-1,-1,-1,-1,-1,-1,-1],"split_conditions":[-2.3151352E0,-2.5122354E0,2.5536208E0,6.878979E-2,-1.8E0,2.3620913E0,5.9689667E-2,3.58E-1,-2.6317854E0,-2.3867218E0,2.6527371E0,-3.38449E-2,1.0777475E-1,3.9090827E-2,-4.7563795E-2,4.2268496E-2,-3.471459E-2,2.3948543E-2,5.2236717E-2],"split_indices":[16,16,16,0,0,17,0,12,18,18,17,0,0,0,0,0,0,0,0],"split_type":[0,0,0,0,0,0,0,0,0,0,0,0,0,0,0,0,0,0,0],"sum_hessian":[4.7373047E3,3.2075476E2,4.41655E3,2.9395572E2,2.6799042E1,4.0405789E3,3.7597107E2,1.3806855E1,1.2992187E1,3.5337961E3,5.0678265E2,2.351376E0,1.1455479E1,2.3507752E0,1.0641411E1,5.7492E2,2.9588762E3,8.537227E1,4.214104E2],"tree_param":{"num_deleted":"0","num_feature":"20","num_nodes":"19","size_leaf_vector":"1"}},{"base_weights":[-4.387274E-2,-1.5906142E-1,5.4575454E-2,-3.1068563E-1,9.622311E-1,1.2824315E0,-4.5814273E-1,3.9265415E-1,5.9188467E-2,6.752447E-2,2.7059158E-2,4.128037E-2,-3.5593856E-2,-6.447845E-2,2.3339901E-2],"categories":[],"categories_nodes":[],"categories_segments":[],"categories_sizes":[],"default_left":[0,0,0,0,0,0,0,0,0,0,0,0,0,0,0],"id":57,"left_children":[1,3,-1,5,7,9,11,13,-1,-1,-1,-1,-1,-1,-1],"loss_changes":[6.0303973E2,7.1197284E2,0E0,8.669802E2,6.248227E1,1.5044617E1,1.1003813E3,1.8212374E1,0E0,0E0,0E0,0E0,0E0,0E0,0E0],"parents":[2147483647,0,0,1,1,3,3,4,4,5,5,6,6,7,7],"right_children":[2,4,-1,6,8,10,12,14,-1,-1,-1,-1,-1,-1,-1],"split_conditions":[2.506263E0,2.3651881E0,5.4575454E-2,-2.3151352E0,2.5536208E0,-2.5122354E0,-2.3867218E0,1.23E1,5.9188467E-2,6.752447E-2,2.7059158E-2,4.128037E-2,-3.5593856E-2,-6.447845E-2,2.3339901E-2],"split_indices":[19,16,0,16,16,16,18,0,0,0,0,0,0,0,0],"split_type":[0,0,0,0,0,0,0,0,0,0,0,0,0,0,0],"sum_hessian":[4.6086626E3,4.184945E3,4.2371814E2,3.6870894E3,4.9785535E2,3.1170883E2,3.3753804E3,1.4019218E2,3.5766315E2,2.847432E2,2.6965641E1,5.566744E2,2.818706E3,5.2261076E0,1.3496608E2],"tree_param":{"num_deleted":"0","num_feature":"20","num_nodes":"15","size_leaf_vector":"1"}},{"base_weights":[-4.2675268E-2,-1.548671E-1,5.43427E-2,-2.770167E-1,5.864917E-2,-4.4972306E-1,9.342109E-1,4.0305313E-2,-3.5167318E-2,1.9983616E-2,5.2190155E-2],"categories":[],"categories_nodes":[],"categories_segments":[],"categories_sizes":[],"default_left":[0,0,0,0,0,0,0,0,0,0,0],"id":58,"left_children":[1,3,-1,5,-1,7,9,-1,-1,-1,-1],"loss_changes":[5.690685E2,6.6282385E2,0E0,7.8304395E2,0E0,1.0436973E3,2.6952667E1,0E0,0E0,0E0,0E0],"parents":[2147483647,0,0,1,1,3,3,5,5,6,6],"right_children":[2,4,-1,6,-1,8,10,-1,-1,-1,-1],"split_conditions":[2.506263E0,2.5536208E0,5.43427E-2,2.3620913E0,5.864917E-2,-2.3867218E0,2.6527371E0,4.0305313E-2,-3.5167318E-2,1.9983616E-2,5.2190155E-2],"split_indices":[19,16,0,17,0,18,17,0,0,0,0],"split_type":[0,0,0,0,0,0,0,0,0,0,0],"sum_hessian":[4.488287E3,4.0835469E3,4.0474023E2,3.740269E3,3.4327777E2,3.274057E3,4.6621213E2,5.49752E2,2.724305E3,8.011176E1,3.8610037E2],"tree_param":{"num_deleted":"0","num_feature":"20","num_nodes":"11","size_leaf_vector":"1"}},{"base_weights":[-4.1687217E-2,6.69625E-2,-1.370574E-1,-2.6525787E-1,5.41221E-2,-4.4109315E-1,9.393882E-1,-3.310426E-2,4.631072E-2,2.0348636E-2,5.8144253E-2],"categories":[],"categories_nodes":[],"categories_segments":[],"categories_sizes":[],"default_left":[0,0,0,0,0,0,0,0,0,0,0],"id":59,"left_children":[1,-1,3,5,-1,7,9,-1,-1,-1,-1],"loss_changes":[5.7335657E2,0E0,6.368835E2,7.8103784E2,0E0,9.7255383E2,5.5421265E1,0E0,0E0,0E0,0E0],"parents":[2147483647,0,0,2,2,3,3,5,5,6,6],"right_children":[2,-1,4,6,-1,8,10,-1,-1,-1,-1],"split_conditions":[-2.5122354E0,6.69625E-2,2.506263E0,2.3651881E0,5.41221E-2,2.3620913E0,2.5536208E0,-3.310426E-2,4.631072E-2,2.0348636E-2,5.8144253E-2],"split_indices":[16,0,19,16,0,17,16,0,0,0,0],"split_type":[0,0,0,0,0,0,0,0,0,0,0],"sum_hessian":[4.3511025E3,2.8024078E2,4.0708618E3,3.6843276E3,3.865342E2,3.2155989E3,4.6872873E2,2.7686326E3,4.4696643E2,1.3942072E2,3.29308E2],"tree_param":{"num_deleted":"0","num_feature":"20","num_nodes":"11","size_leaf_vector":"1"}},{"base_weights":[-4.0490057E-2,1.2554022E0,-1.3859423E-1,6.58462E-2,5.952505E-1,5.3693946E-2,-2.7026817E-1,2.4235077E0,-7.250162E-2,-4.486778E-1,9.3146914E-1,1.7516918E-2,1.598574E-1,2.5943577E-2,-4.450111E-2,-3.394896E-2,4.581302E-2,2.1691358E-2,5.1953264E-2],"categories":[],"categories_nodes":[],"categories_segments":[],"categories_sizes":[],"default_left":[0,0,0,0,0,0,0,0,0,0,0,0,0,0,0,0,0,0,0],"id":60,"left_children":[1,3,5,-1,7,-1,9,11,13,15,17,-1,-1,-1,-1,-1,-1,-1,-1],"loss_changes":[5.3876184E2,1.1328857E1,6.2918585E2,0E0,3.3442654E1,0E0,7.624225E2,1.06188965E1,1.0580879E1,9.7363385E2,2.4166718E1,0E0,0E0,0E0,0E0,0E0,0E0,0E0,0E0],"parents":[2147483647,0,0,1,1,2,2,4,4,6,6,7,7,8,8,9,9,10,10],"right_children":[2,4,6,-1,8,-1,10,12,14,16,18,-1,-1,-1,-1,-1,-1,-1,-1],"split_conditions":[-2.3151352E0,-2.5122354E0,-2.5362961E0,6.58462E-2,-1E0,5.3693946E-2,2.3620913E0,-6.8982697E-1,-2.7402064E-1,2.3651881E0,2.6527371E0,1.7516918E-2,1.598574E-1,2.5943577E-2,-4.450111E-2,-3.394896E-2,4.581302E-2,2.1691358E-2,5.1953264E-2],"split_indices":[16,16,18,0,5,0,17,18,17,16,17,0,0,0,0,0,0,0,0],"split_type":[0,0,0,0,0,0,0,0,0,0,0,0,0,0,0,0,0,0,0],"sum_hessian":[4.235431E3,2.9724335E2,3.9381877E3,2.709937E2,2.6249615E1,3.8508765E2,3.5531E3,6.319079E0,1.9930536E1,3.0943413E3,4.587586E2,2.1120744E0,4.2070045E0,1.1776809E1,8.153727E0,2.6480479E3,4.4629358E2,8.245035E1,3.7630826E2],"tree_param":{"num_deleted":"0","num_feature":"20","num_nodes":"19","size_leaf_vector":"1"}},{"base_weights":[-3.9320868E-2,-1.524318E-1,5.402059E-2,5.349207E-2,-2.8706077E-1,1.2329819E0,-4.275371E-1,6.487427E-2,2.5716096E-2,-3.2105524E-2,4.435307E-2],"categories":[],"categories_nodes":[],"categories_segments":[],"categories_sizes":[],"default_left":[0,0,0,0,0,0,0,0,0,0,0],"id":61,"left_children":[1,3,-1,-1,5,7,9,-1,-1,-1,-1],"loss_changes":[5.2254944E2,6.168827E2,0E0,0E0,7.214017E2,1.2583923E1,8.725082E2,0E0,0E0,0E0,0E0],"parents":[2147483647,0,0,1,1,4,4,5,5,6,6],"right_children":[2,4,-1,-1,6,8,10,-1,-1,-1,-1],"split_conditions":[2.506263E0,-2.5362961E0,5.402059E-2,5.349207E-2,-2.3151352E0,-2.5122354E0,2.3651881E0,6.487427E-2,2.5716096E-2,-3.2105524E-2,4.435307E-2],"split_indices":[19,18,0,0,16,16,16,0,0,0,0],"split_type":[0,0,0,0,0,0,0,0,0,0,0],"sum_hessian":[4.1235024E3,3.7459639E3,3.7753848E2,3.709774E2,3.3749863E3,2.8485867E2,3.0901277E3,2.6065787E2,2.4200829E1,2.656961E3,4.3316687E2],"tree_param":{"num_deleted":"0","num_feature":"20","num_nodes":"11","size_leaf_vector":"1"}},{"base_weights":[-3.8104694E-2,-1.4808221E-1,5.3815026E-2,5.3296655E-2,-2.7836505E-1,-4.5381892E-1,9.150328E-1,-3.402088E-2,4.2969607E-2,1.7938169E-2,5.1915616E-2],"categories":[],"categories_nodes":[],"categories_segments":[],"categories_sizes":[],"default_left":[0,0,0,0,0,0,0,0,0,0,0],"id":62,"left_children":[1,3,-1,-1,5,7,9,-1,-1,-1,-1],"loss_changes":[4.9320068E2,5.795625E2,0E0,0E0,6.931188E2,8.5904535E2,2.872937E1,0E0,0E0,0E0,0E0],"parents":[2147483647,0,0,1,1,4,4,5,5,6,6],"right_children":[2,4,-1,-1,6,8,10,-1,-1,-1,-1],"split_conditions":[2.506263E0,-2.5362961E0,5.3815026E-2,5.3296655E-2,2.3620913E0,2.3651881E0,2.6527371E0,-3.402088E-2,4.2969607E-2,1.7938169E-2,5.1915616E-2],"split_indices":[19,18,0,0,17,16,17,0,0,0,0],"split_type":[0,0,0,0,0,0,0,0,0,0,0],"sum_hessian":[4.0218726E3,3.6614058E3,3.6046674E2,3.5414963E2,3.307256E3,2.8838857E3,4.233704E2,2.4599036E3,4.239821E2,7.7514595E1,3.458558E2],"tree_param":{"num_deleted":"0","num_feature":"20","num_nodes":"11","size_leaf_vector":"1"}},{"base_weights":[-3.712678E-2,1.2232447E0,-1.3613422E-1,6.4361654E-2,5.69905E-1,-2.6328275E-1,5.3620365E-2,1.4714305E0,-6.131027E-1,8.042351E-1,-4.6001446E-1,1.4152667E-1,3.207522E-2,3.6364865E-2,-4.6854552E-2,5.310718E-2,1.527752E-2,-3.476773E-2,4.533891E-2],"categories":[],"categories_nodes":[],"categories_segments":[],"categories_sizes":[],"default_left":[0,0,0,0,0,0,0,0,0,0,0,0,0,0,0,0,0,0,0],"id":63,"left_children":[1,3,5,-1,7,9,-1,11,13,15,17,-1,-1,-1,-1,-1,-1,-1,-1],"loss_changes":[4.874897E2,1.116156E1,5.5681354E2,0E0,2.9885448E1,6.887501E2,0E0,1.5912094E1,6.092144E0,6.532352E1,8.911012E2,0E0,0E0,0E0,0E0,0E0,0E0,0E0,0E0],"parents":[2147483647,0,0,1,1,2,2,4,4,5,5,7,7,8,8,9,9,10,10],"right_children":[2,4,6,-1,8,10,-1,12,14,16,18,-1,-1,-1,-1,-1,-1,-1,-1],"split_conditions":[-2.3151352E0,-2.5122354E0,2.506263E0,6.4361654E-2,-1.8E0,-2.3867218E0,5.3620365E-2,1.3E1,-2.6317854E0,-2.5362961E0,2.3620913E0,1.4152667E-1,3.207522E-2,3.6364865E-2,-4.6854552E-2,5.310718E-2,1.527752E-2,-3.476773E-2,4.533891E-2],"split_indices":[16,16,19,0,0,18,0,14,18,18,17,0,0,0,0,0,0,0,0],"split_type":[0,0,0,0,0,0,0,0,0,0,0,0,0,0,0,0,0,0,0],"sum_hessian":[3.904266E3,2.835318E2,3.6207344E3,2.57356E2,2.6175806E1,3.276773E3,3.439614E2,1.4716846E1,1.145896E1,5.0942285E2,2.76735E3,4.6656713E0,1.0051176E1,1.988274E0,9.470685E0,3.350254E2,1.7439745E2,2.3612683E3,4.0608185E2],"tree_param":{"num_deleted":"0","num_feature":"20","num_nodes":"19","size_leaf_vector":"1"}},{"base_weights":[-3.6115434E-2,1.201435E0,-1.3307786E-1,6.344657E-2,5.42407E-1,-2.5713122E-1,5.343465E-2,1.351823E0,-6.065586E-1,7.889219E-1,-4.4913074E-1,9.5638655E-2,-8.67935E-3,3.5885155E-2,-4.6581604E-2,5.2931417E-2,1.4534786E-2,-3.4484714E-2,4.2775676E-2],"categories":[],"categories_nodes":[],"categories_segments":[],"categories_sizes":[],"default_left":[0,0,0,0,0,0,0,0,0,0,0,0,0,0,0,0,0,0,0],"id":64,"left_children":[1,3,5,-1,7,9,-1,11,13,15,17,-1,-1,-1,-1,-1,-1,-1,-1],"loss_changes":[4.551743E2,1.1571411E1,5.246479E2,0E0,2.6256773E1,6.408401E2,0E0,1.4328129E1,5.832253E0,6.619705E1,8.4644305E2,0E0,0E0,0E0,0E0,0E0,0E0,0E0,0E0],"parents":[2147483647,0,0,1,1,2,2,4,4,5,5,7,7,8,8,9,9,10,10],"right_children":[2,4,6,-1,8,10,-1,12,14,16,18,-1,-1,-1,-1,-1,-1,-1,-1],"split_conditions":[-2.3151352E0,-2.5122354E0,2.506263E0,6.344657E-2,-1.8E0,-2.3867218E0,5.343465E-2,3.1E1,-2.6317854E0,-2.5362961E0,2.3651881E0,9.5638655E-2,-8.67935E-3,3.5885155E-2,-4.6581604E-2,5.2931417E-2,1.4534786E-2,-3.4484714E-2,4.2775676E-2],"split_indices":[16,16,19,0,0,18,0,15,18,18,16,0,0,0,0,0,0,0,0],"split_type":[0,0,0,0,0,0,0,0,0,0,0,0,0,0,0,0,0,0,0],"sum_hessian":[3.7909167E3,2.7461108E2,3.5163057E3,2.4825941E2,2.6351673E1,3.188008E3,3.2829758E2,1.5356714E1,1.0994958E1,4.9392007E2,2.694088E3,1.104216E1,4.3145547E0,1.928983E0,9.065975E0,3.1972012E2,1.7419994E2,2.2750605E3,4.190274E2],"tree_param":{"num_deleted":"0","num_feature":"20","num_nodes":"19","size_leaf_vector":"1"}},{"base_weights":[-3.5035364E-2,-1.5975364E-1,9.175531E-1,-2.8340626E-1,5.660648E-2,4.0886137E-1,5.1760912E-2,1.18021E0,-4.2699355E-1,5.0620627E-2,1.2292232E-1,6.259919E-2,2.5610378E-2,3.8320184E-2,-3.3746403E-2,-3.7255745E-2,2.410507E-2],"categories":[],"categories_nodes":[],"categories_segments":[],"categories_sizes":[],"default_left":[0,0,0,0,0,0,0,0,0,0,0,0,0,0,0,0,0],"id":65,"left_children":[1,3,5,7,-1,9,-1,11,13,-1,15,-1,-1,-1,-1,-1,-1],"loss_changes":[4.3923248E2,5.225003E2,2.5195465E1,6.276306E2,0E0,1.403693E1,0E0,1.2153534E1,8.047979E2,0E0,1.8073704E1,0E0,0E0,0E0,0E0,0E0,0E0],"parents":[2147483647,0,0,1,1,2,2,3,3,5,5,7,7,8,8,10,10],"right_children":[2,4,6,8,-1,10,-1,12,14,-1,16,-1,-1,-1,-1,-1,-1],"split_conditions":[2.3620913E0,2.5536208E0,2.6527371E0,-2.3151352E0,5.660648E-2,9E-1,5.1760912E-2,-2.5122354E0,-2.3867218E0,5.0620627E-2,1E0,6.259919E-2,2.5610378E-2,3.8320184E-2,-3.3746403E-2,-3.7255745E-2,2.410507E-2],"split_indices":[17,16,17,16,0,1,0,16,18,0,1,0,0,0,0,0,0],"split_type":[0,0,0,0,0,0,0,0,0,0,0,0,0,0,0,0,0],"sum_hessian":[3.694848E3,3.2678367E3,4.2701132E2,2.9830906E3,2.8474594E2,8.105743E1,3.4595392E2,2.6586386E2,2.7172268E3,2.524031E1,5.5817116E1,2.392801E2,2.6583754E1,4.6705118E2,2.2501755E3,1.6021955E1,3.9795162E1],"tree_param":{"num_deleted":"0","num_feature":"20","num_nodes":"17","size_leaf_vector":"1"}},{"base_weights":[-3.4024324E-2,-1.4231695E-1,5.3371776E-2,-2.664342E-1,5.167506E-2,7.0091736E-1,-4.695498E-1,5.2657943E-2,1.086308E-2,5.805376E-2,-3.2958146E-2],"categories":[],"categories_nodes":[],"categories_segments":[],"categories_sizes":[],"default_left":[0,0,0,0,0,0,0,0,0,0,0],"id":66,"left_children":[1,3,-1,5,-1,7,9,-1,-1,-1,-1],"loss_changes":[4.2909595E2,4.782385E2,0E0,5.8254596E2,0E0,8.744238E1,7.5814044E2,0E0,0E0,0E0,0E0],"parents":[2147483647,0,0,1,1,3,3,5,5,6,6],"right_children":[2,4,-1,6,-1,8,10,-1,-1,-1,-1],"split_conditions":[2.506263E0,2.6527371E0,5.3371776E-2,-2.0810099E0,5.167506E-2,-2.5362961E0,-2.3151352E0,5.2657943E-2,1.086308E-2,5.805376E-2,-3.2958146E-2],"split_indices":[19,17,0,18,0,18,16,0,0,0,0],"split_type":[0,0,0,0,0,0,0,0,0,0,0],"sum_hessian":[3.5951108E3,3.2740825E3,3.2102838E2,2.962174E3,3.1190833E2,5.1361206E2,2.448562E3,2.9649802E2,2.1711401E2,2.5453157E2,2.1940305E3],"tree_param":{"num_deleted":"0","num_feature":"20","num_nodes":"11","size_leaf_vector":"1"}},{"base_weights":[-3.301357E-2,-1.3391928E-1,5.64236E-2,-2.7948517E-1,9.078797E-1,-4.2858887E-1,5.2919853E-2,4.187225E-1,5.1559042E-2,3.6609195E-2,-3.378484E-2,5.05369E-2,7.103027E-3],"categories":[],"categories_nodes":[],"categories_segments":[],"categories_sizes":[],"default_left":[0,0,0,0,0,0,0,0,0,0,0,0,0],"id":67,"left_children":[1,3,-1,5,7,9,-1,11,-1,-1,-1,-1,-1],"loss_changes":[4.1016016E2,4.8851E2,0E0,5.6412744E2,2.3388916E1,7.2993225E2,0E0,1.3155201E1,0E0,0E0,0E0,0E0,0E0],"parents":[2147483647,0,0,1,1,3,3,4,4,5,5,7,7],"right_children":[2,4,-1,6,8,10,-1,12,-1,-1,-1,-1,-1],"split_conditions":[2.5536208E0,2.3620913E0,5.64236E-2,2.506263E0,2.6527371E0,-2.3867218E0,5.2919853E-2,9E-1,5.1559042E-2,3.6609195E-2,-3.378484E-2,5.05369E-2,7.103027E-3],"split_indices":[16,17,0,19,17,18,0,1,0,0,0,0,0],"split_type":[0,0,0,0,0,0,0,0,0,0,0,0,0],"sum_hessian":[3.4973552E3,3.218618E3,2.787373E2,2.824671E3,3.9394684E2,2.542046E3,2.8262512E2,8.019502E1,3.137518E2,4.4582944E2,2.0962163E3,2.4695974E1,5.5499046E1],"tree_param":{"num_deleted":"0","num_feature":"20","num_nodes":"13","size_leaf_vector":"1"}},{"base_weights":[-3.212661E-2,6.1522968E-2,-1.229431E-1,-2.4368636E-1,5.305397E-2,-4.233436E-1,8.5084516E-1,-3.2234956E-2,4.430846E-2,1.668547E-2,5.6091186E-2],"categories":[],"categories_nodes":[],"categories_segments":[],"categories_sizes":[],"default_left":[0,0,0,0,0,0,0,0,0,0,0],"id":68,"left_children":[1,-1,3,5,-1,7,9,-1,-1,-1,-1],"loss_changes":[3.8956747E2,0E0,4.5333316E2,5.660391E2,0E0,7.170596E2,5.6511322E1,0E0,0E0,0E0,0E0],"parents":[2147483647,0,0,2,2,3,3,5,5,6,6],"right_children":[2,-1,4,6,-1,8,10,-1,-1,-1,-1],"split_conditions":[-2.5122354E0,6.1522968E-2,2.506263E0,2.3651881E0,5.305397E-2,2.3620913E0,2.5536208E0,-3.2234956E-2,4.430846E-2,1.668547E-2,5.6091186E-2],"split_indices":[16,0,19,16,0,17,16,0,0,0,0],"split_type":[0,0,0,0,0,0,0,0,0,0,0],"sum_hessian":[3.3951611E3,2.2698125E2,3.1681797E3,2.8757166E3,2.9246323E2,2.470775E3,4.0494165E2,2.113948E3,3.5682684E2,1.3999896E2,2.649427E2],"tree_param":{"num_deleted":"0","num_feature":"20","num_nodes":"11","size_leaf_vector":"1"}},{"base_weights":[-3.1122578E-2,6.0812514E-2,-1.1972413E-1,-2.3706613E-1,5.289625E-2,-4.1175893E-1,8.31693E-1,3.6536373E-2,-3.3369627E-2,1.580846E-2,5.5740673E-2],"categories":[],"categories_nodes":[],"categories_segments":[],"categories_sizes":[],"default_left":[0,0,0,0,0,0,0,0,0,0,0],"id":69,"left_children":[1,-1,3,5,-1,7,9,-1,-1,-1,-1],"loss_changes":[3.6558536E2,0E0,4.270011E2,5.2482935E2,0E0,7.058625E2,5.729898E1,0E0,0E0,0E0,0E0],"parents":[2147483647,0,0,2,2,3,3,5,5,6,6],"right_children":[2,-1,4,6,-1,8,10,-1,-1,-1,-1],"split_conditions":[-2.5122354E0,6.0812514E-2,2.506263E0,2.3651881E0,5.289625E-2,-2.3867218E0,2.5536208E0,3.6536373E-2,-3.3369627E-2,1.580846E-2,5.5740673E-2],"split_indices":[16,0,19,16,0,18,16,